the 0.040777 0.003206 0.003273 -0.117632 -0.083217 -0.081211 -0.071805 -0.163662 0.055675 0.067361 -0.082403 0.046030 -0.131972 0.081237 0.005137 -0.202266 -0.032784 -0.057384 0.052061 -0.010859 0.076536 0.207473 -0.097546 0.190765 -0.037243 -0.117677 0.094464 -0.077011 0.056756 0.043820 -0.160616 0.285057 0.012203 -0.073533 -0.066222 -0.003484 -0.008981 0.205845 -0.223969 -0.012516 0.049286 0.070811 -0.167864 0.068617 0.014601 0.028066 -0.092602 0.027354 0.020749 -0.081491
a -0.030755 0.051172 -0.112995 -0.113737 -0.013622 0.022456 0.163483 0.037568 0.098149 -0.032383 0.053659 -0.033127 0.120859 -0.031304 0.105686 0.080486 0.038395 -0.027982 -0.062121 -0.063604 -0.048491 -0.199463 0.029439 -0.165781 0.039018 0.101603 0.057869 0.014046 0.161734 -0.054520 -0.054264 -0.026715 -0.195742 -0.095827 0.094558 -0.109534 -0.027641 -0.093805 -0.007851 0.045327 0.011605 0.092756 -0.092564 0.003837 0.087758 -0.070957 -0.059255 -0.054021 0.146665 -0.119365
an 0.117482 0.137596 -0.004629 -0.070330 0.013390 0.081991 -0.016150 0.117871 0.117093 0.021170 -0.050782 0.042993 0.013569 0.126210 0.037823 0.076470 -0.158241 0.049152 0.024811 -0.169467 -0.077146 -0.026574 0.000025 -0.052402 -0.040955 -0.036200 0.074485 -0.048312 -0.002072 -0.015986 0.014219 0.012976 0.110957 -0.024543 0.067063 -0.042915 0.008746 0.023955 0.092525 -0.253096 -0.091474 0.001643 -0.056044 0.110013 -0.025038 0.017666 -0.132158 -0.069667 -0.017727 0.021403
and -0.145387 -0.186775 0.089805 0.025680 -0.044845 0.158874 0.098246 0.022151 0.088886 0.166913 -0.020890 -0.077589 -0.027560 -0.108165 -0.170466 0.021789 0.038904 -0.178552 0.001116 -0.061252 -0.086414 -0.145923 0.057491 -0.101333 -0.066756 -0.040130 -0.157168 -0.039576 0.107353 0.004801 -0.009757 0.076685 -0.018230 0.007169 0.135684 -0.041070 -0.091509 0.000920 0.033540 0.020165 -0.147435 -0.085040 0.168377 0.096235 -0.125414 -0.092695 -0.014982 0.018736 0.087378 -0.064751
or -0.054453 0.070006 -0.135848 -0.085435 0.047739 -0.129149 -0.016734 -0.030323 -0.051476 -0.115136 -0.097620 -0.076579 -0.097097 -0.086553 -0.060224 0.017452 -0.180225 0.203196 0.036702 -0.023404 -0.029452 0.033724 -0.054910 0.029656 -0.042025 0.032872 -0.152717 -0.072739 -0.141205 0.094448 -0.102935 0.031723 -0.039337 -0.043772 0.022235 0.069067 0.022403 -0.003715 0.023704 0.176997 -0.013030 0.091621 -0.167166 0.033834 0.130650 -0.103056 -0.158678 0.051323 -0.114730 -0.001652
but -0.041334 -0.063625 -0.061666 0.003454 -0.008829 0.043425 0.110105 0.011886 0.147337 -0.089243 0.187217 0.007364 0.079609 0.050376 -0.042378 0.128134 -0.001107 -0.124900 -0.011141 0.063895 0.251867 -0.049020 -0.179483 -0.245683 0.016726 0.125401 0.072372 -0.119208 -0.003809 -0.082947 -0.121927 -0.064527 -0.000944 0.178831 0.339468 0.021996 0.005470 0.013798 -0.075223 -0.004672 0.084004 0.007779 0.096947 -0.046934 0.039813 0.090639 0.049998 -0.035342 0.045661 -0.074070
in -0.133384 0.115080 -0.071173 -0.047697 -0.029074 0.007135 0.011108 -0.096183 -0.052901 0.048751 -0.165749 -0.091614 -0.052290 0.010315 -0.028357 0.182729 -0.009523 -0.044170 -0.090430 0.054688 -0.004697 0.003499 0.045915 0.065127 0.111375 -0.095521 0.065494 0.066001 -0.067201 0.003064 -0.040448 -0.102137 0.098585 0.015847 0.241815 0.101002 0.002898 0.117301 -0.034323 -0.054230 0.206690 0.057392 -0.057033 -0.148365 0.079079 0.101740 0.133644 0.002163 -0.080809 -0.026575
on -0.236840 0.048398 -0.066735 0.050603 0.038330 0.070081 0.056286 -0.077714 -0.056440 -0.078416 0.055465 0.229630 0.026291 0.027076 0.069121 0.010293 0.030550 0.078413 -0.013751 -0.022895 -0.026685 -0.179352 -0.002703 0.061565 -0.312631 0.198529 0.056177 0.053417 0.001023 0.007123 -0.024070 -0.066897 -0.058657 0.042380 -0.113515 0.032770 0.011963 0.035303 -0.183826 0.057414 0.109277 0.008909 0.158696 -0.004279 0.179858 0.073834 0.195386 0.004666 0.011986 -0.141801
at -0.075331 0.117350 -0.020550 -0.072030 -0.184839 0.008971 -0.003386 -0.034922 -0.104326 0.058598 0.114446 -0.266074 -0.022830 -0.009880 -0.038097 -0.086472 0.090782 0.078439 0.061432 -0.070668 -0.043404 0.019734 0.101125 0.126831 -0.040223 0.000047 -0.086758 0.127599 0.021272 -0.001794 0.031791 -0.095351 0.063469 0.065152 0.007771 -0.101794 0.016188 -0.082845 0.080368 0.167078 -0.182872 -0.151311 0.058373 -0.120130 0.003381 -0.043081 -0.089913 0.051765 -0.137976 0.094333
to 0.023276 -0.140257 0.190965 0.002839 -0.036916 0.096163 -0.128173 -0.036888 0.013264 -0.060078 -0.087201 -0.079124 -0.124322 0.061055 -0.053896 -0.166043 -0.075779 -0.047875 -0.105536 -0.106845 -0.079537 0.058874 -0.009726 -0.075637 0.016754 -0.028299 0.058460 0.097086 0.021508 -0.183681 0.028625 0.086635 -0.183608 -0.065023 -0.007678 -0.039527 0.077659 0.008976 0.063718 0.043390 -0.043455 0.007132 -0.097094 -0.111147 0.162317 0.032493 0.051937 -0.125733 -0.175929 -0.104655
for 0.097839 -0.063936 0.086566 0.100047 -0.013857 -0.104164 0.177144 0.088816 -0.056219 -0.088837 -0.048572 0.024052 -0.165810 -0.069547 -0.013442 0.007780 -0.052008 0.014314 0.030951 -0.019225 -0.114830 -0.037627 -0.036658 -0.115837 -0.036834 -0.000388 0.228619 0.105526 0.190602 -0.016701 -0.098911 0.117231 0.014922 0.007676 -0.035389 -0.046215 -0.011820 0.008146 -0.000250 0.149285 -0.061585 -0.129251 -0.070512 -0.177316 -0.199029 0.024048 -0.000054 -0.063351 0.079463 -0.079182
of -0.032083 -0.037703 -0.112185 -0.086543 -0.162559 0.219947 0.024065 -0.052921 -0.032490 -0.051538 0.061728 -0.197276 0.021746 0.049392 0.028641 -0.029726 -0.034413 0.097253 0.021405 -0.163819 0.077721 -0.127445 -0.082781 -0.086149 -0.058802 -0.070881 0.121407 -0.139310 0.018779 0.131314 0.057373 -0.041070 -0.006519 0.012450 -0.155307 0.099159 0.044193 0.037163 0.041655 -0.039701 -0.124600 0.275046 0.038609 0.089281 0.128870 0.178515 -0.063338 0.096223 -0.026066 -0.034073
with -0.028783 -0.058711 0.076404 -0.153720 0.099123 -0.031900 0.071466 -0.067492 0.010247 0.062969 0.206247 0.025031 0.185525 -0.101223 -0.063533 0.106312 0.082028 -0.117190 -0.102634 0.095637 -0.010408 0.206573 -0.147589 -0.038385 0.047647 0.130287 -0.087528 0.096399 0.094432 -0.264120 -0.006971 0.118771 0.019004 -0.070491 0.127643 -0.044230 0.081715 -0.042686 0.072466 -0.034519 0.112578 -0.175848 -0.101945 -0.185922 -0.099281 -0.292843 -0.163692 0.136670 0.175536 0.205475
by -0.122529 0.053168 0.095085 0.072398 0.023965 0.052984 -0.098208 -0.111988 -0.156223 0.155643 -0.058572 0.128602 0.030002 -0.087842 -0.289116 -0.125918 0.071748 -0.014230 -0.122806 -0.160708 -0.063994 -0.278048 0.021220 0.094108 0.091438 -0.128821 -0.112404 -0.061526 0.152071 0.152101 -0.097014 -0.208396 0.001498 0.114974 0.155653 0.254896 0.098583 0.042228 -0.031207 0.104805 -0.070304 -0.025048 0.071781 -0.153204 0.149091 -0.005189 -0.013756 0.139576 -0.101534 -0.043317
good 0.001785 0.042122 0.160951 0.047170 -0.084248 0.120977 -0.009632 -0.065763 0.014171 -0.091998 -0.111487 0.138333 0.025220 -0.144396 0.181087 -0.108893 -0.201648 0.000535 0.220953 -0.018572 0.017967 0.073238 0.043631 0.031572 0.049655 -0.106617 0.069427 0.080600 0.107249 0.055317 -0.124076 0.068150 0.072890 0.062646 -0.165080 0.000096 -0.150627 -0.038146 -0.065640 -0.145073 -0.051433 0.043599 0.032819 -0.166189 0.066752 0.037475 -0.106640 -0.193595 -0.122913 0.053001
bad 0.007217 0.128827 -0.002746 0.215147 -0.059901 0.074860 -0.052774 0.060744 0.015971 0.054470 0.017868 -0.125138 -0.077946 0.011129 -0.121848 0.025859 -0.123655 -0.011146 0.116801 -0.068257 0.154734 0.219531 -0.041626 -0.237761 0.011218 -0.041063 -0.120523 0.016493 -0.054122 0.029435 0.076691 -0.054784 0.094224 -0.080907 -0.077278 0.084288 0.026813 -0.020017 -0.027177 -0.015148 -0.056334 0.007624 0.050576 0.156977 -0.044205 -0.086097 -0.069116 0.025748 0.091150 0.093788
great -0.050314 0.233534 -0.046029 0.104999 -0.005509 -0.035242 -0.088780 -0.084572 -0.139844 -0.134959 -0.092078 -0.195732 -0.033120 0.071253 -0.067396 0.020748 0.092044 -0.061755 0.070421 0.080083 0.116373 -0.097289 -0.016947 0.037840 -0.039190 -0.012552 -0.080070 0.101351 -0.117172 -0.176303 0.053253 0.075692 0.106875 0.138939 0.054030 0.039791 0.039455 0.037975 0.095883 0.132679 0.090657 -0.006760 0.072039 0.034596 -0.100117 -0.106948 -0.104861 0.005727 0.084419 0.157449
terrible -0.006132 -0.006557 0.097143 -0.107733 0.029358 0.210256 -0.053566 0.075925 -0.081283 -0.005321 -0.019615 0.100802 -0.089264 -0.151170 0.068367 0.095887 -0.326027 0.042356 -0.031560 -0.045532 0.056905 0.080527 -0.016443 0.040664 -0.050534 0.027371 -0.056239 -0.110236 0.095984 -0.080612 0.051876 0.029743 -0.057752 0.113107 -0.066725 0.041611 0.232168 0.198037 -0.070937 -0.148073 0.104104 -0.044201 0.121702 -0.052425 -0.037608 -0.088549 0.221826 -0.123400 0.075822 0.005682
amazing -0.186999 -0.184237 -0.045682 0.038611 0.044386 0.041788 0.055421 -0.018727 -0.067403 -0.011130 0.152624 -0.229727 0.036273 0.015594 0.040475 0.078738 0.059265 -0.024738 -0.149806 0.013523 -0.135151 -0.229334 -0.107075 -0.064051 0.016984 -0.011812 -0.043719 -0.206549 0.105642 0.028703 0.045505 0.063727 0.016250 0.014598 -0.107272 0.049274 -0.008210 -0.042224 0.049373 -0.039539 -0.010907 0.005078 -0.070905 0.040288 0.069273 0.043849 -0.084345 0.123217 0.187993 0.054829
awful -0.186058 0.102848 0.010504 0.059855 -0.114767 -0.123231 0.030866 -0.013999 0.030769 0.006347 -0.206741 -0.046641 -0.108559 -0.003787 -0.165558 -0.142974 0.078722 0.034457 0.031299 0.104312 0.004265 -0.103219 -0.152065 -0.005591 -0.249097 0.086969 -0.034008 -0.038141 0.058258 -0.002965 0.102329 -0.044752 0.085912 -0.075743 -0.038885 -0.183362 -0.112814 -0.140740 -0.079120 -0.071188 0.055462 -0.071284 -0.080528 -0.046964 0.046071 -0.072669 -0.096097 0.165211 -0.022411 0.061492
love -0.012735 -0.072833 -0.106552 0.109131 -0.009994 0.038501 -0.145989 0.041787 -0.058128 -0.199064 0.096045 -0.001155 -0.067396 0.025718 -0.048485 0.034290 0.034713 -0.087661 -0.232887 0.055038 -0.153727 -0.017570 0.057803 -0.006644 -0.106510 0.161344 -0.169741 0.094082 -0.043699 0.097750 -0.071527 0.066641 -0.172147 -0.150036 0.269088 0.152594 0.039688 0.041716 0.055779 -0.281809 0.158908 -0.146331 -0.198866 0.014661 -0.081042 0.195201 0.008135 0.109581 -0.092878 -0.069031
hate 0.031822 -0.060878 0.128742 -0.137951 0.045426 -0.136007 -0.024885 0.132286 0.035228 -0.097122 -0.003121 -0.007239 0.132428 -0.135067 0.150947 -0.074050 -0.068808 0.001296 -0.222517 -0.029913 -0.036572 -0.050844 0.252008 -0.094618 0.042675 -0.004465 0.144585 -0.026008 0.010888 0.105021 0.061742 0.139619 0.157151 -0.007159 0.105498 -0.101381 -0.026200 -0.069562 -0.082435 0.011829 0.102524 -0.023228 0.178853 0.118563 -0.163896 -0.109611 -0.123937 0.066323 -0.158040 -0.006613
like 0.008405 0.111029 -0.175549 -0.140750 -0.032865 -0.000067 -0.089215 -0.002097 0.103110 -0.106251 0.188696 -0.004636 -0.009596 -0.104005 0.012806 -0.062490 0.184837 0.134898 -0.072589 -0.002951 -0.032099 0.073512 0.001608 0.085496 0.035122 -0.126199 0.164898 -0.143804 0.086170 0.099628 -0.032608 -0.081242 0.025633 0.080250 -0.096294 -0.060697 0.106034 -0.010041 -0.037928 -0.199877 0.103766 0.118244 -0.000637 0.055742 0.042366 0.043620 -0.047970 -0.053044 -0.105395 -0.051000
dislike 0.158348 -0.188769 -0.077396 -0.075842 -0.084084 0.169963 0.022335 -0.015149 0.132694 -0.026700 -0.047222 -0.103352 -0.021856 -0.130033 -0.171298 -0.091457 0.072612 -0.152717 -0.069806 -0.055022 0.058588 0.080064 -0.014719 -0.026515 0.069196 0.090505 0.075993 0.012977 0.004156 -0.038796 -0.053818 0.000636 0.050417 -0.000601 0.133614 -0.068498 0.064669 -0.198523 0.054268 -0.070070 -0.290585 -0.129295 0.120103 0.173140 -0.007510 0.089723 0.026668 -0.016478 -0.096372 0.258706
happy 0.130988 0.071811 -0.028739 -0.009448 -0.001699 0.031840 -0.228054 -0.119575 -0.131468 0.109697 -0.035859 -0.187340 0.029781 0.034036 -0.174244 0.084410 0.004054 0.021165 0.018105 -0.250223 0.112145 0.085005 -0.148815 0.136653 0.052185 -0.041508 -0.144366 -0.010299 -0.014536 0.105539 0.140743 0.076844 -0.069059 0.003499 -0.089134 0.162846 -0.035119 0.068100 0.038834 0.113600 0.074374 -0.016501 0.065941 -0.050440 -0.022844 -0.015015 0.230045 0.118956 0.084026 0.142091
sad 0.070970 -0.187655 -0.013839 0.174790 0.044876 -0.142338 0.121415 -0.084596 0.137003 0.004893 -0.047953 -0.199408 -0.109038 -0.088076 -0.245994 0.068114 0.003457 -0.004612 0.111458 0.012987 -0.106992 0.029872 0.038700 0.162681 0.110411 -0.019157 0.013290 0.001734 -0.211972 0.067011 -0.036374 -0.072131 -0.030133 0.050001 0.044234 0.128662 0.125199 -0.045065 -0.035139 -0.055966 -0.090116 -0.057910 -0.024194 0.021146 -0.025752 -0.128910 -0.030636 0.128351 -0.099288 -0.119473
angry -0.054009 0.182061 -0.025804 0.004661 -0.143109 -0.025331 -0.110738 -0.103565 -0.052929 0.147720 -0.069556 0.051605 -0.028189 0.175604 0.018439 -0.105039 -0.014751 -0.093185 -0.079006 0.048595 0.009149 -0.126447 0.121094 -0.013299 -0.042983 0.094236 0.138953 0.102867 0.093849 -0.050021 -0.061910 0.119465 -0.177103 -0.039577 0.085213 -0.075913 0.028842 -0.197347 0.027775 -0.018172 -0.016381 -0.025855 -0.051593 -0.176987 0.022127 -0.135788 0.037472 0.003365 0.041163 0.000794
excited -0.123226 0.001393 -0.062685 -0.062093 0.037701 -0.020300 -0.057538 -0.138387 0.093137 0.088163 -0.004651 0.070841 -0.050265 0.096925 -0.026281 -0.007809 0.055653 0.156805 0.198604 -0.008602 0.209478 -0.128214 0.024252 -0.120054 -0.049379 0.000113 -0.128805 0.044618 -0.018867 -0.040183 0.052406 0.026571 -0.104106 0.175357 0.080131 0.050782 0.098226 0.111227 0.066911 -0.102903 -0.191025 0.043467 -0.089763 0.107766 0.031721 -0.123996 0.150880 -0.122817 0.103583 -0.039751
disappointed -0.080068 -0.002062 -0.079759 0.128092 -0.031514 -0.066520 -0.362407 -0.161995 0.022969 -0.070840 -0.059270 -0.045900 0.043077 0.093591 -0.100961 -0.096463 0.016004 -0.108736 0.155808 -0.161789 0.050360 0.044287 -0.022280 0.081027 0.167338 0.050125 -0.194080 0.004906 0.058595 0.066943 0.007057 0.141307 0.014710 0.070162 0.097899 0.022603 -0.277406 -0.027465 0.199390 0.008713 -0.016530 0.084532 -0.077206 0.000008 -0.111757 0.067475 0.041056 0.052039 -0.085070 -0.121796
satisfied 0.080340 -0.057562 -0.044603 0.158605 -0.035639 -0.098847 0.057606 -0.159494 -0.010139 -0.075816 0.179587 0.000418 0.011746 0.141988 0.014730 0.127491 -0.181445 -0.105839 -0.028141 0.018085 0.039900 -0.150672 0.065083 0.127186 -0.073513 -0.106080 0.135548 0.152299 0.026245 -0.009407 0.030745 -0.060786 -0.075519 -0.168121 0.042145 0.145141 0.078392 -0.015240 -0.036050 0.028878 -0.207912 0.079584 0.120701 0.025556 0.083908 0.009375 0.083428 0.040305 -0.038007 0.064687
pleased 0.055546 0.070664 0.052619 -0.077573 0.101793 -0.134130 0.036693 -0.122829 0.129503 0.046152 0.008396 -0.002059 0.151121 -0.000328 0.165466 -0.089549 -0.058477 -0.126366 0.003903 -0.003554 -0.083834 0.040201 -0.052436 -0.022533 -0.115367 -0.023994 0.088043 -0.105069 0.053423 -0.048612 -0.190170 -0.148103 -0.063037 -0.071579 0.046187 0.019845 -0.205825 -0.051480 -0.024934 0.019106 -0.022711 0.086808 -0.043863 -0.016074 -0.106371 0.039879 0.006454 -0.048061 -0.027944 -0.024548
upset -0.166855 0.001493 -0.205916 -0.193625 -0.044196 -0.062574 0.082139 -0.030890 0.110822 0.064143 -0.025615 -0.024913 -0.116213 -0.042272 -0.074332 -0.239268 0.029893 0.063559 -0.145200 0.054433 -0.024481 0.047869 -0.091054 -0.142854 0.097176 0.003526 -0.018215 -0.105353 -0.045825 -0.051958 0.033251 0.161676 -0.141940 -0.121633 0.340284 -0.023737 -0.037796 0.012725 -0.107452 -0.147711 -0.045887 -0.001411 0.042704 -0.019677 -0.043695 0.014557 -0.098023 0.276346 0.280292 0.030410
excellent 0.138570 0.132544 0.010722 -0.074807 0.155646 -0.200469 0.068670 -0.130742 0.054286 0.120916 -0.063749 0.070210 0.034213 0.049596 0.052258 0.090565 0.009580 -0.035079 -0.024977 0.010373 0.007174 -0.018486 0.062032 0.139107 0.132700 0.008336 -0.000664 -0.098567 -0.024968 0.176919 -0.060614 -0.026015 0.076765 0.120360 0.135408 -0.143274 0.057027 0.219214 -0.292639 -0.016338 0.061097 -0.317360 -0.017925 0.004862 0.033356 -0.058419 0.155106 0.092203 0.168806 0.026852
poor 0.057545 -0.065094 -0.105588 0.127167 -0.005432 -0.038078 0.006229 -0.068887 -0.004759 -0.102050 0.077094 0.090369 -0.021628 -0.107783 0.011260 0.134584 0.009285 0.147579 0.056924 -0.029641 0.052554 0.116255 -0.075850 -0.124780 -0.046260 0.000975 -0.018548 -0.042928 -0.018464 0.011723 0.051444 -0.072558 -0.013239 -0.018205 0.075687 0.018765 0.169637 0.050610 0.008115 0.055131 -0.148410 0.028359 0.012693 0.072441 -0.005198 -0.035033 0.084131 0.086471 -0.115547 -0.009419
fantastic 0.065896 0.030067 0.009535 0.015639 0.053046 0.181442 -0.054714 0.148553 -0.161545 -0.042598 -0.132004 0.050982 0.197071 -0.016203 -0.144737 -0.115376 -0.107106 0.044134 -0.164688 0.186323 -0.055135 -0.111581 -0.076616 -0.040932 -0.045103 0.105061 -0.029069 0.081803 -0.041161 -0.084277 -0.038903 0.153027 -0.068120 -0.085770 -0.002772 0.019157 0.077647 0.161804 0.069626 -0.185166 0.082643 0.177279 -0.027840 -0.077409 -0.041387 0.124268 -0.094124 0.103341 0.068456 0.038614
horrible -0.076859 0.103359 -0.138686 -0.042070 0.069109 0.065332 -0.030359 -0.109247 0.033780 -0.045480 -0.065674 -0.079971 -0.000026 -0.141250 -0.117778 0.050402 0.026885 -0.096288 0.084424 0.117624 0.146419 -0.067138 0.040972 0.017873 0.230027 -0.150253 -0.077567 -0.096464 -0.096989 0.026381 0.171304 0.025678 0.142118 0.081945 -0.200385 -0.036377 -0.001566 0.090247 -0.071824 0.081460 -0.266954 -0.035012 0.051088 -0.143136 -0.182459 0.054625 -0.123331 -0.181549 0.012477 -0.077841
wonderful 0.050806 -0.011463 -0.009289 -0.005013 0.085500 0.133402 -0.022592 -0.072130 -0.095932 -0.147533 -0.013478 0.183410 -0.040731 -0.052903 0.020408 0.078510 0.016541 0.011961 -0.083398 0.059801 -0.124187 0.118602 -0.100094 -0.259588 0.030110 0.144392 0.006579 -0.025248 0.002583 -0.070020 0.105411 -0.001682 -0.152159 0.069447 -0.074677 -0.166587 -0.076785 -0.020789 -0.120748 0.107780 0.008818 0.041298 0.115887 -0.048521 -0.006896 0.128623 0.079008 0.171717 -0.153109 0.200723
worst -0.282449 -0.170610 0.001594 0.057270 0.012334 0.206846 -0.013143 -0.106061 -0.114630 0.151840 0.023064 -0.132006 0.152199 -0.113698 -0.117609 0.138096 -0.035065 0.066303 0.159313 0.118311 0.036554 -0.107750 -0.167147 -0.127998 0.053637 -0.043863 0.002521 0.016180 0.052685 0.033958 -0.022391 0.034776 0.013595 0.142765 -0.021017 0.042322 0.006824 -0.085600 0.171768 0.082413 -0.098449 0.043277 0.115252 -0.045323 -0.119792 0.064281 -0.017851 -0.165513 -0.010398 0.167766
best 0.199183 -0.117430 -0.107057 0.148337 -0.084674 -0.044301 -0.051172 -0.086697 0.020814 -0.119485 0.046022 -0.002997 -0.174680 0.111251 -0.036697 -0.012267 0.193188 -0.145126 -0.155558 0.003870 -0.064323 -0.101962 0.023038 0.004100 -0.177926 0.012556 0.055319 -0.017494 -0.174198 0.112532 0.130240 0.082313 0.055161 -0.108968 -0.094930 0.026910 -0.007131 -0.018307 0.038427 0.145662 -0.081038 -0.067497 0.125810 -0.002639 0.144597 -0.025320 0.100450 0.215979 0.093994 -0.078117
nice -0.160875 -0.052140 0.007682 -0.006620 -0.031981 0.062483 0.115929 -0.149280 -0.192392 -0.065494 -0.068483 -0.081109 -0.009837 0.073203 -0.059269 -0.162992 0.063022 -0.044181 -0.022373 -0.103670 0.041052 0.147196 -0.002321 0.027068 -0.112540 0.059655 0.101304 -0.069179 -0.074516 0.071993 0.029225 0.082174 -0.118926 -0.096421 0.093285 -0.006102 0.002951 0.033002 -0.061652 -0.135029 -0.144698 0.274988 -0.215149 0.099756 0.096854 -0.010527 0.001287 -0.005118 -0.078212 0.043683
not -0.029490 -0.014602 0.030784 0.104094 0.089010 -0.155399 0.132903 0.052872 -0.051174 0.009515 0.038873 0.081300 0.038993 0.021407 0.088226 0.052490 -0.224832 -0.064096 0.131822 -0.090391 -0.008681 -0.116242 0.004226 0.007135 0.200498 -0.146602 0.126526 -0.117850 0.127340 -0.107445 0.086074 -0.024822 -0.041368 0.097061 0.045610 0.027030 -0.063168 -0.028604 0.073179 -0.023572 0.101830 -0.081863 0.056359 0.123196 -0.063732 -0.052573 0.066849 0.001071 0.002622 0.109581
very 0.015417 -0.078604 0.144750 -0.033524 -0.195746 0.051390 -0.109250 0.016939 0.039700 -0.023281 -0.011356 0.065050 -0.076236 -0.078869 -0.076171 0.026592 0.224061 0.023139 -0.204018 0.048636 0.055660 -0.063138 0.016979 -0.098212 0.087194 0.106297 0.217033 0.171381 0.000918 -0.065324 0.054172 0.086997 0.111703 -0.078936 0.023105 -0.085540 -0.209435 0.055628 0.023022 -0.051176 -0.065137 0.073789 -0.184405 0.014889 0.247558 -0.055944 0.132523 -0.138403 -0.103647 -0.194054
really 0.124439 -0.264464 -0.253522 -0.011622 0.086945 -0.205969 -0.014909 0.044402 0.108190 -0.049972 -0.049831 0.121055 -0.055216 -0.017845 -0.002082 0.091822 -0.005540 0.025364 -0.058005 0.125652 -0.207871 -0.140828 -0.066887 0.104848 -0.137363 -0.034520 0.033796 0.231729 0.086670 -0.095753 0.051172 -0.094063 0.350148 0.047596 0.046759 0.113200 0.084447 -0.320088 0.021711 -0.054387 0.197620 -0.017183 0.028691 0.011496 -0.076400 -0.029844 -0.184532 -0.192125 0.109278 0.091767
quite 0.009983 -0.061982 0.196349 -0.028359 0.060647 -0.133321 0.008774 -0.028195 -0.138556 -0.177186 -0.045224 -0.083355 -0.009687 0.106468 0.091516 -0.158561 0.122213 -0.007953 -0.064557 -0.015302 -0.073673 -0.104051 0.066680 -0.156098 0.085418 -0.061902 -0.049757 0.105935 -0.054656 0.138452 0.010423 0.046724 0.055822 0.049230 -0.111550 -0.131617 -0.054378 0.115017 0.086011 -0.098401 0.088323 -0.062965 -0.084463 -0.147504 0.040274 0.070938 -0.008792 -0.015817 -0.127685 -0.015078
extremely -0.130511 -0.070996 0.087846 0.109965 -0.092449 0.188394 0.010367 0.070030 0.092477 -0.040305 0.143918 0.014764 0.053498 0.034337 0.059207 -0.106723 0.186991 0.176339 -0.073690 0.052607 0.109722 -0.016737 -0.196440 0.003741 0.132193 -0.097716 -0.096419 -0.103298 0.065871 0.066741 -0.004775 -0.051757 -0.005075 0.233565 0.036902 -0.097702 0.057429 0.149962 0.113386 0.076476 0.006150 -0.038885 -0.065790 -0.041082 0.031277 -0.113172 0.193001 -0.079762 -0.109022 -0.039583
totally 0.035242 -0.013338 0.074856 -0.029926 -0.008102 -0.017816 -0.066744 -0.017349 -0.060589 0.194616 -0.037204 0.071118 0.064676 -0.088776 -0.049031 -0.009962 -0.005886 0.191951 -0.075875 0.016975 -0.135932 -0.108108 -0.060923 -0.124661 0.114670 -0.014478 0.005917 0.017507 0.001612 -0.083632 -0.044842 0.077374 -0.047017 0.136075 0.090555 -0.022312 0.150324 -0.089476 -0.195397 -0.094253 -0.113254 -0.149963 0.136018 0.108897 -0.049515 0.050275 -0.024582 -0.060882 -0.016155 -0.113592
absolutely -0.001759 -0.001565 0.041356 0.012506 -0.080594 -0.054096 0.058850 0.035811 0.021847 -0.011591 0.191072 0.133079 0.122574 -0.074457 -0.106166 -0.173911 -0.055205 0.122712 -0.111620 0.123715 0.015350 0.091765 -0.011382 -0.139228 -0.281694 -0.138555 0.104409 0.101794 0.100957 0.026958 0.234390 -0.087267 -0.088881 0.088097 0.032539 -0.049214 -0.183824 -0.048723 -0.009957 -0.084851 -0.018276 -0.016011 -0.224093 0.034174 0.083953 -0.065756 -0.083506 0.017208 -0.047363 0.004290
never -0.030592 0.072487 0.097449 0.118121 -0.023640 0.074066 0.039965 0.008374 -0.175408 -0.055780 -0.095191 -0.158282 0.106297 0.038101 0.022481 0.131984 -0.079802 -0.084186 0.028955 -0.102393 0.046420 -0.053299 0.213020 0.153933 0.062937 0.284236 0.056553 0.028758 -0.062471 -0.077199 -0.134338 -0.070833 0.102875 0.132584 -0.181926 0.180061 -0.041332 0.015832 0.081652 0.043608 -0.021431 -0.084444 -0.021602 0.009108 -0.068689 0.021873 0.067437 -0.182592 0.250232 0.080273
always 0.067306 -0.068736 -0.133604 0.080028 0.060246 -0.028149 -0.106946 0.063355 -0.035871 -0.125024 0.018532 0.140967 -0.014909 0.040878 -0.046988 0.146695 0.022802 0.111366 0.001912 0.013025 0.013751 0.105630 -0.199017 -0.024047 0.052490 -0.028320 -0.073555 0.068294 -0.007105 0.063359 -0.107584 0.049969 -0.060324 0.199017 -0.157307 0.017804 0.012158 0.026569 0.011347 0.021121 -0.196635 0.025294 -0.052071 0.047987 -0.146604 -0.195350 0.008285 -0.045822 -0.000703 -0.019038
sometimes -0.098600 -0.055206 -0.051034 0.166053 0.090367 0.047369 -0.070778 -0.039560 0.018299 0.183602 0.068385 -0.066747 -0.059129 0.040960 0.141407 0.067042 -0.086290 -0.191781 0.129997 -0.070109 -0.056910 -0.049593 0.019081 -0.070928 0.159906 -0.024329 0.026533 0.148849 0.088421 0.120875 0.044751 0.071918 -0.100319 0.023774 -0.059870 0.209823 -0.087872 -0.066713 -0.134715 0.212208 -0.008910 0.018497 0.014811 -0.090960 -0.048170 0.053883 0.065788 0.033177 -0.149972 -0.156959
often -0.242430 -0.041547 0.031583 0.067622 0.122835 0.052311 -0.087739 0.013186 0.006862 -0.113259 0.003517 0.028170 0.081216 0.071294 0.043450 -0.044979 0.048668 0.148146 -0.247870 -0.024407 -0.271210 0.057188 -0.077163 -0.070573 -0.052613 0.046558 -0.061717 -0.006089 -0.051209 -0.014447 0.229161 -0.075086 -0.101174 0.013557 -0.020549 -0.140378 -0.033763 -0.133434 0.030946 0.146718 0.110060 -0.084761 0.078048 0.154718 -0.160262 -0.155696 0.032134 -0.032823 0.010368 -0.047587
rarely -0.083476 0.014788 -0.092355 0.206951 -0.112035 -0.071679 0.001265 -0.186086 -0.041844 -0.056264 -0.018336 0.001223 -0.040450 0.012795 0.083250 0.173128 -0.124254 0.047195 0.071068 0.026562 -0.067041 -0.113569 -0.062633 -0.058908 -0.076702 -0.263213 0.013047 0.052636 0.115176 -0.057282 0.085865 0.009360 0.018375 -0.028855 -0.019303 0.072518 0.022823 -0.037214 0.081176 -0.024595 0.019189 -0.028855 -0.088128 0.008931 -0.082688 0.162070 0.008506 -0.135101 0.089233 -0.120333
definitely 0.080311 -0.004511 -0.072838 -0.223115 -0.035283 -0.081391 -0.035128 -0.087857 0.104205 0.187380 -0.050481 0.181554 0.137386 -0.043100 -0.072492 -0.025325 -0.077267 -0.057086 -0.018549 -0.116891 -0.091151 0.034571 -0.013897 -0.033621 0.069648 0.141354 -0.053236 -0.053237 -0.158894 0.132011 -0.180282 0.093373 0.021321 0.009597 0.124619 -0.024704 -0.049655 0.152070 0.231728 -0.000173 0.197950 -0.130290 -0.005165 -0.098249 -0.025292 0.036501 0.067231 -0.111410 -0.035121 -0.012962
probably 0.023319 -0.085256 0.047744 -0.264176 0.076049 0.074816 -0.023312 -0.025851 0.106013 0.016121 0.160804 0.053295 0.000951 -0.068031 0.100269 0.033077 0.057839 0.126694 -0.057572 -0.058642 -0.119099 -0.188627 -0.087223 0.086993 0.135210 0.121331 -0.070950 -0.037246 0.079894 -0.084648 -0.090936 -0.152046 -0.056452 -0.145805 0.114459 -0.075622 0.084188 -0.205490 0.088921 -0.054890 -0.096529 -0.127462 -0.106528 0.089675 0.150747 -0.001841 0.268288 0.033340 -0.036157 -0.093793
maybe -0.037523 0.008724 0.044735 0.030898 -0.004086 -0.062130 0.068241 0.160611 -0.015114 -0.069322 0.116312 0.081501 -0.066158 -0.171988 0.139607 -0.070197 0.098730 0.045278 -0.164267 -0.015229 0.002746 -0.061554 -0.084375 0.250608 0.136064 0.123294 -0.311094 -0.093477 0.048374 0.096160 -0.033385 0.070141 0.030835 0.020761 0.084918 0.106686 -0.068859 0.066312 0.068836 0.008393 0.092126 -0.021243 -0.060916 0.139099 0.104351 -0.179667 -0.075423 0.139475 0.017679 0.041927
