the 0.000998 0.057929 -0.072601 -0.212225 0.213942 -0.034280 0.034815 -0.042671 0.059196 -0.100637 0.086699 -0.099871 0.013215 -0.138341 -0.266896 -0.102884 0.038421 0.097068 -0.013736 -0.074648 -0.099617 0.109783 0.045391 0.003600 0.026300 0.041910 0.218018 -0.082782 -0.025088 -0.094197 -0.046613 0.031421 0.043987 -0.154274 0.105075 -0.016289 -0.030066 -0.092231 -0.015985 0.227580 0.017889 -0.168803 0.164298 -0.051455 0.017398 0.082422 0.112793 -0.025068 -0.021175 0.081283 0.140202 0.024096 0.103722 -0.145914 0.003591 0.167748 -0.047516 0.011408 -0.125470 -0.036518 -0.094399 0.018718 -0.031904 -0.094862 0.013084 -0.051850 -0.047689 -0.050626 -0.041053 0.041755 0.003176 -0.035144 0.079936 -0.100120 -0.021243 -0.193580 0.057422 -0.083798 -0.100421 -0.005027 -0.104777 -0.044814 -0.041378 0.102407 -0.085507 -0.037297 -0.054885 0.148610 0.025115 0.118651 -0.003747 -0.014304 -0.009895 -0.149875 -0.053446 0.214680 0.021015 -0.090800 -0.083413 0.204264
a -0.034682 0.081323 -0.077807 -0.048196 0.082291 -0.091725 0.211340 0.018137 -0.247274 -0.179449 0.101165 0.013826 -0.028159 0.201516 0.000244 0.027673 -0.106016 -0.076589 0.099224 -0.003901 -0.002253 0.150075 0.025467 0.100436 0.012968 -0.226248 -0.055092 0.039068 -0.025530 -0.093194 0.053319 0.087469 -0.013582 -0.074395 0.145147 0.001521 -0.070422 -0.025567 -0.015572 0.123315 0.145826 0.085879 0.000552 -0.087978 0.106050 -0.145074 0.071926 0.083912 -0.051763 0.081576 -0.127880 -0.082514 -0.039877 -0.015670 0.069605 -0.099027 -0.024412 -0.026196 0.147122 -0.014723 0.096734 -0.023134 0.012042 0.037034 -0.021531 0.097443 -0.057060 0.166111 0.141542 -0.094863 -0.005586 0.205846 0.037856 -0.055937 0.065619 0.130231 -0.010002 0.055087 0.032434 0.015730 -0.006300 -0.053457 -0.095100 -0.071965 0.032456 0.057757 0.004124 0.088915 0.165427 0.014262 0.064164 0.022015 -0.103425 -0.015954 -0.096994 -0.081249 -0.113000 0.018192 -0.090218 -0.086008
an -0.112822 0.142609 -0.029892 -0.042281 -0.050228 -0.196410 0.147560 -0.212739 0.022768 0.127332 -0.071550 -0.020274 -0.109308 0.098271 0.031222 0.047418 0.076618 0.090651 0.108717 0.045327 -0.084748 -0.040521 -0.237019 -0.191901 0.080182 -0.106977 -0.062139 0.038606 -0.031712 -0.163242 -0.086304 -0.048063 -0.001953 0.019829 0.085956 0.276533 -0.025970 -0.040897 -0.080662 -0.087274 0.033289 -0.055066 -0.167701 -0.020231 0.066962 0.171556 -0.050593 -0.033469 0.048434 0.101846 0.070888 -0.015705 0.077355 0.233144 0.171311 0.312232 -0.029533 0.016728 0.141176 0.070337 -0.045354 -0.069505 0.020585 -0.117463 0.054072 0.020473 0.055850 0.170566 0.032196 0.041219 -0.076474 0.022547 0.189204 -0.033011 0.054303 -0.155519 -0.097940 0.048930 0.001528 -0.001091 0.013351 -0.123503 0.030135 -0.084451 0.035274 -0.083110 0.022289 -0.053676 0.037044 0.004179 0.009650 -0.080141 0.041991 0.084830 0.031267 0.093018 0.038102 -0.064033 0.006412 0.292391
and -0.068001 0.052558 0.127987 -0.052847 0.084985 0.096429 -0.095360 0.026458 0.074325 0.018334 0.158572 0.086762 0.073569 0.050806 -0.039492 0.047547 0.031759 -0.055886 -0.021598 -0.032967 0.054973 0.131855 -0.101728 -0.174180 0.043065 -0.174855 -0.063930 0.008068 -0.116638 -0.084467 -0.008018 -0.092894 -0.084780 0.053492 0.080142 0.081597 -0.049955 -0.041696 -0.009651 0.052043 0.119524 -0.099843 0.000775 -0.327244 0.060711 -0.159880 0.103371 -0.012277 0.149372 0.049892 0.030791 0.044763 0.010420 -0.017185 0.111218 -0.040067 0.145617 -0.043105 -0.068714 0.039859 0.242852 0.051285 0.074316 0.053773 0.224882 0.068613 -0.073165 -0.060247 -0.235161 0.060104 0.045938 -0.116118 -0.056195 0.040694 -0.020010 -0.027617 -0.077507 -0.031144 -0.006410 -0.238418 0.095292 0.021700 -0.046858 -0.030953 -0.041412 -0.024276 0.194338 -0.045010 0.172207 -0.050697 0.031657 -0.030252 0.091583 -0.040984 0.013410 -0.125479 -0.139072 0.159350 0.061752 -0.102829
or -0.012178 0.076518 0.044790 -0.001289 0.103665 0.027832 0.072233 -0.084593 -0.162569 0.028878 0.024237 -0.147763 0.001123 0.065006 0.087949 -0.049006 0.218767 -0.013390 -0.048472 0.079876 0.150099 -0.139881 -0.133473 0.248053 -0.059825 -0.116272 0.092835 -0.100494 0.038528 0.054515 0.054485 0.126866 -0.014210 0.072491 0.012934 -0.051212 -0.132879 -0.052074 -0.155782 -0.091825 -0.028167 -0.160012 0.141462 -0.015156 -0.173927 0.154268 -0.033383 -0.210232 -0.074780 -0.092754 -0.010024 -0.007587 0.128201 -0.007467 0.038450 -0.081312 0.140494 -0.065690 0.011914 0.033756 0.066701 -0.072544 0.121536 0.132956 0.139436 0.082710 -0.019562 -0.037132 -0.045631 -0.005017 -0.048316 0.072155 0.143316 -0.092604 -0.070485 -0.137852 0.053692 0.223848 -0.139607 -0.092369 -0.107527 0.039025 -0.203546 0.010522 0.086061 -0.057307 0.013625 -0.028367 0.065898 0.070217 -0.095883 0.152104 0.049133 -0.034754 -0.073482 0.057160 0.012525 0.075918 -0.021246 -0.175123
but 0.107778 -0.060163 -0.069907 0.166420 -0.109544 0.218195 0.022797 0.016454 -0.041105 -0.056542 -0.102212 0.214318 -0.031005 -0.064099 0.144386 -0.132712 0.047496 -0.066959 0.071182 0.083212 0.140017 -0.021111 0.126798 -0.065693 -0.038169 0.046300 -0.066513 0.006796 -0.120705 -0.039610 -0.004129 -0.057126 -0.049611 0.076170 0.071877 -0.108645 0.058037 -0.075205 0.015522 -0.063468 0.001430 0.181227 -0.040334 -0.014390 0.010814 0.132167 -0.021092 -0.045538 0.220362 0.060846 0.066821 -0.180501 0.056794 0.034181 -0.140553 0.029193 -0.160697 0.100548 -0.052653 0.137995 0.040832 -0.051550 0.123300 0.073880 -0.086264 0.018105 0.111467 -0.074527 0.007745 -0.011225 0.006902 0.113898 -0.138686 -0.100882 0.141801 0.009404 0.008191 -0.010238 0.106472 -0.116132 0.040691 0.067088 0.084562 -0.081317 0.085899 -0.097054 -0.144653 -0.072503 0.186047 -0.076550 0.048848 -0.070383 0.048101 0.021106 0.135375 0.055190 0.068743 -0.062774 0.012740 -0.096566
in -0.143555 -0.106694 -0.004870 0.058836 -0.267577 -0.104200 0.083296 0.119520 0.076859 0.045504 0.031687 -0.065814 -0.028301 -0.004701 0.157009 0.020126 -0.020204 -0.103033 -0.063098 -0.039866 -0.086795 0.070314 0.126569 -0.101656 0.233386 0.124387 0.068265 0.044146 -0.093889 0.034139 -0.039427 0.005212 0.013094 -0.040616 0.068422 0.009213 0.033135 0.064058 0.054107 -0.056138 -0.086851 -0.044144 0.070281 -0.079533 -0.183343 0.099717 0.016827 0.080467 -0.018514 0.054907 0.153962 0.051996 -0.202682 -0.044043 0.077958 -0.166093 0.050136 -0.189362 -0.006715 -0.062475 0.063777 -0.030543 0.019935 0.008770 0.239818 -0.142109 0.093335 -0.015395 0.051632 0.164045 -0.176996 0.015624 -0.157682 -0.012231 -0.096972 0.172315 0.036540 0.065050 0.194334 0.049843 0.032947 -0.061708 0.021183 -0.081722 0.061788 -0.006376 -0.198105 -0.055810 0.130249 0.063615 -0.018985 0.150563 0.020768 0.030572 -0.080963 -0.017513 -0.035176 -0.043532 0.028888 -0.084896
on 0.064912 -0.007253 -0.113787 -0.040832 -0.031941 0.103700 -0.003041 0.061554 0.123756 0.118467 -0.020627 -0.025260 -0.067127 -0.039770 -0.102335 -0.091527 0.114711 -0.168733 0.011643 -0.035152 0.087411 -0.084931 -0.017342 -0.054498 0.127161 -0.102626 -0.026023 0.056587 -0.117457 0.017570 0.032331 0.067321 0.079401 0.132091 -0.002526 0.015724 0.045779 0.065734 0.032191 0.038485 -0.289446 -0.082669 0.009113 -0.029296 0.022456 0.114587 -0.170263 0.099296 -0.071484 -0.169106 -0.046672 0.021092 0.039089 0.007359 -0.116524 0.012334 -0.079688 -0.067483 0.148309 -0.052630 -0.034850 0.014523 -0.254283 -0.170189 -0.022955 -0.048651 0.051081 -0.149774 0.037171 0.035979 0.073316 -0.025530 -0.065210 0.067242 0.263383 -0.031422 0.145311 -0.003326 -0.050860 -0.118288 0.036569 0.184000 -0.025686 0.012637 0.065131 -0.078640 -0.065447 0.094888 0.060434 0.206432 -0.035996 0.201155 0.098653 0.064314 -0.104666 0.040139 0.040227 0.043031 0.228468 0.142862
at 0.016795 -0.014759 0.020820 0.041006 0.158280 -0.171493 0.299491 -0.127923 -0.109889 0.172416 0.122149 0.091269 -0.055621 0.000761 0.118399 0.236581 -0.118910 0.075342 0.005695 -0.171367 -0.181791 0.042707 0.109537 0.068122 -0.147331 0.065940 -0.019939 0.142199 -0.034862 -0.076413 -0.154650 0.058413 0.119530 -0.008883 -0.109295 -0.066841 0.131879 -0.138219 0.011560 0.055133 -0.128618 -0.051655 0.066448 -0.022730 -0.013002 0.002072 -0.097972 0.131640 0.040706 0.115911 -0.077002 0.004018 0.025220 -0.072010 0.068886 0.145992 0.057299 0.068889 -0.096529 -0.084790 -0.012586 0.058443 -0.151682 -0.015462 0.110173 0.104156 0.102403 -0.005708 0.113831 -0.055800 0.085865 -0.009233 -0.003399 0.016076 -0.207186 0.145227 -0.015079 -0.060401 0.017777 -0.068750 -0.091961 0.109855 0.025177 -0.025669 -0.086554 -0.218499 0.063516 -0.042648 0.070159 0.131546 -0.087293 -0.144781 0.000029 0.056956 0.021216 0.003683 -0.081969 0.054760 -0.049588 0.015572
to 0.041139 -0.067504 -0.055510 0.110864 0.128056 -0.034388 0.101545 0.141170 0.189458 -0.077528 0.060776 -0.084083 -0.045315 -0.014612 -0.135804 0.219116 -0.113021 -0.169681 0.015211 -0.018475 -0.119908 -0.103974 -0.040917 -0.169276 -0.029418 0.061594 0.139861 -0.140800 -0.258224 0.162745 -0.097749 -0.046152 -0.050887 -0.136850 0.061153 -0.157410 -0.003427 0.028475 -0.065472 -0.020401 -0.038035 0.130181 -0.028568 -0.072214 -0.155643 0.063395 0.027022 -0.067405 0.065663 -0.055327 -0.257621 -0.066238 -0.061228 -0.199543 -0.155457 0.035445 0.002505 0.021926 -0.195142 -0.119707 -0.065288 0.051088 -0.020320 0.033749 0.049299 0.034100 0.002522 -0.153698 -0.038787 0.124231 0.012010 0.083572 0.021301 0.013583 0.244052 -0.153388 -0.226250 -0.091445 -0.029169 -0.039349 0.093191 0.103313 0.023430 -0.052646 0.043388 -0.160753 0.030047 0.077418 -0.024498 0.059078 -0.056994 0.116875 -0.010958 -0.003954 0.123658 -0.067734 0.025077 -0.138729 0.065635 -0.027893
for 0.078001 0.104393 0.004069 -0.065810 -0.267605 0.169932 -0.139654 -0.041241 -0.078915 -0.158534 0.024554 0.089086 0.139977 0.074456 0.055177 0.064019 0.113157 -0.143608 0.001630 0.030910 0.021117 -0.024700 -0.041373 0.059346 -0.026789 0.136506 0.092466 -0.069477 0.005304 0.093439 -0.093342 0.069371 -0.249634 -0.109009 -0.121425 -0.032329 0.119240 -0.192584 -0.001508 -0.073525 -0.108227 0.059986 0.078302 0.003957 0.030159 0.006293 0.032530 0.045491 0.004513 0.019887 0.022565 -0.106202 -0.153950 0.160353 0.101348 -0.244306 -0.132855 -0.058862 -0.124838 0.048498 0.009227 -0.165282 -0.001615 -0.072211 0.118950 -0.087692 -0.011625 0.044312 -0.097284 0.071191 0.009604 -0.100666 -0.042899 0.061551 -0.010773 0.065545 -0.000479 0.190272 -0.140410 -0.008474 -0.145241 -0.008230 0.140006 -0.090433 -0.110156 -0.208725 0.091983 -0.139490 -0.091136 -0.003257 0.059562 -0.071993 0.105688 -0.123592 -0.019755 0.034078 -0.056865 -0.241502 0.099980 0.062296
of -0.105249 0.087274 0.011302 0.097659 -0.169987 -0.009382 -0.061478 -0.061320 -0.071864 0.162161 0.003377 -0.018445 -0.134735 0.250568 -0.032743 0.181589 0.021947 -0.016098 0.020078 -0.164418 -0.093062 -0.062101 0.123420 0.087008 0.202420 -0.209011 -0.038625 0.084187 0.032984 -0.020486 -0.200972 -0.021516 0.046092 0.172619 0.080265 -0.001120 -0.254390 -0.053546 0.026757 -0.091491 0.035455 0.043053 -0.041143 0.087596 0.185375 0.031880 0.102809 -0.009840 -0.087120 -0.098337 -0.001303 -0.004263 0.079100 0.227874 -0.022166 -0.278047 -0.095856 0.035022 -0.070533 -0.162542 0.066709 -0.056341 -0.163638 -0.046643 0.032920 -0.082495 0.232601 0.007168 0.042527 0.066847 -0.044132 -0.026211 0.196062 0.000862 0.123052 -0.111411 -0.010445 -0.042102 0.077691 -0.008490 -0.165160 -0.153299 0.104236 0.081345 -0.068333 0.027028 0.096516 0.045081 0.171556 -0.041461 -0.113496 -0.084690 0.069766 -0.077440 0.014622 -0.092405 0.062900 0.157511 -0.031954 0.029401
with -0.106936 -0.089122 -0.004588 0.067232 0.038438 -0.014315 0.048497 -0.147664 -0.104167 -0.166052 0.073963 -0.131225 0.167116 -0.148732 -0.045974 0.097049 -0.012255 0.124628 -0.075783 0.121731 -0.035368 -0.042240 -0.156695 -0.169882 -0.045004 0.007434 -0.183703 -0.071100 -0.076315 -0.004718 0.017739 0.049606 -0.096056 -0.097268 -0.047124 0.078019 -0.145910 -0.068534 -0.038423 0.127877 0.008602 -0.017579 0.051451 0.014195 -0.071465 0.139247 0.204299 0.090697 0.002079 0.084763 -0.106122 0.016825 0.167045 0.032840 -0.048409 -0.003555 -0.004757 0.191313 -0.091784 -0.075764 -0.022653 0.137234 -0.005068 -0.008598 -0.075663 -0.135892 0.090582 0.078638 0.148801 -0.078676 -0.007884 0.038206 -0.127175 -0.022696 0.027104 0.038013 0.020307 -0.157081 0.028653 0.027262 -0.179157 0.137609 0.173542 0.206267 -0.090443 -0.137980 0.076072 0.092199 0.048490 -0.039958 0.005936 0.021438 -0.083186 0.050503 0.076640 0.099176 -0.110556 -0.174143 0.059458 0.092513
by 0.045846 -0.005850 0.020966 0.036258 0.044760 -0.181687 0.200275 0.052210 -0.071672 0.047852 -0.068063 -0.205456 0.011805 -0.033028 0.061050 -0.052635 -0.126743 0.158272 0.035564 -0.036688 -0.142101 -0.076247 -0.124941 0.183204 -0.096465 0.061449 -0.060113 0.019506 -0.023575 0.120379 0.200286 -0.096833 -0.117169 -0.033264 0.158238 0.015970 -0.100352 -0.023788 0.232153 0.024049 0.049897 0.041785 -0.001882 0.030963 0.002049 -0.017739 0.002667 -0.100629 0.027556 0.019748 0.208838 0.313222 -0.081712 0.193447 -0.197103 -0.053177 -0.013135 -0.212594 -0.087593 -0.000900 -0.143039 -0.006560 0.024300 -0.017451 -0.058948 -0.035608 0.036369 -0.018300 0.003700 -0.205297 -0.110428 -0.059596 0.054707 -0.081811 -0.006180 0.122525 0.162116 -0.045358 -0.017742 -0.063977 0.091502 0.029098 -0.045716 -0.128928 0.071083 0.006018 0.020367 -0.032366 0.038075 0.078797 -0.067711 0.112350 0.130680 -0.065010 0.073382 -0.134434 -0.135011 0.133134 -0.211402 -0.053603
good -0.055847 0.073617 -0.057179 0.093803 0.097933 0.045341 0.064874 -0.042286 0.091174 0.185741 0.159303 0.110645 0.106809 -0.014648 -0.075506 -0.101850 -0.084495 0.168391 -0.005381 -0.011402 0.189141 0.019326 0.125009 0.067876 -0.116019 0.040124 0.025128 0.013139 -0.095668 -0.066177 -0.051772 0.099784 -0.050145 0.054017 -0.008341 -0.105574 0.016286 0.113353 0.006070 -0.153389 -0.044688 -0.019044 -0.083337 0.061469 -0.012116 -0.044248 0.011759 0.098300 0.003182 0.078396 0.129082 0.080645 -0.064788 -0.002094 -0.082990 0.135819 -0.009444 0.134597 -0.089369 -0.026904 0.120253 -0.084432 -0.051752 0.186911 0.037990 -0.021601 0.037964 0.074196 0.063880 -0.039433 0.086978 0.136046 0.063766 -0.135420 0.042610 -0.161880 -0.118771 0.019283 0.002197 -0.232366 0.117400 0.128155 -0.239069 0.296103 0.064173 0.009067 0.101018 -0.279723 -0.147055 -0.080081 -0.017853 -0.001361 -0.086806 0.264142 -0.161236 -0.028923 0.181668 -0.066145 0.047942 -0.039165
bad 0.018099 0.025778 0.021825 0.061607 -0.174250 -0.011981 0.000697 0.086612 -0.004575 -0.057449 0.005210 -0.004132 0.055182 -0.169080 0.139102 0.115520 0.005939 -0.082801 -0.169800 -0.017828 -0.032649 -0.151221 0.062135 -0.036110 -0.079005 -0.075177 -0.071156 -0.108356 -0.011460 -0.047041 0.046780 -0.019013 0.052591 -0.035726 0.011971 0.016380 0.034535 -0.117741 0.060092 -0.001452 -0.119418 -0.001006 0.037103 -0.045335 0.039816 0.210715 -0.112545 -0.068237 -0.172004 -0.109277 -0.039136 0.181813 0.059688 -0.116212 -0.017013 -0.071082 0.073858 -0.012125 0.083692 -0.027445 -0.097175 -0.094003 -0.087866 0.084795 -0.020012 -0.018945 -0.196762 -0.136503 0.031034 -0.030381 0.081354 -0.047733 0.043061 0.136804 0.028467 0.102056 0.076057 0.060099 -0.078058 0.052208 0.316127 -0.171579 0.128551 -0.044158 0.072245 0.009993 -0.026894 -0.031866 0.015577 -0.173255 -0.056873 0.087220 0.099818 0.023568 -0.026105 -0.026975 0.160621 -0.037118 -0.068122 0.109902
great 0.003940 -0.172297 -0.073342 0.044952 0.041683 0.133319 -0.064779 0.000878 -0.097278 0.115056 0.134706 -0.085753 0.127247 0.149348 -0.117476 -0.102027 -0.073297 -0.026977 0.095330 -0.139129 0.149170 -0.027392 0.043356 -0.083475 0.089389 -0.010297 -0.146718 0.029505 -0.106365 0.055437 -0.252514 -0.013081 -0.101485 0.061857 -0.119082 0.169566 0.144433 0.088193 0.135589 0.044380 -0.001587 -0.060387 0.024616 -0.073970 0.007805 -0.031899 -0.058183 0.035552 -0.097258 0.059457 -0.080247 0.024250 -0.079208 -0.195217 -0.000861 -0.116550 -0.033238 -0.007021 -0.170725 -0.136005 0.021096 -0.012421 0.025109 -0.074576 -0.138956 -0.055752 0.067293 0.120807 -0.196444 0.167909 -0.054028 -0.065412 0.110442 -0.046082 -0.066740 0.022426 -0.192854 0.003202 0.050958 -0.027022 0.069298 0.113337 -0.082093 0.018499 -0.045526 0.000709 0.086704 -0.118389 0.126053 0.097292 0.080576 -0.098594 -0.134501 -0.056937 -0.060487 -0.061834 -0.118597 -0.099374 0.019170 -0.070454
terrible 0.008610 0.148079 -0.117906 -0.026332 -0.025973 0.054741 0.045723 0.050639 -0.097927 -0.108738 -0.010819 0.130552 -0.113355 0.083367 -0.120766 -0.081029 0.027331 -0.006766 0.010640 -0.041223 0.085006 -0.113520 0.126470 -0.086129 -0.014838 0.010504 0.133321 -0.000996 0.060966 -0.075602 -0.050165 -0.076697 -0.004686 -0.094515 0.082451 -0.080906 0.005123 0.093407 0.066935 0.009641 -0.028984 -0.158117 -0.077722 -0.037788 0.006369 0.071143 -0.018245 0.068018 -0.122245 0.031562 0.060056 -0.174030 0.018889 0.083226 -0.129670 -0.058858 -0.101811 -0.131723 0.049178 -0.021480 -0.012282 -0.096792 -0.097635 0.052765 0.007799 -0.030736 0.023985 0.033780 0.044580 -0.005659 0.108684 0.093661 -0.182110 0.024325 -0.052970 0.058521 0.177724 0.022621 0.073425 -0.050698 0.096400 -0.069295 0.199527 0.068813 -0.130615 -0.073682 0.239574 -0.111916 -0.007447 -0.025138 0.064385 0.128663 -0.155983 -0.239802 0.266236 0.113147 -0.042733 0.132012 -0.055775 -0.131278
amazing -0.031762 0.075843 -0.027373 -0.355402 0.079133 0.100037 0.181087 -0.061914 -0.149239 0.167053 -0.053682 0.067562 0.011695 -0.168540 0.163793 -0.115278 -0.117371 0.050724 -0.072614 0.072593 -0.144683 -0.058040 -0.262839 0.010155 0.068765 -0.117819 0.036795 -0.011507 -0.149676 0.077981 -0.073487 -0.007227 -0.035907 0.069812 -0.057885 0.055940 -0.068082 -0.127734 0.028479 0.098328 0.136295 0.014671 0.142779 -0.054278 0.032453 0.030056 -0.098629 0.029174 0.004194 0.031134 -0.048992 0.073041 0.016808 0.032558 -0.013074 0.179155 -0.077464 -0.036759 -0.008744 0.052841 0.285319 -0.095480 0.077458 0.055501 0.140608 -0.045485 0.039165 0.005514 0.077221 0.094963 -0.105403 -0.005011 -0.163981 -0.142708 0.040178 -0.000418 0.017616 0.179166 0.099388 0.116441 0.025280 -0.054381 0.027122 0.104150 -0.046206 -0.177374 0.076757 0.131801 0.077905 -0.085536 0.084859 0.013329 0.017271 0.105058 -0.056734 -0.051025 0.051829 -0.111662 -0.098877 0.107638
awful 0.010343 -0.082448 0.067688 -0.083359 -0.034617 -0.164895 0.043206 -0.039572 -0.000748 0.053952 -0.031714 0.043870 0.009505 -0.110737 -0.134165 -0.073701 0.023553 0.004220 0.082733 -0.144120 -0.007612 0.006748 0.078275 0.073011 -0.090419 -0.047455 -0.078978 -0.208524 0.023047 -0.063900 0.100858 0.024206 -0.218014 0.146778 -0.009896 -0.016610 0.016153 0.045376 0.002149 -0.132111 0.099286 -0.036185 -0.000449 -0.044134 0.076010 0.050437 0.014049 0.157230 -0.070567 -0.034847 -0.037213 0.064779 0.000729 -0.116415 -0.216560 -0.080116 0.094010 0.098221 0.001469 -0.081993 -0.094191 0.015822 -0.008244 0.046608 0.232995 0.141318 -0.062515 0.090222 0.011159 0.008601 -0.045369 0.198663 -0.026272 -0.021813 -0.104380 0.018119 0.184316 -0.107190 -0.006389 0.043704 0.075336 0.020156 -0.143952 -0.097203 0.304635 0.179009 -0.244761 -0.049825 0.017509 0.052581 -0.151129 -0.055737 0.002758 0.037793 0.003684 -0.033433 -0.080611 -0.067233 -0.039603 -0.069776
love -0.037924 -0.102937 0.233314 -0.072347 0.009071 0.118058 0.027910 0.012929 -0.153603 0.011594 -0.026225 0.047642 0.016123 -0.093665 0.092640 0.063806 -0.220816 0.008272 0.029201 0.030427 0.036200 0.168644 0.051687 -0.076063 -0.048818 -0.109288 0.107449 0.109600 0.083995 0.042373 -0.041072 -0.161258 0.000374 0.025543 0.061128 -0.153370 -0.231366 -0.058498 -0.007446 -0.139183 0.031272 -0.049394 -0.055195 0.050972 0.152225 -0.115841 0.036034 -0.107235 -0.099663 0.165753 0.068846 -0.093752 0.084615 0.041687 0.018141 -0.062893 -0.100970 0.177009 -0.125103 0.111371 0.183122 -0.103934 -0.040055 -0.011226 -0.003584 0.056990 0.112166 0.168727 0.087515 -0.062033 0.294339 -0.056526 -0.099157 -0.034975 0.077776 -0.035664 0.119271 -0.103726 -0.169798 -0.010074 0.048168 -0.033736 0.060967 0.035077 -0.152434 0.001307 0.109182 -0.070348 0.078095 -0.154731 0.054451 0.068152 0.198410 -0.045971 -0.056468 0.140232 -0.098026 0.042184 0.002861 -0.127540
hate 0.026368 -0.137726 0.083930 0.141795 0.074995 0.144600 -0.061696 -0.221681 -0.119281 -0.026268 -0.037962 -0.100051 -0.000894 -0.250331 -0.049126 -0.010121 -0.152452 -0.137561 0.047792 -0.165330 -0.023133 -0.209131 0.184902 -0.101804 -0.032905 0.170631 -0.019041 -0.059487 -0.071597 0.011080 0.001371 -0.170025 -0.041098 -0.087168 -0.137896 -0.000924 -0.003108 -0.004231 -0.081103 0.018038 -0.027345 -0.137709 -0.213010 -0.148077 0.077323 -0.032397 -0.012072 0.058238 0.049447 -0.191214 -0.015896 0.156955 -0.061190 0.006331 -0.084504 0.076249 0.032675 -0.059050 0.000826 0.257696 0.049884 0.160672 0.038502 0.115021 -0.015978 -0.000888 -0.068770 -0.067147 -0.065043 0.134615 0.031902 -0.011981 -0.115760 -0.017886 -0.012982 -0.042198 -0.050324 0.079540 0.056861 0.139833 0.161474 0.075395 0.035986 -0.028467 -0.141214 0.040807 0.066567 -0.102307 -0.179831 0.056906 0.141352 -0.018249 0.090674 -0.015645 0.056863 0.160950 -0.088712 -0.069080 -0.027184 0.004863
like -0.121348 0.128689 0.193628 0.044827 0.110480 0.056469 -0.036328 -0.001472 -0.085427 0.105852 -0.282281 0.163059 0.018568 0.092522 0.128280 -0.089067 0.067280 -0.003885 -0.069067 -0.044241 -0.137961 0.041140 -0.032098 0.026399 -0.071101 -0.237597 0.087472 0.185912 -0.065998 0.247808 -0.041362 0.066021 -0.026775 -0.130491 0.125550 -0.042258 -0.010767 -0.100901 0.119175 0.067767 0.030944 -0.045583 -0.142701 -0.062073 -0.138889 -0.069463 -0.128045 0.012741 0.071744 -0.055129 -0.031801 -0.087298 0.012386 -0.081718 -0.153381 0.091672 -0.067374 -0.052551 -0.039750 0.021577 0.122301 0.083116 0.021138 0.016363 0.125016 -0.003705 -0.145628 0.068987 -0.247858 0.202442 -0.027071 0.061146 -0.129175 0.117951 -0.037575 0.095130 0.023489 -0.079816 0.136387 0.022263 0.025388 -0.049071 0.068140 0.031917 -0.080929 -0.100054 0.038276 -0.071962 -0.144955 0.171941 -0.006068 -0.031680 0.152473 0.112700 -0.031657 -0.154886 0.055320 -0.054687 -0.132969 0.130714
dislike 0.045495 -0.045139 0.041770 0.168270 -0.060209 0.023465 0.116962 -0.017859 0.125407 -0.018811 0.075415 -0.007872 -0.133606 -0.071704 -0.010472 -0.026828 0.027061 -0.031706 0.157716 0.051146 -0.024510 -0.012188 -0.070058 0.089686 -0.006801 0.150518 -0.031991 0.049221 0.024583 -0.095634 -0.070185 -0.007415 0.020271 -0.144963 -0.041187 -0.127900 -0.117781 -0.055527 0.058956 0.121213 0.033617 0.148599 0.047111 -0.091770 0.000577 -0.057356 -0.112819 0.068729 0.068741 0.130718 -0.123190 0.037220 -0.016902 -0.043995 0.073543 -0.046979 -0.082758 -0.085969 0.229308 -0.162155 0.007537 -0.054276 -0.006221 -0.177481 -0.119716 0.005154 -0.029599 0.192127 0.068777 -0.108697 -0.005134 -0.006927 -0.091543 -0.061643 -0.000407 0.020216 -0.012683 0.066894 0.115118 0.030373 0.006590 0.041947 0.063333 -0.184012 -0.127738 0.068795 -0.069239 -0.127301 0.003099 -0.151362 -0.175015 -0.099422 0.015085 -0.184109 -0.074356 0.121706 0.032077 -0.093904 -0.067837 -0.084123
happy 0.158567 -0.049314 -0.010903 -0.075052 0.082709 0.073997 -0.147653 0.070714 0.001751 0.012256 -0.053312 -0.047577 -0.143222 0.070219 0.152562 -0.023793 -0.143768 -0.042139 0.080821 0.135837 0.048811 0.058813 0.030315 -0.082993 -0.088577 0.067120 -0.051189 -0.002493 -0.023619 -0.071112 -0.101483 -0.114256 -0.098826 0.091717 0.024165 0.042919 -0.082478 -0.177114 -0.039846 0.005685 0.106162 0.065026 -0.050617 -0.073054 0.084194 0.099639 -0.076547 0.236585 -0.015436 -0.026244 0.094860 0.206222 -0.164283 -0.007396 -0.051167 0.241899 -0.056238 -0.131237 -0.064867 0.165841 0.033502 -0.073823 0.105163 0.139877 0.010539 0.026383 -0.122933 0.037513 0.074285 0.031545 0.018575 -0.096163 0.002349 -0.013265 -0.012318 0.166085 -0.026074 -0.171793 0.139605 -0.093071 -0.215666 -0.013069 -0.099721 0.085791 0.034692 -0.138166 -0.059339 -0.166036 0.136991 0.054775 0.151597 -0.125762 -0.006454 -0.070506 0.085533 0.005667 0.159145 0.109866 0.040652 -0.060184
sad -0.019227 0.010585 -0.059451 0.053971 -0.012115 -0.040099 -0.031414 0.050168 0.033084 -0.067854 -0.176111 0.115727 -0.195778 -0.002807 -0.065762 0.066032 0.014193 0.031194 -0.037975 0.048369 0.142455 -0.094923 -0.123842 0.142800 -0.013457 -0.002510 -0.095443 0.120401 -0.108700 0.060350 -0.029585 0.122944 0.141966 0.050264 -0.170650 0.022720 -0.128934 0.105153 0.170377 -0.019745 -0.010532 0.136380 -0.005187 -0.214027 0.056245 -0.086786 -0.090134 -0.023788 0.076513 -0.001593 -0.008945 0.136455 0.186099 0.072557 0.013106 0.066160 0.167439 0.035165 0.109697 -0.011135 -0.120947 0.008309 0.090861 -0.163138 -0.104417 -0.096048 -0.015367 -0.024659 0.117739 0.029706 -0.072353 0.018888 -0.114879 -0.165996 -0.149558 0.062922 0.167437 -0.033736 0.024843 0.095557 -0.007399 -0.065429 0.100485 0.008875 0.264062 0.052356 -0.119109 -0.077862 0.020122 0.096961 -0.083201 -0.016778 -0.058401 -0.167621 0.024905 -0.178580 0.083034 0.117543 0.123748 0.048461
angry 0.142808 0.126638 0.061262 -0.063929 -0.075865 -0.107488 0.022467 0.234742 -0.041369 0.063528 0.193272 0.058225 0.181211 -0.116286 -0.070211 -0.034183 -0.004740 0.035204 -0.051699 0.088589 -0.093196 0.001713 -0.135777 0.088068 0.029420 -0.055810 -0.053376 -0.134491 0.083494 0.088384 -0.045996 -0.010883 -0.171148 0.164055 -0.022534 -0.028106 0.059529 0.121124 0.104964 0.169600 -0.087312 -0.084586 -0.047665 0.044877 0.131647 -0.049928 -0.019892 0.008887 -0.035361 0.060075 0.047087 0.084593 0.065996 0.029999 0.071284 -0.142523 0.021244 0.044465 -0.064940 0.169769 0.138540 0.036444 -0.096330 0.075269 0.140813 -0.060712 0.195385 -0.088839 -0.049412 0.055397 0.048858 0.096145 0.026232 -0.157178 0.106850 0.037766 -0.090691 0.039036 0.028856 0.074784 -0.062503 -0.054617 0.104516 -0.057839 0.182826 -0.185642 0.119250 0.003960 -0.022578 0.021919 -0.086095 0.008542 -0.065616 -0.082906 0.065119 0.147793 0.137161 0.216114 -0.186895 0.270490
excited -0.051788 0.044101 -0.080842 0.043948 0.180043 0.126164 0.076071 -0.129878 0.179742 -0.225097 0.066470 -0.076030 0.031395 0.074638 -0.092172 0.136584 0.058484 0.249750 -0.035607 -0.009457 0.088859 0.073259 0.043896 -0.149397 0.276267 -0.041046 0.044064 0.012296 -0.045631 0.134026 -0.069245 -0.074028 0.079490 0.115770 -0.011956 0.052696 0.062449 -0.157413 -0.087843 0.002516 -0.000702 -0.035148 -0.128631 -0.068072 -0.029290 -0.140697 -0.004132 -0.112421 -0.027858 0.039074 -0.016548 0.071867 0.172304 0.041230 -0.037590 0.092317 -0.194864 0.057416 -0.035389 0.014228 -0.022898 0.034090 0.052345 0.081629 -0.053398 0.009475 0.101454 -0.147821 0.091511 -0.113861 -0.050034 -0.131789 -0.050273 0.106455 -0.007582 -0.095679 -0.072300 -0.125055 0.084166 -0.079565 -0.093291 -0.170620 -0.022387 -0.145449 0.001858 0.041555 0.176497 0.041392 0.052442 0.038959 0.113348 -0.181497 0.046038 0.001189 0.004752 0.021594 0.031283 -0.072187 -0.124338 -0.074039
disappointed -0.065138 -0.042589 0.110568 -0.071111 -0.025209 -0.157933 -0.067658 -0.066652 -0.061789 -0.083745 0.067199 0.024398 -0.054500 -0.075990 0.002372 -0.114333 -0.127504 -0.162036 -0.056703 0.061626 0.070455 -0.103138 0.001979 -0.120285 0.030173 -0.119936 0.116129 0.036662 -0.158540 -0.072222 0.002494 -0.019361 -0.130783 0.070349 -0.049999 -0.042776 0.013089 -0.017665 -0.078502 0.052221 0.093732 0.131688 0.018338 -0.068904 0.158439 0.021590 -0.176054 -0.023611 0.093950 0.105432 0.131864 0.003163 -0.122291 -0.111068 -0.105439 0.032283 -0.067472 -0.124750 0.017906 0.055221 -0.050325 -0.030503 -0.128450 0.059222 -0.067084 0.042235 -0.032615 -0.055635 -0.034068 0.129301 0.088609 -0.008026 -0.067412 0.068281 -0.045662 0.057464 0.007549 -0.132460 0.001184 -0.145624 0.008462 -0.132033 0.037566 -0.017822 -0.126965 0.015699 0.154492 0.023621 -0.162542 -0.031268 0.040080 0.253645 -0.084454 -0.096722 0.094698 0.019234 -0.207602 -0.047513 -0.123752 -0.020994
satisfied -0.022647 0.064464 0.005705 -0.164292 -0.045184 0.039226 0.012001 -0.015938 0.104632 -0.089024 -0.073891 -0.141583 -0.073812 0.121142 0.027803 0.102843 0.056524 0.025745 -0.047366 -0.090899 0.000523 0.203576 -0.045857 -0.019013 0.068526 0.006017 -0.058354 -0.027643 0.076152 -0.042229 0.055936 0.038299 0.067557 -0.006235 0.038310 -0.146646 0.069898 0.153461 -0.137684 -0.102376 0.103962 0.073123 0.054508 -0.053212 0.048921 0.109400 0.055887 -0.111358 0.087413 -0.059876 -0.002477 0.021973 0.145202 0.038075 0.042780 -0.079535 -0.053003 -0.058127 -0.014459 -0.005555 -0.076269 0.123511 0.050502 -0.061914 -0.100964 0.000401 -0.067332 -0.037178 -0.125940 -0.098979 0.099458 0.000435 -0.118105 0.084528 0.043204 -0.024522 -0.158047 -0.030722 0.046827 -0.018506 0.132251 -0.086878 0.091140 0.056743 0.063079 -0.176926 0.098289 0.046760 0.057405 -0.029151 0.061116 0.004171 -0.078850 -0.083792 -0.124178 0.044957 -0.080461 -0.120685 -0.092769 0.110509
pleased -0.076686 -0.167178 0.112781 -0.169531 -0.065397 0.044552 -0.065114 0.021874 -0.170000 -0.049396 -0.106907 0.114733 -0.149712 -0.093244 0.165587 -0.091719 0.123307 -0.073948 -0.123901 0.047841 -0.232460 -0.019089 -0.008974 -0.019641 0.097331 0.012737 -0.058184 -0.059532 0.199218 -0.061670 0.086858 0.033346 -0.036554 0.075197 0.107088 0.078736 -0.027195 0.029427 0.036943 0.072827 0.030437 -0.082676 -0.057778 0.006154 -0.139339 -0.086900 -0.069475 0.005370 -0.077480 -0.065331 0.051064 -0.065617 -0.069738 0.068318 -0.008958 -0.034856 -0.106748 -0.063368 0.163218 -0.094168 -0.019951 -0.175051 0.031278 0.048465 0.054744 0.000625 -0.034252 -0.112214 -0.019313 0.090343 0.036365 -0.011344 -0.037159 -0.069959 0.141016 0.054774 -0.187620 0.165018 0.012745 -0.044481 0.051914 -0.008269 -0.246083 0.096916 0.044907 -0.096721 -0.037637 -0.025672 -0.031594 0.020216 -0.182934 -0.101586 0.032756 -0.106154 0.066219 0.206330 -0.084242 0.130417 -0.085497 0.035316
upset -0.008554 0.019289 -0.024005 -0.028796 -0.066625 0.059443 0.078816 0.130240 0.127732 0.034028 0.080276 0.162240 -0.059582 -0.125498 0.248770 0.059276 0.076557 0.118728 0.028494 0.015058 -0.067652 0.016133 -0.137989 0.083499 0.040892 0.049894 -0.136092 0.023425 -0.024517 -0.012533 -0.120673 -0.109100 0.088979 0.154038 -0.025431 -0.024180 0.007657 -0.107229 -0.027329 -0.011225 0.151701 0.171998 0.079568 -0.035196 0.126854 -0.012104 -0.307434 0.011326 0.069683 -0.040625 0.010445 -0.118686 -0.007916 -0.010187 0.019794 -0.070813 -0.129151 -0.127612 -0.073750 -0.006788 0.044981 -0.013479 -0.011542 0.121478 0.075337 0.200193 -0.289122 -0.006236 -0.054926 0.059357 -0.088876 0.109020 -0.036893 -0.015658 -0.251368 -0.064010 0.147894 0.039862 0.062920 0.051593 0.124751 0.011252 -0.045874 -0.006330 0.091185 -0.030027 -0.040879 -0.026790 0.018839 0.126247 0.008571 -0.042620 0.059324 0.123745 0.021147 -0.047599 0.034089 0.005052 0.007942 0.001164
excellent -0.019024 -0.017140 -0.005472 0.045530 -0.168491 0.073970 0.027002 0.108437 0.045294 -0.107183 -0.004500 0.048863 -0.019100 -0.038878 0.029673 -0.172460 0.127083 0.059263 0.062180 -0.075162 0.128854 0.125623 0.110174 0.020584 0.031448 0.059989 -0.124111 0.075307 -0.080436 0.079687 -0.009942 0.021498 0.106429 -0.049068 0.067083 -0.130747 0.035860 -0.022544 0.084632 0.077959 0.183669 -0.016532 0.314807 -0.100679 0.035795 0.128066 -0.209136 -0.071440 0.216605 -0.247256 0.033420 0.034663 0.048457 0.080778 0.174373 0.046081 0.076035 -0.113726 -0.035178 0.133317 -0.061256 -0.029718 -0.020367 -0.012921 0.089569 -0.202413 -0.031740 0.078585 -0.051035 -0.138834 0.019749 -0.032657 -0.011413 -0.111715 0.003369 0.223122 -0.077105 0.124405 0.015283 0.114946 -0.078010 -0.062045 -0.138094 -0.085137 -0.043820 0.147331 0.025510 -0.027636 -0.064736 -0.008700 -0.041968 -0.106094 0.112218 -0.046990 -0.030357 -0.296374 0.088234 0.209661 -0.035756 0.165796
poor 0.010859 -0.180100 -0.048913 -0.035832 -0.028003 -0.016809 -0.159458 -0.071142 0.008492 -0.146283 0.119519 0.189079 -0.038935 0.068611 -0.029644 -0.000558 -0.008812 0.135359 0.141874 -0.044386 0.100299 -0.019280 0.055952 -0.166681 0.144587 -0.121737 0.011344 0.138036 -0.064585 0.208227 0.036701 0.073826 -0.005637 0.027323 -0.094430 -0.112422 -0.144801 -0.047195 0.086413 -0.156072 -0.132099 -0.026044 -0.070423 0.115211 0.051886 0.029106 -0.002771 0.085125 0.017265 0.159943 -0.020624 -0.000442 0.140151 0.017354 -0.056244 0.068349 0.013727 -0.064832 0.006338 0.108099 -0.054698 -0.130113 -0.025063 -0.043420 0.019570 -0.116693 -0.008748 -0.069448 -0.016249 -0.070097 0.087963 0.151222 -0.093495 -0.059182 -0.005205 -0.101730 0.037251 0.082439 -0.161516 0.135140 0.055651 -0.026394 0.006580 0.067663 -0.150185 -0.061046 -0.007323 -0.101508 -0.103025 0.028214 0.077042 -0.015834 -0.020881 -0.059987 -0.084507 0.307232 -0.155441 0.029443 0.061889 0.023202
fantastic -0.035803 0.065319 0.021747 0.093254 0.191541 0.063077 -0.224957 0.065465 -0.155686 0.075471 0.116349 0.032583 -0.162614 -0.061152 -0.077884 0.097823 0.005216 -0.009290 0.002796 0.093233 0.032263 0.010554 0.035332 -0.008639 0.020542 0.054373 0.032639 0.025803 -0.226910 0.038256 -0.010372 0.367551 -0.154000 0.195669 0.087576 0.130875 0.191095 -0.079139 -0.034187 -0.009520 0.052765 0.147216 0.011837 0.103833 0.077460 -0.010614 0.106400 -0.162456 0.009317 -0.013747 -0.171926 0.075321 0.034462 0.075105 0.033151 0.188495 0.202815 -0.025927 0.073933 -0.015520 0.132568 -0.142322 0.233591 -0.070551 -0.018607 0.002502 -0.067755 -0.137981 0.011153 -0.006202 0.016621 -0.063853 0.059307 -0.122034 0.161430 -0.055953 0.167761 0.119134 -0.033944 -0.075540 -0.129496 -0.088935 -0.135541 0.012762 0.050438 0.082579 0.045368 -0.001882 -0.110135 0.020420 0.031167 -0.035266 0.140014 0.102385 0.083818 0.171220 -0.000578 -0.004331 -0.179583 0.030483
horrible -0.156847 -0.027729 0.086642 0.144514 -0.010076 0.068514 -0.104053 0.056222 0.129512 0.089304 -0.047970 0.071899 -0.025555 -0.055553 0.030987 0.153844 -0.057865 -0.097732 0.023388 -0.002542 0.124248 0.154171 -0.033946 -0.017740 0.158984 0.046024 0.041962 -0.006885 0.121094 -0.033273 -0.031482 -0.028155 -0.023309 0.072350 -0.051572 -0.212475 -0.049320 -0.079159 -0.124129 0.111414 0.025085 -0.113850 0.010773 -0.115972 0.136965 0.048826 0.121256 -0.034179 -0.020180 0.274186 0.168634 -0.030501 0.008917 0.005170 -0.070037 -0.072876 0.054474 -0.101162 -0.173918 0.090423 -0.038288 -0.022950 0.105373 -0.052123 -0.135461 0.210132 0.065838 -0.118774 0.079758 -0.076010 0.241464 0.036958 -0.022229 -0.157100 0.044731 0.047097 0.139975 -0.110134 -0.098813 -0.105724 0.174246 0.082995 0.031671 0.004092 -0.211911 -0.288137 0.139114 0.117011 0.009613 0.034600 0.040784 -0.094807 -0.082957 -0.042343 -0.087301 -0.034929 0.268427 -0.185424 -0.206900 -0.202989
wonderful 0.072699 0.100280 0.198132 0.119927 0.072900 0.173293 0.017049 -0.142123 0.028112 -0.011762 -0.094299 0.120159 0.013723 0.063735 -0.028605 -0.004982 0.048408 0.062369 0.017466 0.035725 -0.046533 -0.119869 0.067861 0.036195 -0.110571 0.024101 0.084915 0.033938 0.024148 0.214410 0.046435 -0.119485 -0.039499 0.023640 -0.137797 -0.100299 -0.085782 0.049164 0.150458 0.089045 0.046313 0.003230 0.081844 0.044010 -0.086890 -0.066646 -0.067294 -0.020702 -0.153854 -0.035768 0.017617 -0.051399 0.006216 0.035208 0.076394 -0.066128 -0.032275 0.043438 -0.105562 -0.052550 0.009321 0.115715 -0.051018 0.126272 -0.072681 -0.074547 -0.171028 -0.056116 -0.012769 0.099930 -0.057291 0.014350 0.140111 0.052184 0.092606 -0.019899 0.078765 -0.025117 0.105034 -0.094022 0.145326 -0.108630 -0.012562 0.145197 -0.185089 0.075939 0.190688 0.002940 -0.115824 -0.046157 0.015984 -0.064696 -0.043479 -0.009573 -0.126304 0.003357 -0.007069 0.257934 0.156631 -0.046562
worst -0.059495 -0.088121 -0.011718 -0.006464 0.092503 -0.051299 0.031869 -0.035043 -0.055099 -0.147080 -0.021540 0.060628 -0.060367 0.096477 -0.212045 0.130253 0.047067 0.131562 0.010070 -0.135563 -0.040428 0.045111 -0.053444 0.174715 0.051533 0.066282 0.193949 -0.199380 -0.036389 -0.031444 -0.047590 -0.003627 0.073091 -0.038037 0.252499 0.111006 0.095439 0.167436 -0.010357 0.233178 -0.101457 0.057064 0.035566 -0.079897 0.063192 -0.004739 0.101796 0.129177 0.028457 -0.028742 -0.033937 -0.018461 -0.012631 -0.023871 0.127618 -0.042268 0.015528 0.048781 0.017582 0.035982 -0.171827 0.076902 0.010559 -0.022786 -0.178997 0.072934 0.084602 0.032654 -0.075864 0.046582 0.094258 0.188390 -0.194017 0.088557 0.146438 0.101288 -0.106297 -0.027892 -0.121946 0.118320 -0.037105 -0.104482 0.033776 0.023138 -0.134690 0.119496 0.173661 -0.159676 0.037409 0.132839 -0.135118 -0.051126 0.162305 -0.054521 -0.069345 -0.214916 -0.003277 0.008695 -0.010227 -0.108872
best -0.115070 -0.012124 -0.068425 -0.016806 0.161333 -0.054666 -0.077875 -0.070836 0.085557 0.144176 -0.130604 0.032221 -0.054625 0.028562 -0.038323 0.124187 -0.110588 -0.002900 0.132633 -0.039538 -0.009020 0.105385 -0.050555 -0.082492 -0.016791 -0.252407 0.115871 -0.054784 -0.069556 -0.111889 0.051962 0.054363 0.060290 -0.221055 -0.147046 -0.014947 -0.151049 -0.102412 -0.151432 -0.033669 0.039948 0.162405 -0.062011 -0.140580 0.017041 -0.018335 0.153405 0.016032 -0.025249 -0.037178 0.098169 -0.062093 0.033454 -0.166973 -0.090644 0.081978 -0.054027 0.035778 -0.061689 -0.012722 -0.095182 0.133947 -0.001803 0.156151 -0.016786 -0.083050 0.014259 -0.039908 0.099244 -0.047736 -0.082632 -0.013227 -0.176911 -0.037495 -0.093658 -0.159751 -0.102282 0.150008 -0.098158 0.009909 -0.060308 0.168845 0.073726 -0.132743 0.008682 0.079331 -0.246679 -0.019934 -0.080898 -0.068833 0.038585 -0.044489 0.081899 0.027842 -0.047421 0.007613 -0.190160 -0.054859 -0.082861 -0.004666
nice -0.003205 -0.052967 0.022571 0.086695 -0.039143 -0.028750 -0.165155 -0.002906 -0.202710 0.032231 0.025885 0.111774 -0.154370 -0.007674 -0.045704 -0.021862 0.063375 0.119079 0.005786 0.169032 0.095479 0.185296 0.023430 0.269985 0.024417 0.055745 -0.077658 0.007654 0.006096 0.175841 0.101513 -0.119589 0.080213 -0.119673 0.196427 0.234587 0.119709 0.193153 -0.088312 -0.103485 -0.142278 -0.106636 -0.076164 -0.144479 0.014237 -0.142089 -0.005136 -0.038324 0.022462 -0.001524 0.060323 -0.118077 0.092282 -0.009292 -0.006317 0.060570 0.033038 0.085721 0.015134 -0.113878 -0.091047 0.003414 0.048193 0.034621 -0.031299 -0.026698 0.057022 -0.008124 0.058717 -0.067443 -0.092833 0.095761 -0.019056 -0.089562 0.173255 0.029820 0.124516 -0.030343 0.001379 0.158231 0.012097 0.070390 -0.228680 0.045858 0.117256 0.193147 -0.077974 -0.099388 -0.095981 0.018950 -0.051949 -0.092557 0.014225 0.105993 0.069334 -0.001754 0.046991 0.130697 -0.067484 -0.025874
not 0.123844 0.007907 0.008143 -0.130055 0.008741 0.115500 0.012998 -0.069528 0.222376 -0.029308 -0.078454 0.059748 -0.206770 -0.267232 -0.023550 0.084953 -0.086294 0.025052 0.085157 -0.070972 0.093668 0.084096 -0.059168 0.023294 0.020328 0.034405 -0.018172 -0.003320 0.034364 -0.200382 0.085222 -0.041505 0.266009 0.127638 -0.064222 0.104188 -0.101691 0.166350 0.068372 -0.076587 -0.056890 0.152956 -0.036897 0.005706 0.159784 -0.068829 -0.090309 -0.014529 -0.040294 -0.102401 0.049034 0.032824 0.148540 -0.012739 -0.090248 0.014177 -0.009182 0.014427 -0.038311 0.008639 0.175842 -0.098942 0.137749 0.068889 0.052114 0.054905 -0.079202 -0.004376 -0.070847 -0.019313 0.208813 -0.149652 0.127759 0.120761 0.117217 -0.004312 -0.052805 0.049529 -0.114317 -0.065326 0.135990 -0.032340 0.038499 0.090338 -0.025716 -0.058694 0.088520 -0.026261 0.040358 -0.019538 -0.011243 0.025704 -0.146517 -0.076381 -0.013529 -0.123919 0.072401 0.107140 -0.043152 0.092612
very -0.024984 0.092076 0.015255 0.018555 -0.014678 -0.129419 -0.026572 -0.033334 -0.027970 -0.077511 -0.175338 0.045903 -0.078893 0.069306 0.009177 0.016191 -0.039926 0.070870 0.121211 -0.016063 0.137764 -0.022469 0.187095 0.027174 -0.073946 0.017394 0.073354 -0.051566 -0.067640 -0.017667 0.175489 0.032167 -0.011383 -0.044367 -0.007589 0.014301 0.092715 0.007429 -0.149743 -0.140483 0.102563 -0.283248 -0.027635 0.014731 -0.073375 -0.027531 -0.001220 -0.022724 0.052865 -0.101436 0.007674 -0.120478 0.045994 0.196782 0.034988 0.035306 -0.086533 -0.133498 0.043068 0.208365 0.042657 0.113901 -0.122872 -0.115272 -0.027046 -0.044066 -0.068950 0.008073 -0.104768 -0.098720 0.069954 0.005756 0.068201 0.044660 -0.024623 -0.112936 0.053815 -0.165873 0.019469 0.018400 0.166870 0.075680 -0.018880 0.016846 0.083225 0.035730 -0.104607 0.007516 -0.050682 -0.059564 0.097962 -0.008411 -0.068390 -0.007320 0.053706 -0.018977 0.027819 -0.168990 0.090482 -0.352979
really -0.021645 0.052747 0.116219 -0.198488 0.028724 -0.163927 -0.136776 0.114962 0.033283 -0.017298 0.072312 -0.034621 -0.143595 0.004363 0.004167 0.104053 -0.084637 0.194876 0.109449 -0.022056 -0.032098 -0.016917 -0.137891 0.124120 0.060172 0.096115 0.097451 -0.063822 0.143253 0.087661 -0.209850 -0.093561 0.202383 0.164573 0.053766 -0.115806 -0.028753 -0.196772 -0.040144 0.141214 -0.090415 -0.047068 0.052364 0.158585 -0.068344 0.060615 0.053149 0.085421 0.166039 -0.098396 0.078770 0.006676 -0.108922 -0.019510 0.025391 -0.109664 -0.057884 -0.009061 -0.227309 -0.086222 0.009002 -0.137889 -0.164973 0.091517 -0.128497 -0.123208 0.062127 0.005758 -0.031389 0.104937 0.035405 -0.009536 0.169638 -0.174375 0.066972 0.097020 0.064871 0.086198 -0.086870 -0.192654 -0.189884 -0.066857 0.175402 -0.067119 -0.016468 0.010082 -0.104019 -0.103132 -0.017819 0.034939 0.082891 0.013579 -0.129428 0.031100 0.141533 -0.013150 0.173162 -0.087995 0.261160 0.070144
quite -0.113420 0.022419 -0.070615 0.132755 0.111997 0.004393 -0.060242 -0.130593 0.118684 0.069287 -0.058108 0.134283 0.060072 0.171970 -0.015488 -0.004032 -0.036679 0.096500 0.220757 0.075836 0.022785 0.190404 -0.025733 0.093069 0.035090 -0.016509 0.231106 0.130146 0.079837 0.016070 0.109961 0.069033 -0.077085 -0.082489 -0.022637 -0.099429 -0.016117 -0.121813 0.051109 0.125126 -0.120794 0.018433 -0.004435 0.034187 0.151732 0.115056 -0.062637 -0.049735 -0.053414 -0.079038 -0.074245 0.122615 0.011321 0.111199 -0.106352 0.091814 -0.131165 -0.136212 0.147028 -0.126480 0.021969 0.028262 -0.037962 0.030885 -0.017114 0.079167 0.035355 -0.065533 -0.049429 -0.063787 0.158812 0.054874 -0.003195 0.004611 -0.099675 -0.004460 -0.176562 -0.079998 -0.083152 -0.029180 0.111925 0.064164 0.127109 -0.062422 -0.095058 -0.014948 -0.100731 -0.022061 0.007145 0.063897 0.067704 0.024586 -0.080178 -0.134148 0.178779 0.002975 0.071996 -0.080381 -0.033859 -0.000961
extremely 0.038182 -0.178107 0.090255 0.160677 0.054135 0.093051 0.031419 -0.053841 -0.138039 0.108056 0.134272 0.086182 -0.046421 -0.072889 0.021316 0.164889 -0.188952 -0.064473 0.074745 0.051931 -0.088563 0.159393 0.076837 0.078298 -0.192990 -0.073154 0.065783 -0.119582 -0.221371 -0.150865 -0.106956 -0.030098 -0.113278 0.008138 -0.012793 -0.101313 0.168640 -0.152897 0.039597 -0.006849 0.154000 -0.026125 -0.037091 -0.073430 0.088053 -0.143658 -0.020447 -0.021219 -0.051316 0.036428 -0.023042 0.001148 -0.072530 -0.040271 0.088116 -0.097326 -0.126233 0.106703 -0.051277 -0.019960 -0.089787 0.047336 -0.144527 0.112473 -0.163456 0.009979 0.186558 -0.008633 0.124119 0.054974 -0.016647 0.009079 -0.144920 0.167260 0.093108 -0.066814 -0.009970 -0.140848 -0.010054 -0.076316 0.065779 0.056099 -0.197670 0.129680 0.000258 0.015839 -0.095342 0.066519 0.199693 -0.025485 -0.027696 -0.087610 0.006265 0.008245 -0.079236 -0.054171 0.062234 -0.033020 0.152484 -0.138427
totally 0.040355 0.067122 -0.060751 -0.051202 -0.013591 0.156232 -0.045704 -0.060287 0.062849 0.043011 0.110822 -0.046618 -0.055115 0.126332 0.032059 -0.027773 0.112113 -0.053414 0.052634 0.126257 -0.142253 0.081435 -0.107581 0.331305 -0.084395 -0.170245 0.048407 -0.099933 0.092127 0.006795 0.017147 -0.076626 0.153829 -0.085807 -0.066731 -0.102186 -0.043026 0.141378 -0.128158 -0.017997 -0.094670 -0.001967 -0.003919 -0.107795 0.024080 0.019513 -0.090045 0.030676 -0.039636 -0.034184 -0.178281 0.015309 0.004484 -0.166719 -0.103977 0.057020 -0.068043 0.163561 -0.011961 -0.024304 0.038099 0.076950 0.143268 0.030810 0.046532 0.041318 0.021970 -0.122447 -0.171687 0.035698 0.060988 0.098372 0.004406 0.093953 0.044550 -0.173268 0.028087 -0.044326 0.008567 -0.043644 0.011940 0.023200 -0.169799 -0.011856 0.074238 -0.016757 0.138177 0.004441 0.023315 0.181320 0.114007 -0.077495 -0.203705 -0.031647 -0.138816 0.182814 0.042916 -0.058691 0.047826 0.121020
absolutely 0.205778 0.078557 0.064649 0.210176 -0.023247 0.242447 -0.030961 -0.192441 0.081861 0.042143 -0.190362 -0.037659 0.035894 -0.035125 0.039416 0.086671 0.018363 0.038448 -0.037591 0.085371 0.181149 0.060666 0.109345 -0.158795 0.007089 -0.052838 -0.030574 -0.053070 -0.007807 0.009321 0.048565 0.147494 0.025129 -0.088916 -0.163709 0.013090 -0.026945 -0.069605 -0.010632 0.112748 -0.021271 -0.132553 0.108234 -0.047496 0.002599 0.026980 -0.144195 -0.148225 0.143378 0.068570 -0.067583 0.028008 0.087211 0.044214 -0.052456 0.036426 -0.118636 -0.111707 -0.007506 -0.063889 0.195080 -0.065842 -0.103819 0.137937 -0.093229 0.047493 0.052333 -0.112319 -0.071404 -0.028600 0.036871 0.229734 -0.067767 0.040185 -0.004062 -0.153416 -0.249026 -0.044878 -0.023587 -0.018344 -0.141196 -0.012865 0.013627 -0.108099 -0.070329 0.029346 -0.145888 -0.135219 -0.054830 -0.106916 0.163160 -0.036002 -0.015972 0.139800 -0.020499 -0.176326 -0.030360 -0.010824 -0.136989 -0.008752
never 0.031223 0.134314 -0.068168 0.042480 0.088894 -0.064843 0.012272 0.042183 0.026566 -0.016406 0.021544 -0.179096 -0.004124 0.298792 -0.093556 -0.207586 -0.048439 0.061534 0.008289 0.036221 -0.067552 -0.172766 0.063930 -0.108093 -0.004460 0.113870 -0.118241 -0.099831 -0.093011 -0.090803 0.055275 -0.204611 -0.034880 -0.043345 0.030413 -0.063123 0.145355 0.000778 0.113684 0.149057 0.075094 -0.007240 -0.110329 -0.203524 -0.247246 -0.223452 0.000819 -0.025622 0.234562 0.163547 -0.019959 0.140938 0.164531 -0.015566 -0.016367 0.200288 -0.107133 -0.009843 0.027743 0.152533 0.035512 0.028949 -0.062960 0.071737 0.061464 -0.032522 -0.034795 0.019451 0.012115 0.228599 -0.030013 0.131886 -0.000276 0.096910 -0.004935 -0.003210 -0.045122 -0.026763 -0.034397 0.059318 -0.099322 0.145564 -0.113833 -0.162285 0.052368 0.191655 -0.107027 0.177663 -0.078381 0.110644 -0.046243 -0.056645 -0.098401 -0.030318 0.015484 -0.006746 -0.081604 -0.024907 -0.119041 0.031957
always 0.135717 0.107455 0.027442 -0.072333 -0.056743 -0.150689 0.140926 0.024514 0.081873 -0.053042 0.113639 0.050851 -0.013417 0.234574 0.134824 0.177982 -0.014965 -0.247452 -0.081905 -0.100804 0.069280 0.030075 0.104751 -0.206001 0.084475 0.061935 0.146114 0.074968 0.105121 -0.043642 -0.078142 0.079418 0.054791 -0.044189 0.115505 0.060211 0.069542 -0.092823 0.082199 0.078265 0.044424 0.122867 0.013547 -0.164810 -0.022362 -0.119635 -0.047755 -0.055944 0.005812 -0.047412 -0.052516 0.054927 0.018338 0.082530 0.124541 -0.111533 0.054069 -0.037525 -0.059054 -0.007970 -0.086964 0.077405 0.103975 -0.032194 -0.106370 0.026716 -0.041418 -0.095500 -0.071443 0.045269 0.048146 -0.002721 0.050934 0.040097 -0.034102 -0.148017 -0.099641 0.095344 -0.085189 0.072828 -0.027044 -0.002027 -0.045230 -0.044255 0.104871 0.195896 -0.088547 -0.016324 -0.007295 0.075263 0.046447 -0.077007 -0.109809 -0.022734 -0.057354 -0.025382 0.064250 0.092383 0.071345 -0.247658
sometimes -0.014544 0.213671 -0.178368 0.090385 0.124138 0.124880 0.149006 0.002580 0.049640 0.064004 -0.096760 -0.074572 0.122786 0.006024 0.076222 0.023864 0.062707 0.078683 0.089785 0.022346 0.006231 -0.113051 0.001410 -0.074356 -0.101332 0.236921 -0.066452 0.089549 -0.047211 0.124306 -0.080276 -0.029778 -0.008061 0.017995 0.214974 0.000751 0.176003 0.010312 -0.049791 -0.005705 0.063854 -0.106714 0.112162 -0.020934 -0.058167 -0.171043 -0.071163 -0.082832 0.102734 0.042829 0.148589 -0.137054 -0.103782 0.085681 0.134215 -0.237351 -0.167899 0.014193 -0.005888 -0.022632 -0.030497 0.137170 0.067516 0.119238 0.126115 -0.116177 0.100332 -0.235266 -0.017997 -0.095821 0.058493 0.235045 -0.011825 0.056403 -0.069509 0.259089 0.157554 -0.002944 -0.026915 -0.008818 -0.152478 0.121094 -0.052697 0.076176 -0.054598 -0.052967 -0.091158 0.107448 -0.038503 0.096398 -0.126320 0.033652 0.256507 -0.169265 -0.178610 -0.074267 -0.103980 -0.124649 0.016334 0.050957
often -0.038937 0.056309 -0.022552 -0.130514 -0.203683 0.090798 -0.005798 0.120143 0.088523 0.045214 -0.022968 -0.137299 -0.013173 0.041074 -0.030328 0.185133 -0.204321 0.111238 -0.003514 -0.009941 0.302869 -0.093412 -0.006157 0.075015 -0.168486 -0.078367 -0.128312 0.135655 0.039314 0.214481 0.114295 -0.008959 -0.286955 0.028608 -0.175716 0.080738 0.092448 -0.024182 -0.084208 0.035893 0.132014 -0.098403 0.083886 0.152471 -0.118411 0.057188 0.020210 0.057402 -0.058056 0.000146 -0.101533 -0.074088 0.027066 -0.066668 0.044756 0.072364 0.125798 0.119818 -0.036917 0.057836 -0.128282 0.151820 0.223130 -0.058990 0.038418 -0.158023 -0.097468 -0.090271 0.235054 0.094830 0.099237 0.013740 0.041620 -0.089841 0.301551 -0.002383 -0.146367 -0.053449 0.036261 -0.139230 0.055297 -0.116009 0.084646 0.096604 0.111680 0.075271 0.059178 -0.162422 0.139521 -0.034130 0.101788 -0.008961 0.089231 0.090446 -0.105350 0.042120 0.091187 0.012202 0.023516 -0.013244
rarely 0.182078 0.099898 -0.000454 0.059929 0.040428 0.040033 0.082065 -0.052113 0.062473 -0.123832 0.002829 -0.001696 0.096653 -0.054073 -0.132834 -0.038716 0.039314 -0.077337 -0.095383 0.063202 -0.116559 0.062834 0.162877 -0.255736 0.098374 0.005403 0.038581 -0.083092 -0.146457 -0.048593 -0.097986 -0.031017 -0.166289 -0.154790 -0.047798 -0.114214 -0.028300 0.117893 0.038989 0.011094 -0.143713 -0.076239 0.060143 -0.078621 0.057608 0.019902 -0.002507 0.005050 0.028596 -0.132071 -0.003686 -0.017955 -0.028557 0.285854 0.039207 -0.010187 -0.199843 0.157104 -0.053022 0.002115 -0.099050 -0.158590 -0.067926 0.106828 -0.108341 0.077045 -0.132854 0.054317 -0.057144 -0.190086 0.141168 -0.148456 0.071659 -0.004822 -0.006976 0.101008 -0.086464 -0.190269 0.038438 0.000702 -0.127803 0.048670 0.209657 0.114050 0.130761 0.066349 -0.082070 -0.018033 0.068355 -0.037614 -0.080505 0.118840 -0.056025 -0.093199 0.101493 0.007281 0.023148 0.263325 -0.015792 -0.129677
definitely 0.197029 -0.046944 -0.028584 0.028406 0.065091 -0.009530 -0.132169 0.033073 -0.051133 -0.001025 -0.110195 0.034799 0.065255 -0.026311 0.011586 -0.099167 -0.072131 -0.112625 -0.058051 0.054298 -0.018028 -0.036869 0.153276 0.066975 -0.072264 0.168463 -0.061541 -0.136556 0.138735 0.039104 0.070940 0.072444 -0.166046 0.018932 -0.192457 0.210343 0.109533 0.052256 -0.040081 0.030335 0.020607 -0.114781 0.045165 -0.019729 0.019930 -0.115484 0.066634 0.010612 -0.101302 0.110990 0.047960 -0.049564 -0.019867 -0.228378 -0.045721 0.128159 0.136518 -0.075123 0.143814 0.075154 -0.121283 0.000501 0.022078 0.001682 0.046371 -0.055260 -0.076933 0.101831 -0.022139 0.048967 0.008851 0.003492 -0.135286 0.063224 0.002189 0.002530 -0.085249 0.064439 0.009651 0.209722 -0.086172 -0.088577 0.106140 -0.147237 0.058241 0.034926 0.207350 0.088455 -0.081035 0.037121 -0.170005 0.035115 -0.037755 0.029426 0.074129 0.141023 0.151249 -0.097283 -0.026915 0.176773
probably -0.082478 0.153213 0.016667 0.012528 -0.059952 -0.019220 -0.161502 -0.070369 -0.080948 -0.116052 0.084278 -0.134316 -0.020285 -0.112758 -0.044279 0.010322 0.118293 -0.024284 -0.168195 -0.048268 -0.048420 -0.054520 -0.153355 0.066435 0.008924 -0.200298 0.022402 -0.070229 0.075946 -0.057143 0.007630 -0.016532 -0.043080 0.047492 -0.052020 -0.144175 -0.168377 -0.090108 -0.097418 0.062123 0.104319 0.075561 0.088161 -0.047800 0.050979 -0.097636 -0.232255 0.066610 0.127022 0.046834 -0.034026 -0.077987 0.117889 0.027852 -0.220506 -0.104880 -0.065742 -0.187923 0.102463 0.033271 0.056956 -0.008964 0.229052 0.011585 -0.090457 -0.117770 -0.075116 0.234302 0.030795 -0.004928 0.255267 -0.059804 0.019560 -0.061447 0.040645 -0.126480 0.298967 0.072576 -0.015479 -0.032987 0.007696 0.005246 0.092843 -0.034655 -0.007826 0.003536 0.003415 0.164888 -0.054979 0.097214 -0.049785 -0.119167 0.075020 0.041852 0.172363 -0.005586 -0.111953 -0.025111 0.007656 0.239855
maybe -0.134538 0.007983 0.047315 0.111274 0.164828 0.093125 -0.038203 0.207856 -0.024642 -0.074888 0.071061 0.027473 -0.172729 0.060118 0.139501 0.156559 -0.138936 0.028097 0.092308 -0.107103 0.050323 0.053004 -0.005098 0.002841 -0.010104 -0.014203 -0.066048 0.072046 -0.009962 0.035921 -0.034343 -0.011640 -0.098329 0.121429 -0.042314 -0.040716 -0.054651 0.029582 -0.210453 0.004424 -0.104072 -0.046719 0.079840 -0.012385 -0.093862 0.035749 0.099301 0.144358 -0.055684 -0.064774 -0.041119 0.056836 -0.011649 -0.212081 -0.120119 0.112999 -0.085748 -0.052252 -0.002595 0.019152 -0.114907 -0.040272 -0.177159 -0.122301 -0.081713 0.056864 0.073813 0.004662 0.004659 0.214837 0.083330 -0.020573 0.127092 -0.139992 -0.096942 -0.160730 0.087331 -0.028512 0.109973 0.030433 -0.171472 0.053254 -0.136384 0.043026 0.059303 -0.200414 -0.147233 -0.098134 -0.118240 -0.033678 -0.126684 -0.127526 -0.051125 -0.038968 -0.117965 0.003371 -0.007376 -0.096327 0.032980 -0.009277
