the 0.055669 0.074663 0.019136 0.053026 -0.141323 0.031601 -0.003194 -0.049123 0.043841 -0.104542 0.072617 -0.142415 0.141702 0.054334 0.125204 -0.040232 -0.060901 0.161214 0.060728 -0.140014 0.068813 0.016621 -0.170205 0.167855 0.061892 -0.148872 -0.071967 -0.042349 0.183070 0.233411 -0.045418 -0.084308 -0.038918 0.022133 0.126051 -0.016318 0.037087 0.150237 0.007510 -0.002087 -0.182608 0.160179 0.022516 -0.107182 0.040431 0.201418 0.130915 -0.014513 -0.024113 -0.076356
a 0.033455 0.228389 -0.078352 0.030950 -0.020154 0.189635 -0.108539 -0.064531 -0.019345 -0.008154 0.169837 0.053918 0.064395 0.046864 -0.008395 -0.126878 -0.002871 0.116458 -0.140590 -0.114895 -0.116612 0.106218 -0.079790 -0.057876 0.084048 -0.056022 0.171862 -0.128512 -0.101516 0.060745 -0.181926 -0.140877 0.053172 0.042718 0.044529 -0.048510 0.051206 0.085189 0.025288 0.135138 0.045678 -0.031248 -0.070235 0.027482 -0.009573 -0.049006 0.076154 0.075719 0.041833 0.002075
an -0.009338 -0.098637 0.080433 -0.159618 -0.034579 -0.081114 0.036126 -0.051178 0.174368 0.226066 0.075849 -0.140362 0.077575 -0.001289 -0.004539 -0.019980 0.155163 -0.025374 0.028298 -0.050162 0.023611 0.062059 -0.144486 0.062189 -0.148713 0.219491 -0.077553 0.042733 -0.013903 -0.132374 0.043310 0.042500 0.105448 -0.104874 -0.092747 0.082253 -0.094654 0.001820 0.022516 -0.116558 0.101997 -0.068407 -0.044464 0.025493 0.065874 -0.047464 -0.162369 -0.031052 0.214911 -0.121148
and 0.032048 0.004477 -0.028513 0.033022 -0.099282 0.086474 -0.028346 0.135166 0.055737 -0.119912 0.065534 0.029307 -0.052824 0.072864 -0.068907 -0.208327 -0.114672 -0.078340 0.060900 -0.016132 0.089532 0.038234 -0.005608 -0.017292 0.012403 -0.114056 -0.145536 0.129523 0.071316 0.044669 -0.042312 0.070555 -0.043663 0.000633 -0.077477 -0.158783 0.001666 -0.001074 0.063761 -0.035727 -0.090736 0.139359 0.203628 0.016667 0.017649 -0.156087 0.057065 -0.124342 0.086617 0.059755
or -0.084901 0.013526 -0.010967 -0.153095 -0.029348 -0.027283 -0.048969 -0.124547 -0.074808 0.005877 -0.162341 0.102265 0.039236 0.053160 0.016738 -0.056640 0.121766 -0.004414 -0.124758 -0.014505 -0.155138 -0.123153 -0.021070 0.079843 0.027338 0.039287 0.014582 -0.037051 0.065685 0.227602 0.035195 0.112077 -0.000271 0.056499 0.027950 -0.198647 -0.141235 -0.018020 0.011601 -0.000386 -0.152149 -0.085553 -0.104770 -0.157113 0.004701 0.024608 -0.018562 0.123547 -0.028921 -0.084723
but -0.001662 -0.164575 -0.010167 -0.178090 0.157558 0.037592 -0.049468 -0.068050 -0.199961 0.089363 -0.059039 0.110369 0.095674 0.010575 0.098446 0.009931 -0.010842 -0.016210 0.012509 -0.004533 -0.183447 0.086546 0.074979 -0.115168 0.012230 0.069414 -0.037145 0.053497 0.056116 0.049811 0.033988 -0.022373 -0.274557 0.118160 0.112095 0.088886 0.059095 0.011073 -0.018900 0.063915 0.092371 0.132619 0.145063 0.028670 0.086210 -0.099970 -0.079313 -0.023914 -0.127794 -0.114321
in -0.155167 0.213664 -0.132138 0.133018 -0.018752 0.120947 -0.030369 0.012542 -0.037627 -0.070016 -0.082950 -0.147667 0.119629 -0.134454 -0.052287 0.056731 -0.077999 0.102712 -0.034571 0.004499 0.153728 0.154715 0.196343 -0.000922 0.040580 0.011180 0.013899 -0.134262 -0.099613 -0.114046 -0.051149 -0.150301 0.197229 -0.243793 0.113985 0.150651 0.070366 -0.066956 -0.000592 0.022437 0.276352 0.202521 -0.008679 -0.031381 0.027118 0.106023 0.000952 0.001792 -0.000434 -0.033240
on -0.030493 0.009055 -0.054065 -0.144251 0.134251 -0.048963 -0.024700 -0.111663 0.035607 -0.044978 0.122868 0.084281 0.026517 0.110625 0.111108 0.088723 -0.083497 -0.062578 0.155161 0.092405 0.021310 -0.040471 0.032014 -0.020778 0.036087 0.002943 0.123527 0.167114 -0.105283 -0.035124 0.033879 0.095540 -0.055780 0.109591 0.241104 0.192080 -0.125933 -0.105668 -0.378530 -0.036259 -0.085341 0.069048 -0.084232 0.007491 0.207007 -0.051874 -0.007744 0.180277 0.020591 -0.102572
at -0.226835 -0.160544 0.110804 -0.083778 -0.146134 -0.029314 0.122492 0.112345 -0.041460 -0.057664 0.015382 -0.037745 -0.062436 -0.027386 -0.008405 0.040577 0.007024 -0.291186 -0.031932 0.085154 0.232240 0.018639 0.060446 0.013063 -0.199710 -0.141104 -0.050595 0.177134 0.129102 0.084792 0.095149 0.073946 0.081723 -0.008796 -0.021894 0.031864 0.058352 0.136987 -0.010011 -0.029138 0.016364 0.013704 0.243228 -0.125190 0.108315 -0.027942 -0.112648 0.016180 -0.100035 0.261317
to 0.018356 0.124468 0.296038 0.062159 -0.024141 0.056097 -0.091094 -0.081580 -0.040306 -0.039586 -0.197693 -0.087074 0.076840 0.045527 0.006202 -0.088793 -0.252002 -0.001108 0.108891 -0.045339 0.117790 -0.046754 -0.126911 -0.036379 0.082893 0.194627 0.011281 -0.041340 -0.081680 -0.130399 0.113257 0.026734 0.065010 0.047538 -0.064043 -0.066256 -0.110827 0.074934 0.025824 -0.101940 0.019100 -0.088853 0.035734 0.015271 -0.043530 -0.012986 0.089225 -0.015648 -0.040717 0.001650
for 0.023397 -0.040272 0.100204 0.197049 0.008884 0.036520 -0.068908 0.061663 -0.161004 -0.000974 0.138546 0.104997 -0.032469 -0.057818 0.020415 -0.197470 -0.061587 0.039499 -0.105014 -0.009071 -0.108590 0.034432 -0.067951 -0.106818 -0.094562 -0.092170 -0.025509 0.083406 0.219893 0.072893 -0.028759 -0.030269 -0.011652 -0.062855 -0.074398 -0.080655 -0.042206 0.110495 -0.088257 0.037291 0.010330 0.116318 0.030211 0.055640 -0.063000 -0.043118 0.051596 -0.130606 0.033247 0.286074
of 0.146561 -0.042388 -0.202000 -0.184162 0.194834 0.168508 0.052354 0.062922 -0.112317 0.022599 0.015237 -0.216895 0.129925 0.102694 0.005406 -0.031525 0.002849 -0.049695 0.006559 0.237910 0.116436 0.016606 -0.024944 -0.188889 0.136207 0.122263 -0.017854 -0.076299 -0.079799 -0.060613 0.082851 0.141661 0.078458 0.017412 0.225416 -0.120396 -0.040340 -0.048617 0.072201 0.077533 0.043949 -0.105800 -0.007449 0.106526 -0.087742 0.136748 0.011637 0.068617 -0.047522 -0.220867
with -0.033634 0.113337 -0.091104 0.010969 -0.053585 -0.019110 -0.183765 -0.091116 0.098515 0.055853 -0.160851 -0.147956 -0.021351 0.058111 -0.111848 -0.041475 0.245700 0.179875 0.096647 0.121644 -0.110813 0.078562 -0.095705 0.034170 -0.039818 0.090447 -0.044308 -0.015236 -0.124818 0.057504 0.004049 -0.146288 0.035539 0.056627 0.231777 -0.077080 -0.246747 0.028828 -0.009122 -0.005493 0.053339 0.112439 -0.063355 0.125896 -0.163562 0.137387 -0.070859 -0.019777 0.158445 0.093170
by -0.041597 0.179682 0.060806 -0.119642 0.123718 0.066395 0.003827 -0.131226 -0.003401 -0.018533 -0.032934 0.022735 -0.007447 -0.115581 0.049305 0.030594 -0.003167 0.107465 -0.016416 0.112807 -0.003878 0.039689 -0.041595 0.120397 0.116794 -0.044115 0.088391 0.029929 -0.152045 -0.056446 0.048298 0.070660 0.066306 -0.011601 0.102665 0.046059 0.085205 -0.091705 -0.052708 0.096238 -0.088053 -0.062108 0.087451 -0.156204 -0.058905 -0.070484 0.170612 -0.128407 0.121374 0.081230
good -0.103929 0.015416 -0.004682 -0.048001 -0.151527 0.160914 -0.012745 0.094372 0.154486 -0.083110 0.072588 0.053659 0.025815 -0.055853 0.086102 -0.164564 -0.120817 0.211396 -0.015314 -0.072958 0.006844 0.012854 0.017964 0.092439 -0.169153 -0.087873 0.000592 0.127632 -0.150772 0.138252 0.034819 -0.022846 -0.057669 0.018500 0.061376 0.019577 0.009690 0.147042 -0.004888 -0.052907 -0.145697 -0.026724 0.121505 0.075222 0.063508 0.085395 0.079381 0.018665 0.100830 -0.209945
bad -0.138452 0.067158 -0.076113 -0.019138 -0.113589 0.096671 -0.022789 0.092886 -0.077538 0.050982 0.121790 0.031453 0.042594 0.076193 -0.037251 0.085476 -0.014429 -0.017160 0.189474 0.121178 -0.319501 -0.095381 0.094027 0.051852 -0.016440 0.148382 0.036866 -0.227119 -0.145717 0.049845 0.119762 -0.065272 0.079965 -0.034524 -0.042618 0.098619 -0.134451 0.117286 0.036359 0.057560 -0.120373 0.000627 0.123983 -0.221750 0.109808 0.037396 -0.085636 -0.210400 -0.008108 -0.072171
great -0.185981 -0.191193 -0.056474 -0.058560 0.299474 -0.190737 -0.058141 -0.090575 0.013720 0.065977 -0.291440 0.028620 -0.034829 0.065129 0.003343 0.089894 0.097760 -0.190140 0.082828 -0.058772 -0.136108 0.041308 -0.021193 -0.062612 -0.158714 -0.020138 -0.094359 -0.210331 0.033879 -0.063276 -0.062719 0.140108 -0.011807 0.015827 -0.095039 -0.003495 0.005503 -0.132467 0.130910 -0.017378 -0.129038 0.178798 0.224324 0.125226 0.103372 0.049510 0.033525 -0.032751 0.040886 0.042456
terrible 0.181954 0.107133 -0.060018 0.189199 0.028371 0.107423 -0.058700 -0.174144 -0.080161 -0.078100 -0.067967 -0.077851 -0.118026 0.069284 -0.012788 -0.092480 -0.002506 0.009628 0.039546 -0.003703 0.137218 0.070063 -0.036145 -0.068733 0.000199 -0.110398 0.116879 -0.023763 0.075847 -0.142116 0.007514 0.066716 -0.093304 -0.052883 -0.105843 0.014994 -0.055237 -0.066325 0.083804 -0.092308 0.060327 0.048993 0.016355 -0.090706 0.018416 -0.107016 0.121863 0.141941 -0.035154 -0.019146
amazing 0.055419 0.027398 0.154708 0.014305 0.038168 -0.025217 -0.007029 0.089995 0.052563 -0.043164 -0.100151 -0.054094 0.113893 -0.079282 -0.025487 -0.033084 -0.273017 -0.077787 -0.055343 -0.051373 -0.137165 -0.045575 -0.062951 -0.069624 -0.038184 -0.181133 -0.111566 -0.126406 -0.078613 0.096319 0.134510 -0.030609 -0.159802 0.027243 0.048501 0.167282 -0.128276 -0.048490 0.190571 0.061598 -0.125305 -0.107630 -0.030570 0.037037 -0.074374 -0.051202 0.035495 -0.083210 0.014852 0.048280
awful 0.135534 0.009903 -0.064643 -0.029211 0.150169 -0.072626 0.178775 0.009491 0.120774 -0.011794 -0.100841 0.121729 0.069809 -0.018955 -0.038765 0.005739 0.115084 0.078760 0.018691 -0.053923 -0.017019 0.028565 0.002964 -0.069884 -0.122671 -0.116090 0.134229 -0.013198 -0.189511 -0.125498 -0.050173 -0.044751 -0.143986 0.070186 -0.023361 0.064568 0.106505 0.073674 -0.031011 0.114292 0.055094 0.171834 -0.040939 -0.022325 -0.011718 0.024588 0.098650 -0.125639 -0.079814 -0.132762
love -0.155352 -0.027533 -0.126318 -0.022062 0.044123 -0.018455 -0.028880 -0.026682 -0.007014 -0.019510 -0.076253 -0.153745 0.041326 0.118661 0.009582 -0.091523 -0.083331 0.050714 0.061959 0.033914 -0.025635 -0.062880 0.018547 -0.142695 0.024348 -0.101044 0.004971 0.006054 0.106378 0.188362 0.084665 0.164450 -0.020660 -0.126202 0.004690 -0.059640 -0.122188 0.109994 -0.053770 -0.072364 0.140716 -0.169502 -0.038101 -0.110793 -0.003402 0.032676 -0.147555 -0.142821 0.027314 -0.188720
hate -0.020206 0.063746 0.197519 -0.075847 0.064300 0.069887 0.047833 0.067341 0.018024 -0.064187 0.119183 0.086020 -0.037431 -0.035258 0.162316 0.094347 -0.206590 -0.123815 0.058720 -0.043593 -0.030750 0.057899 0.069113 0.023994 -0.066450 -0.023691 -0.180691 0.125664 -0.099725 0.046983 -0.024457 -0.015136 -0.180870 0.081416 0.132014 -0.047676 0.041247 -0.002738 0.077010 0.161405 -0.172941 -0.061857 -0.092555 0.164134 0.067723 -0.009961 0.023015 -0.017028 -0.035404 0.174191
like 0.213991 -0.079041 -0.100238 -0.020390 0.070648 -0.218125 -0.095647 0.022326 -0.096972 -0.002692 0.014433 0.092264 -0.023180 -0.032954 0.030308 0.127302 -0.054674 0.011801 0.116074 0.081840 -0.052161 0.087012 0.061809 -0.134941 0.031389 0.215889 0.160893 0.173103 -0.107273 -0.042751 0.097283 -0.092897 -0.047532 -0.034789 0.046105 -0.027788 -0.130485 0.082008 -0.073170 -0.052874 -0.012605 -0.037949 -0.060104 0.087677 0.084395 -0.054399 -0.056977 -0.098138 -0.033449 0.062433
dislike -0.088501 -0.019839 -0.103608 -0.021762 -0.046995 0.095455 0.092256 -0.071511 -0.050056 0.070009 -0.005328 -0.119987 -0.139844 -0.053343 -0.047033 0.102305 0.016371 -0.013817 0.036750 -0.094091 0.220890 0.027878 -0.036410 0.148882 -0.232150 -0.005105 0.105132 -0.001856 0.072082 -0.035869 0.118485 0.034871 0.010373 -0.070412 0.126290 -0.047347 0.037451 -0.087413 -0.011679 -0.044303 0.035138 -0.203939 -0.077434 -0.162150 0.116388 0.073694 0.003618 0.003374 -0.037361 0.021912
happy 0.008003 -0.198475 0.101779 -0.142724 0.154006 0.058812 0.045910 0.062699 0.100128 0.155419 0.101278 0.034173 0.005343 -0.023945 0.026133 0.233242 0.013997 0.021806 -0.018413 -0.094288 0.056818 0.001925 -0.033532 -0.049027 0.016164 -0.099186 0.170845 0.060895 0.151855 0.069540 0.032382 -0.009982 -0.141814 0.041012 0.211656 -0.059136 -0.077903 -0.178770 -0.054958 0.044886 -0.107739 0.030390 0.121506 0.070712 -0.049866 -0.035367 -0.137661 0.146341 -0.024829 -0.090430
sad -0.012999 0.128864 0.061361 -0.059968 0.125792 0.077120 0.052517 -0.166153 0.222021 0.027845 -0.012665 0.011130 0.057052 0.097873 0.097803 0.051443 0.186698 0.157509 0.042961 0.196803 -0.054177 0.171291 -0.000409 0.116614 0.023526 0.201222 -0.014553 -0.044995 0.075678 0.036937 -0.042292 -0.124336 0.017811 0.028087 0.031614 -0.150297 0.088540 0.094615 0.043513 0.169881 0.115366 0.102767 0.094338 -0.006574 0.079277 0.031834 0.130568 0.120031 -0.073350 -0.091902
angry -0.103736 0.014388 0.042399 0.025640 0.056713 0.035721 -0.049082 0.198460 0.178560 -0.103237 0.041661 -0.307809 0.000803 -0.103165 -0.108016 -0.074377 -0.112007 0.065652 0.175491 -0.020033 -0.055658 0.169525 -0.129910 -0.238454 0.105200 -0.161340 -0.022974 0.112419 0.032255 -0.078019 -0.084378 0.098958 0.095298 0.111420 0.029930 0.000394 0.095006 -0.142925 -0.040441 0.034177 0.124656 0.182798 0.013123 -0.030548 0.031730 0.024598 -0.052898 -0.019202 0.099485 0.015600
excited -0.140942 0.015582 0.098596 -0.044017 -0.037830 0.026083 0.111561 0.221586 -0.130437 -0.088877 0.077219 0.115518 0.013466 -0.031775 0.100546 0.020327 -0.023436 0.040602 0.095011 -0.245835 -0.057247 -0.125113 -0.015541 -0.071069 0.025167 0.094280 0.138136 -0.001702 -0.168430 0.106840 -0.042005 0.027510 -0.099640 -0.103093 -0.024915 0.177578 -0.043718 -0.121861 0.106249 -0.036605 -0.139478 -0.089785 -0.138784 -0.082149 -0.072254 -0.123913 -0.134281 -0.010011 -0.079145 -0.187155
disappointed 0.154189 0.043193 -0.007468 0.037191 0.106151 0.008987 -0.218742 -0.027488 -0.102758 -0.130294 -0.084497 -0.009629 -0.226710 -0.009529 0.125507 0.004738 -0.026993 0.038345 0.042699 -0.001330 -0.119948 -0.117726 -0.058683 0.225192 0.040737 -0.093046 0.048847 -0.162730 0.127512 -0.067962 0.147916 0.027802 -0.067795 -0.011704 0.097060 -0.031999 0.097865 -0.020817 0.019791 -0.024822 0.205587 -0.017355 -0.045945 0.171395 -0.008394 0.029276 -0.058353 0.057216 0.250768 0.093795
satisfied -0.077138 0.124659 0.089470 -0.055674 -0.257872 -0.123806 -0.066809 0.076381 0.061151 -0.006645 -0.181453 -0.001086 0.027315 0.022806 0.079926 0.160221 0.022637 -0.078421 0.052333 0.047927 -0.029688 -0.059448 -0.011173 0.188295 -0.036659 0.042395 0.023830 -0.141751 -0.071901 -0.085499 0.022803 -0.050758 0.014744 -0.003914 -0.138535 0.025583 0.039478 -0.001109 -0.136310 0.117714 -0.132109 -0.150432 0.068784 0.140104 -0.008986 0.107916 -0.040681 0.122757 0.136780 0.037508
pleased -0.072998 -0.047657 0.085968 -0.049102 0.015286 0.017444 -0.061302 -0.108804 -0.090449 0.181099 -0.040865 0.051080 -0.060200 -0.145235 0.130945 0.137694 -0.195262 0.079335 0.152077 0.026051 -0.176347 -0.067965 -0.031422 0.130338 0.020395 -0.120790 0.010067 -0.033006 0.132769 -0.063604 0.280845 -0.052568 0.094259 -0.046141 -0.065072 -0.009247 0.044864 -0.096332 -0.076853 -0.071197 -0.097809 0.001774 -0.005103 0.115318 -0.151634 -0.220962 0.125245 -0.090076 0.010654 0.065323
upset -0.138794 -0.000704 -0.177783 0.110131 0.127110 -0.168571 -0.043001 0.042650 -0.014032 -0.062857 0.017192 -0.013501 -0.031139 -0.113051 -0.052359 -0.110294 -0.004891 -0.053062 0.168482 -0.067282 -0.155731 -0.016469 0.051552 0.060611 0.023913 0.035199 -0.053435 0.110405 0.004543 0.074568 0.173366 -0.112540 -0.029537 0.077148 0.073705 -0.049042 -0.030765 0.066359 -0.059004 -0.151922 -0.088719 -0.019384 -0.025598 -0.094660 0.121950 0.026820 -0.008837 -0.148929 0.030640 -0.182280
excellent 0.004517 0.135730 -0.118799 -0.051119 0.036115 0.156163 -0.138186 -0.103982 -0.147112 -0.058160 0.150666 0.049860 0.068497 -0.076880 -0.037002 -0.226423 -0.008799 -0.173980 0.048123 -0.079553 0.013140 0.014321 -0.115714 -0.034149 0.088604 0.113829 -0.162258 -0.201783 0.063668 -0.013726 -0.095690 0.049835 -0.022644 0.033594 -0.113577 0.052781 -0.024041 -0.067928 0.113865 0.159934 0.057528 -0.060838 -0.068041 -0.146867 0.097326 0.104197 -0.100351 -0.011497 0.118834 -0.061846
poor 0.069156 -0.156975 -0.024572 -0.023117 0.017715 0.107308 -0.139866 -0.106337 0.076398 -0.005254 0.150818 0.135933 0.131621 0.087663 -0.044389 -0.011650 -0.092758 -0.038825 -0.004295 -0.108330 0.088701 0.062126 0.044185 -0.049701 0.118970 0.025486 0.097511 0.016244 0.134373 -0.126061 -0.006282 -0.050060 0.061476 -0.058796 -0.073695 -0.031104 -0.093229 -0.049252 0.059529 0.068817 0.094961 -0.006380 -0.109154 -0.143775 0.169110 0.043029 0.008088 0.092922 -0.077931 0.044337
fantastic -0.042154 0.056857 0.001833 0.031297 -0.181494 -0.100755 0.167398 -0.046257 -0.018676 -0.069399 -0.124154 -0.020733 0.185183 0.046075 0.007927 -0.085818 0.031045 0.089712 -0.053348 -0.066765 -0.020535 0.199775 0.085319 -0.182842 -0.130006 -0.099854 -0.012859 -0.187961 -0.203521 -0.196872 0.044560 -0.052114 -0.216597 0.080317 0.000531 -0.131274 -0.122684 0.108562 0.166373 -0.070398 -0.060679 -0.221972 0.038317 0.055970 0.024160 0.042205 -0.175403 -0.000002 0.008117 0.044253
horrible -0.155667 -0.050815 0.037215 -0.002261 0.047300 -0.087989 -0.013403 0.043965 0.153158 -0.023437 0.049937 -0.035229 -0.069651 -0.070500 -0.021481 0.028081 0.104797 0.063148 -0.003162 -0.030304 -0.111086 -0.076874 -0.028780 -0.040155 -0.127481 -0.224547 -0.026162 0.007111 -0.077898 0.198345 0.128810 0.114988 -0.021108 0.016941 0.044672 0.107994 0.028985 -0.047493 -0.001987 0.155055 -0.059672 0.159858 -0.055921 -0.180995 -0.064763 0.089361 -0.003343 -0.098326 -0.102847 0.140201
wonderful 0.099030 0.035074 -0.003497 -0.041544 -0.083106 0.100486 0.009705 -0.066732 0.044815 -0.036401 0.019503 -0.027142 -0.086184 -0.080803 0.030685 -0.085889 0.036011 -0.006147 -0.115720 -0.077092 -0.175810 0.064234 0.044928 -0.008716 0.083340 0.029383 0.011737 0.108013 0.080519 0.032932 -0.045044 -0.117266 0.065202 0.101180 0.137490 0.171347 0.134233 -0.083569 -0.049219 0.105709 -0.013269 -0.126741 -0.109693 0.071302 -0.148279 -0.016974 -0.029926 0.017810 -0.066772 -0.127764
worst -0.152940 0.045961 -0.113986 -0.141926 -0.005675 -0.050709 0.292839 -0.005013 -0.021575 -0.074985 -0.005495 0.183192 -0.033946 -0.101803 0.206590 0.030445 -0.123485 0.091960 -0.080319 -0.001394 0.199857 -0.033463 -0.017753 0.205470 -0.159650 -0.042620 0.057214 0.046127 -0.071619 -0.093475 -0.115348 -0.174740 0.010274 0.227444 -0.060788 -0.084014 -0.202245 -0.074663 0.086947 -0.048536 0.064847 -0.136638 0.108191 0.157972 0.018705 -0.047263 0.016778 0.107757 0.004127 -0.196974
best 0.037008 0.001128 -0.099889 -0.161382 0.137706 -0.094651 -0.030727 -0.008945 -0.049175 -0.256762 -0.014819 -0.215464 -0.036986 -0.149753 0.006820 0.040479 0.339974 -0.155408 -0.189752 -0.206479 0.145872 -0.079548 -0.076244 0.106697 -0.022686 -0.001788 -0.121135 -0.052376 -0.012091 0.047573 -0.024206 -0.087441 -0.027212 -0.037851 0.128681 0.129792 -0.117972 -0.034233 -0.102674 -0.063354 -0.159816 -0.058945 -0.010074 0.147548 0.149446 0.156726 0.164367 0.011019 0.083148 0.074553
nice -0.093186 -0.108656 0.032148 -0.086369 -0.050600 0.017735 0.032575 0.035406 -0.083303 0.080688 -0.072618 0.151736 0.009783 0.089795 -0.013678 0.056051 0.083367 0.084412 0.061617 0.045180 -0.100179 -0.053384 -0.070376 -0.098846 -0.012187 0.005807 0.138446 0.053076 0.110738 0.110819 -0.106282 0.012725 0.115311 0.090675 0.095190 0.020174 0.018174 0.045701 0.239300 -0.048378 0.067815 -0.013564 0.098519 0.007539 0.074506 0.002934 -0.009143 -0.086625 -0.003133 -0.001438
not -0.012642 0.109120 -0.126188 -0.126895 -0.030302 0.031041 0.038878 -0.184456 -0.026003 0.020616 -0.142252 0.056638 0.029089 -0.073847 0.195964 -0.130695 0.066190 0.092673 -0.297121 0.033373 -0.101315 0.184879 -0.039319 0.071957 0.014436 -0.060339 0.189372 -0.149465 0.028298 0.011506 -0.014226 -0.042993 -0.068422 0.205579 -0.137937 -0.107721 -0.155811 -0.057184 -0.031907 0.120208 -0.039219 0.049866 -0.016418 0.163963 -0.094031 -0.007539 -0.078168 0.130588 -0.009175 -0.086454
very 0.016045 0.110328 0.001723 -0.115567 -0.009726 0.173081 -0.040650 0.107734 -0.085968 0.112331 0.097030 -0.031916 -0.110026 0.011639 -0.060872 -0.096414 0.008386 0.052209 0.092637 0.021338 0.098805 0.063257 0.183020 -0.117068 -0.064609 0.104809 0.054210 -0.049971 -0.141904 0.038068 -0.107505 -0.031557 -0.064910 -0.014205 -0.102261 0.078452 -0.132332 -0.212014 -0.250855 -0.047115 0.001337 -0.044072 0.043931 -0.020776 -0.018970 0.004737 0.174827 0.121772 0.033192 0.087454
really 0.009993 -0.167166 -0.069780 0.022473 0.065773 -0.050103 -0.174998 0.313426 -0.086210 -0.127493 -0.084597 0.060451 0.016583 0.118657 -0.040087 -0.109488 0.128512 0.132409 0.228697 0.053753 0.196449 -0.109302 -0.106648 0.107960 -0.021735 0.085308 -0.092347 0.065055 0.034173 0.008395 0.042164 0.086951 -0.020862 0.117373 -0.086744 -0.151183 -0.059289 -0.159188 0.015941 0.027340 0.099840 -0.065589 0.188627 -0.194858 -0.023356 0.029718 -0.024709 0.119786 0.007886 0.047054
quite -0.102985 -0.122158 -0.165922 0.028681 -0.068840 0.154832 0.024571 0.257527 0.045680 -0.101808 -0.067625 -0.067869 0.114981 0.025393 0.070571 0.031924 0.136009 -0.257694 0.102181 -0.001944 -0.080453 -0.042644 0.014402 0.095365 -0.092964 0.043957 0.069148 0.057721 -0.008894 0.031922 -0.053004 0.147984 -0.068395 0.169475 -0.008472 0.131037 -0.043410 0.072862 0.149190 0.021262 0.087106 -0.123032 -0.104924 -0.160827 0.086368 0.001698 0.159244 -0.080163 0.109208 -0.076627
extremely -0.000146 -0.089436 -0.042835 0.050880 0.108655 -0.145617 0.214240 -0.261307 -0.087618 -0.066336 0.098181 0.094746 0.048596 -0.070895 -0.211176 0.125759 -0.127270 0.150415 -0.014759 -0.238600 0.129248 0.046360 0.117171 -0.022001 0.154311 0.148607 0.015986 -0.009296 -0.128854 -0.084377 0.112920 0.082291 -0.012931 -0.123899 -0.100549 0.160563 -0.109439 -0.095628 0.122975 0.074751 0.080380 0.116522 0.126692 0.114233 0.170466 -0.061872 0.056706 0.063382 0.094334 -0.123373
totally 0.149459 0.017942 0.164727 -0.134124 0.078892 0.054193 -0.001446 0.158666 0.175374 0.051355 0.065256 0.161963 0.128330 -0.110456 0.014508 0.121077 0.017448 0.080229 -0.075775 -0.056085 -0.102818 0.121679 -0.099747 0.060807 0.031469 0.118809 0.197500 -0.042647 0.013390 0.138260 0.023558 0.015753 -0.057902 0.018876 -0.020125 0.055199 -0.160311 0.216113 -0.066228 -0.154079 -0.082577 0.128656 0.067628 0.071717 -0.012121 -0.101088 0.012711 -0.156052 -0.116957 0.012687
absolutely -0.027039 0.064755 0.011015 0.012468 -0.155112 -0.142686 0.086216 0.004699 0.042598 -0.046437 0.056230 -0.013322 0.112672 0.035503 0.166275 0.018057 0.067162 -0.031447 -0.115864 -0.006251 0.010698 0.057558 0.024141 -0.031435 0.067083 0.090384 0.074697 0.015493 0.009081 -0.096248 0.102400 -0.062598 0.116105 -0.016538 -0.118109 -0.090932 -0.096017 0.090977 0.079712 0.105557 0.014677 0.017446 -0.080688 -0.107138 0.149581 0.063793 -0.043941 -0.015131 0.032447 0.008415
never 0.009599 -0.114477 -0.067424 0.043863 -0.062308 0.062503 0.079293 -0.139464 -0.186024 -0.140402 -0.018887 0.043648 -0.109283 0.071929 -0.210922 -0.027160 -0.125247 0.074284 0.061077 0.111588 0.083506 -0.004392 0.069658 -0.028460 0.100056 -0.098835 0.024965 -0.065259 0.037321 0.151425 -0.070877 0.011481 0.111688 0.123788 -0.008493 -0.242894 -0.255011 -0.120368 -0.083584 -0.128613 0.114911 0.031448 -0.031903 -0.059717 -0.163418 -0.169283 0.106242 0.031275 0.028520 0.059831
always -0.023791 -0.038982 0.046125 -0.022129 0.090011 0.121305 0.015230 0.088862 -0.045389 0.113536 0.129441 0.105362 0.099046 0.134452 0.053547 -0.031642 -0.052496 0.114757 -0.016054 -0.072944 0.028673 -0.046424 -0.135141 -0.123998 -0.091341 -0.217273 0.019611 -0.102125 0.004600 -0.201106 -0.001056 -0.060699 0.045371 -0.164389 0.027478 -0.115071 -0.325173 -0.075806 -0.142846 0.046292 -0.029752 0.049056 0.059750 -0.128641 -0.030690 0.011147 -0.024404 -0.025383 0.181258 -0.041101
sometimes -0.164531 -0.030598 -0.001789 0.056795 0.047149 -0.053573 0.047101 -0.057409 0.043055 0.063696 -0.109618 0.109195 0.046605 -0.009331 -0.009266 0.257089 0.002244 0.075639 -0.146587 0.097170 0.002936 -0.076346 0.127991 -0.037085 0.248100 -0.101653 0.166804 -0.121168 0.082797 -0.253488 -0.149354 -0.098239 -0.200712 -0.060855 0.075972 -0.048358 -0.013017 -0.067723 -0.108615 0.175039 0.034081 0.010567 -0.120453 0.081063 0.065432 -0.075178 -0.088727 0.175120 -0.073981 0.014666
often -0.106235 -0.016940 0.090693 -0.045809 -0.185849 -0.021274 -0.101416 -0.080475 0.291734 0.204218 -0.094621 -0.110917 0.034386 0.095537 0.080712 0.114863 -0.071315 0.031037 0.016159 -0.051022 -0.049948 0.169716 -0.115711 -0.004519 0.163117 0.050463 -0.044578 0.025322 0.032273 -0.115318 0.042459 -0.101992 0.054400 -0.115298 -0.023243 -0.019598 -0.025811 0.079660 -0.009926 -0.059092 0.240014 0.015750 0.066220 0.024961 -0.038091 0.164577 -0.038868 0.009139 0.091455 0.082354
rarely -0.039529 0.069093 0.049458 0.013745 0.014420 -0.020669 -0.032033 -0.070977 -0.049384 -0.161621 -0.046532 0.009992 0.007714 -0.004921 0.129401 0.126004 0.075108 -0.012934 -0.114717 0.143954 0.104049 0.162237 -0.047215 -0.085810 0.030715 -0.164464 -0.142557 0.163588 -0.037007 0.092706 0.055156 -0.025769 -0.216550 -0.122082 0.058774 0.055076 0.058813 -0.050955 -0.060628 0.190265 -0.068569 -0.013384 -0.031667 0.018579 0.009725 0.010986 0.034994 0.005615 0.007995 0.200403
definitely 0.243312 0.012660 -0.009864 -0.179180 0.062103 0.102466 0.012765 -0.100059 0.094760 -0.189536 -0.130974 -0.083874 0.112934 -0.004896 0.196074 0.053257 0.036927 0.021001 -0.041987 0.033998 0.031239 -0.003512 0.138286 0.140682 0.051805 -0.166844 0.041184 -0.141775 -0.002457 -0.032487 0.212416 0.041275 0.065807 0.021402 -0.232985 -0.077024 -0.042178 0.050110 -0.144394 -0.072370 0.128526 -0.065610 -0.111787 -0.100688 0.068668 0.035087 0.021853 0.103881 -0.167791 -0.006932
probably 0.107050 -0.084024 -0.070301 0.025054 0.002890 0.062753 -0.055306 0.164975 -0.080139 -0.244939 -0.111814 -0.083851 0.231371 0.152755 -0.081190 -0.114130 0.048671 -0.168329 0.027087 -0.070652 0.054901 0.107120 0.074412 0.157479 -0.190496 0.048155 -0.018367 -0.069656 -0.138543 0.025913 -0.163926 -0.065875 0.038317 -0.056064 0.046354 -0.070191 0.086691 0.066936 0.136141 0.156095 0.021771 -0.055362 -0.031713 -0.149444 0.049436 -0.028393 -0.136986 0.063044 0.113686 0.091967
maybe 0.002138 0.090341 0.043549 0.050437 -0.041061 0.260064 0.023918 0.067547 -0.093109 0.052527 0.011466 0.056551 -0.144674 0.095648 -0.013688 0.139987 0.027479 0.018975 0.087081 0.022758 -0.037186 -0.241614 -0.164363 -0.120459 0.001202 0.078060 -0.111915 0.111244 -0.214531 0.000136 -0.078689 0.095784 0.056825 0.219267 0.067040 -0.076119 -0.105944 0.001370 -0.032241 0.129369 0.083011 -0.239845 -0.151656 -0.039235 0.018296 -0.019550 -0.154142 0.073996 -0.156702 -0.007487
