the 0.047237 -0.166380 0.107019 0.052119 0.025074 0.083300 0.046069 0.085149 -0.227975 0.062530 -0.099004 -0.146480 0.294703 0.169436 0.057704 0.065801 -0.055532 -0.106321 0.033938 0.088147 0.046518 -0.179505 -0.044461 -0.011197 0.046915 -0.055923 0.090902 -0.058178 0.008356 -0.035082 -0.006213 -0.008255 -0.049647 -0.101347 0.012491 0.023716 -0.036367 -0.095260 0.010785 -0.010590 -0.086539 0.058837 0.014704 -0.000371 0.021811 0.166710 0.131727 -0.028171 0.050550 -0.050273 0.088778 0.062151 0.124607 0.005359 -0.063421 -0.058602 0.162732 0.048467 0.079223 0.016156 0.047336 -0.121466 -0.020093 -0.035901 -0.205478 0.163845 0.058542 0.195991 -0.086050 -0.081047 -0.025153 -0.053582 0.031557 0.169929 -0.001769 0.100439 0.018345 0.094621 0.090163 -0.331552 -0.017796 -0.016485 0.060022 -0.042065 0.247834 0.029108 -0.172648 0.115822 0.078282 -0.091140 -0.075506 0.043513 0.011593 0.062223 0.123079 0.125910 -0.116316 0.086190 -0.072357 -0.029900
a -0.090863 -0.078529 0.037589 -0.135805 -0.163992 -0.124064 0.075733 0.032168 0.100011 0.060858 0.062672 -0.015384 0.078173 0.035013 0.157251 0.039176 -0.116837 -0.082487 0.072116 0.093666 0.117799 0.000097 -0.102511 0.187349 0.011903 0.143974 0.003601 0.081248 -0.008811 0.037719 0.019145 0.069047 -0.160034 -0.122886 -0.163123 0.050697 -0.030020 -0.213250 -0.037372 -0.023826 0.088764 0.090157 0.062472 0.053157 -0.082474 -0.011982 0.119321 0.148581 0.014299 -0.168766 -0.121391 0.035818 -0.056214 0.008145 -0.013504 -0.299782 -0.126638 0.060522 0.111465 0.199809 0.094228 -0.013209 -0.041980 -0.011052 -0.030268 0.094793 0.060097 0.050269 -0.022328 0.088966 0.060293 0.026716 -0.125754 -0.041630 -0.059106 -0.067359 -0.134246 -0.194690 0.236797 0.158326 -0.071943 -0.103426 -0.073915 0.101256 -0.039662 -0.100079 0.058147 0.048592 0.043753 0.138151 0.128762 0.162649 -0.061587 0.100777 -0.169462 0.003534 0.116245 0.029177 -0.032641 0.030870
an 0.016326 -0.006613 0.085551 0.087872 0.148127 0.018953 -0.019330 0.021446 0.034726 0.090537 -0.015856 -0.011304 0.093778 0.094374 0.147888 0.034022 -0.056907 -0.008010 -0.008581 0.232428 -0.047774 0.019780 -0.055627 -0.053456 0.021139 -0.004809 0.030186 0.055688 -0.136200 0.130639 -0.024111 0.136299 0.010489 0.111008 -0.071331 0.002400 -0.133539 0.049657 0.086859 0.021041 0.012961 -0.003344 -0.060425 -0.006198 -0.136196 -0.003208 0.100771 -0.156060 -0.168137 0.029713 -0.094483 0.011964 0.042638 -0.073624 0.063185 0.081155 0.060239 0.057509 -0.198395 0.024453 0.147328 -0.032246 -0.048944 -0.118501 -0.136909 -0.076938 -0.048866 0.177531 -0.044886 0.049714 -0.074596 0.092495 0.068203 0.105728 -0.040137 0.100453 -0.140827 -0.016623 0.050929 0.150481 0.017136 -0.093368 -0.076865 0.146464 0.028478 -0.018246 -0.112366 0.025189 -0.196849 -0.045528 0.095813 -0.108547 0.024278 -0.021171 -0.012289 -0.012879 0.034165 -0.055520 0.000600 0.113151
and -0.080730 -0.049024 -0.097753 0.096551 -0.014776 0.017572 -0.099092 0.011931 -0.106775 -0.144285 0.017831 -0.130927 -0.017227 -0.171084 -0.202060 0.099802 0.225053 0.016943 -0.178254 -0.043540 -0.141358 -0.044045 0.106242 0.078461 0.032726 0.138632 -0.023302 -0.098895 -0.113969 0.092921 -0.063042 0.035535 0.013314 0.020200 -0.177836 0.128460 -0.125065 0.135710 0.021355 -0.037252 -0.042687 -0.045680 0.009924 -0.033707 0.031756 -0.106261 -0.093091 -0.059702 0.032036 0.054861 0.058566 -0.040531 -0.116389 -0.083249 -0.010776 0.062003 -0.029219 0.050952 0.098067 0.033173 0.086867 0.003568 0.158684 0.008930 0.072636 -0.001162 -0.009511 -0.017892 0.121248 0.114940 -0.231714 -0.075320 0.010176 0.049407 -0.175232 -0.071209 -0.050298 -0.067308 -0.023055 -0.077760 -0.292702 -0.083264 0.120763 0.129023 0.059737 0.181825 0.098431 0.032350 -0.093654 -0.050910 -0.064606 0.072606 0.110028 0.098702 -0.076644 0.057928 -0.081499 0.031614 0.043731 -0.166806
or -0.055875 -0.013890 -0.023526 0.120305 0.056539 0.154585 -0.262486 0.111742 -0.078388 -0.116511 -0.116976 -0.191404 -0.010360 -0.045673 -0.143512 0.064433 0.018916 0.094402 -0.083498 -0.071790 -0.029546 -0.069033 0.115655 -0.037297 0.071917 0.056075 -0.086123 0.020670 0.062870 0.113157 0.049072 0.026865 0.025752 -0.198669 0.063386 0.053054 -0.134717 0.025817 -0.164161 0.124973 0.036929 0.054812 -0.157026 -0.020123 0.075093 0.097482 0.008144 -0.015025 0.070590 -0.091823 0.009766 -0.023027 -0.001347 -0.034344 0.030151 0.058420 -0.019230 -0.035435 0.074405 0.016619 -0.097588 -0.068425 -0.105599 -0.096715 0.059143 0.020077 0.155334 -0.079596 0.060163 0.084629 0.013952 -0.092662 -0.043730 0.175999 -0.153728 0.017305 0.220326 0.131031 -0.058734 0.150860 0.014017 0.112713 -0.011679 -0.102555 0.036753 -0.009118 -0.032359 -0.028436 0.128634 0.267500 -0.043700 0.101811 -0.090960 0.081867 0.062938 -0.045628 0.051075 0.180990 -0.127045 -0.232365
but 0.047052 -0.013773 -0.109856 -0.009345 -0.125369 -0.232151 -0.109856 0.040867 -0.107418 0.097460 -0.190109 0.074256 -0.051935 -0.118446 0.131191 -0.011084 0.158374 -0.041416 -0.095632 0.042377 0.027292 -0.001379 -0.037706 -0.042724 -0.081681 -0.039594 -0.072484 0.006632 0.042348 0.088196 -0.156051 0.107488 -0.106267 0.018201 -0.062300 -0.053109 -0.104413 -0.128853 -0.162291 -0.112056 0.070600 -0.080888 0.031317 -0.080713 0.213612 -0.042512 0.103137 -0.079944 -0.076759 -0.182011 -0.009703 -0.006040 -0.034234 0.007178 0.021956 0.062226 -0.006372 -0.130521 0.105819 -0.129177 0.002663 -0.062388 0.030781 0.087498 0.034263 -0.075426 0.072362 -0.052542 -0.102037 -0.000717 -0.092196 -0.069983 -0.051145 0.013533 0.201486 0.020894 0.105310 -0.080286 -0.042043 0.083430 -0.025574 0.023271 0.083844 0.074825 -0.167723 -0.015731 -0.089390 0.102252 -0.028510 0.009098 0.097186 -0.024283 0.029145 0.120728 -0.022690 -0.054260 0.123184 0.028219 -0.000659 0.102510
in -0.004269 0.064360 0.079708 0.154939 0.043688 -0.053986 -0.216733 -0.082426 0.122523 -0.053526 -0.053160 0.094253 0.007910 -0.067689 0.075500 0.061840 0.084850 -0.055445 0.045726 0.068069 -0.000872 0.228446 -0.113829 0.128696 -0.125797 0.043371 0.182751 0.003405 -0.131882 0.055128 -0.097818 -0.029745 -0.017302 0.041383 0.120229 -0.025778 0.084862 -0.015376 0.115195 -0.000072 0.240597 0.162561 0.021815 0.081626 -0.171959 0.125466 -0.122197 -0.040691 -0.061650 -0.133243 0.011713 0.322170 -0.076711 -0.149698 -0.114546 -0.032096 0.028270 0.014910 -0.030320 0.127821 -0.061038 0.095015 -0.031408 0.130409 -0.090488 -0.085569 0.126210 -0.055459 -0.111173 0.000617 -0.040466 -0.222575 -0.035863 -0.103252 0.023290 0.180757 -0.051711 -0.039721 0.068816 0.098926 -0.085077 -0.057858 -0.000992 0.151123 -0.122991 0.006796 -0.001715 0.024303 0.100048 -0.175433 0.013009 0.327771 0.003912 -0.100209 0.123617 0.058798 0.235448 -0.250890 -0.053073 -0.096355
on 0.003969 -0.118551 0.122353 0.050538 0.005340 -0.004206 -0.012962 0.089928 -0.051544 0.063306 -0.087773 -0.086747 -0.100706 -0.165858 0.244068 0.049880 0.052598 -0.046177 0.074426 -0.081091 -0.072247 -0.066321 -0.022221 0.068835 0.015034 0.074680 -0.168110 0.122385 0.097274 -0.086876 0.183850 -0.146158 -0.041832 0.001639 -0.011791 -0.180434 0.069069 -0.101312 0.065911 0.118373 -0.105262 0.143347 0.010486 0.129886 -0.207411 -0.132584 0.044139 0.203811 0.023795 -0.100336 -0.071067 0.058744 0.131310 0.079918 -0.066055 0.037453 0.151935 -0.019046 0.027762 0.101366 0.009867 -0.009160 0.043171 0.029085 -0.101834 -0.056456 -0.079536 -0.028952 -0.013066 0.017491 -0.190034 0.050748 0.056728 -0.189194 -0.004582 -0.028654 0.097825 0.160056 -0.024561 0.049716 0.147805 0.030366 0.062754 -0.052727 -0.023944 0.011912 -0.028339 -0.048192 -0.006253 -0.022008 0.042017 -0.075953 -0.150863 0.201631 0.010492 -0.003289 0.159550 -0.043920 0.017776 0.106072
at -0.113140 -0.073555 -0.043439 -0.082074 0.110279 0.104127 0.070713 0.027481 -0.104974 -0.134393 0.068577 0.134099 0.073940 0.065619 -0.000161 -0.012276 -0.025287 0.017736 0.006596 -0.030967 -0.041610 0.064507 0.121821 0.016762 -0.104864 0.034062 0.022057 -0.007717 0.026110 -0.032999 0.053899 0.009669 0.053350 0.057023 0.025702 0.134049 0.146236 0.058108 -0.048424 -0.061876 -0.053578 0.047577 0.015201 -0.068904 -0.241257 -0.024930 -0.020082 0.069206 0.181058 0.003268 0.002843 0.192319 -0.136060 0.152865 0.013043 -0.075369 0.025231 0.109456 -0.022001 -0.064478 0.009988 -0.247171 -0.024707 -0.052664 -0.078006 -0.134569 0.092572 0.077693 0.187441 -0.027127 0.092751 0.022073 0.069000 0.166645 0.047247 0.210542 0.016612 0.045501 -0.189815 -0.253376 -0.060103 -0.029449 -0.079189 -0.053994 0.011935 -0.209846 -0.038279 0.007096 -0.138384 0.025699 -0.016415 -0.130727 0.050169 0.109760 -0.022586 0.027549 0.010570 0.073588 0.112312 0.027373
to 0.024549 0.045837 0.007889 -0.033865 0.111406 -0.028329 0.184662 0.105325 0.111114 -0.033008 0.092895 0.067985 0.075033 0.182902 -0.029287 -0.186575 -0.082654 0.127309 -0.041514 -0.097595 0.036551 0.108597 0.176150 -0.085285 0.043171 -0.121221 -0.063985 0.058967 0.048099 -0.081071 0.150102 0.015783 -0.175760 -0.042894 -0.006790 -0.200547 0.037373 0.052414 0.007157 0.050106 0.128728 -0.265728 0.023079 -0.109621 0.002414 -0.049210 -0.044604 0.215052 0.070062 0.042373 -0.047724 0.062004 0.024496 -0.002987 -0.087833 -0.113482 0.088227 -0.071771 -0.087095 -0.168350 -0.052502 -0.048508 0.099967 0.086083 -0.085185 -0.026341 0.028469 -0.007094 -0.007594 0.112944 0.032124 0.238196 -0.061836 0.060824 -0.068288 0.089408 -0.126246 0.151013 -0.121010 0.082800 0.069001 0.088345 0.098766 -0.020751 0.014638 0.072982 0.102798 0.045621 -0.081904 0.165808 0.003148 0.026596 0.055168 0.190995 0.118423 0.010446 -0.146201 0.120146 0.056190 0.099704
for -0.135122 0.148066 -0.076131 -0.035167 -0.069532 -0.077176 0.100610 0.016467 -0.040489 -0.082938 0.093149 -0.113887 -0.132727 0.064137 -0.088156 0.040690 0.003021 0.088980 -0.121395 -0.221502 0.152418 0.007999 0.161159 0.004744 0.140161 -0.188282 0.049726 -0.015779 -0.081336 -0.161504 0.009959 -0.113283 0.100628 -0.091249 0.117474 -0.027321 -0.025712 -0.034619 0.000454 0.045637 0.039382 -0.042430 0.134647 -0.177680 0.226305 -0.051665 0.098438 -0.263033 0.051916 -0.087379 -0.024768 0.047582 -0.030296 0.197270 -0.004338 -0.107276 -0.011148 0.010792 -0.090795 -0.005477 -0.062427 -0.060973 0.074829 -0.044563 -0.075380 -0.020790 -0.124117 -0.013183 0.014575 -0.070475 -0.078509 -0.064503 0.007240 0.019194 0.087560 0.067816 -0.041380 -0.089757 0.033003 -0.074212 -0.248831 0.037956 0.114948 0.111538 -0.004098 -0.097121 0.066656 0.169079 -0.013231 -0.095174 -0.012779 -0.049424 -0.070837 0.055642 0.117542 -0.089656 0.033411 -0.049129 0.090800 -0.191106
of 0.020570 -0.146297 -0.083308 0.147432 -0.063489 -0.064784 -0.227097 0.064025 -0.007096 0.012687 0.069388 -0.050981 -0.094730 0.045642 -0.073823 -0.097876 0.159310 -0.046970 0.064671 0.140454 0.029402 -0.010488 0.040416 -0.033942 -0.090749 0.227954 0.111001 0.210601 0.019571 -0.206564 -0.058766 -0.127320 -0.031103 -0.068177 0.047105 -0.123385 -0.296516 0.016865 0.005889 0.040160 -0.257281 0.057150 0.084214 0.212093 0.011780 0.270984 -0.037315 -0.118843 0.081547 0.052964 0.144534 -0.201099 -0.157407 -0.079815 0.076571 -0.196102 -0.191042 -0.025696 0.255216 -0.076727 0.053555 -0.165546 -0.049099 0.084569 -0.020739 0.089724 -0.128565 0.007701 0.002582 0.113328 -0.046049 -0.094532 -0.095329 -0.087279 -0.175673 -0.027393 0.120253 -0.014453 -0.002033 -0.013913 -0.078883 0.208800 -0.091119 0.261405 0.028015 -0.055295 0.158024 -0.153101 -0.209492 -0.158387 0.064973 -0.156753 0.001063 0.045446 -0.094871 0.037888 0.088018 0.062941 0.129239 0.042870
with 0.089929 0.037891 0.005797 0.045678 -0.124946 -0.017988 -0.020737 -0.060084 0.191129 -0.066553 0.002858 0.049843 0.006306 -0.019647 0.003502 -0.046671 0.030255 -0.049237 -0.164990 -0.070601 0.009718 -0.110139 -0.024050 0.150515 -0.051496 -0.065974 -0.013120 -0.063134 0.219637 -0.102227 0.049529 -0.095204 0.054950 -0.033892 0.084138 0.004408 -0.151845 -0.143354 0.043728 0.046887 -0.108474 0.109884 -0.129396 0.200881 -0.019465 -0.009146 -0.135536 -0.155087 0.100665 0.031266 0.075201 -0.033758 -0.022370 0.113133 -0.053803 -0.205324 -0.029934 0.075167 -0.059120 -0.020499 -0.097858 0.201286 0.044881 0.033279 0.137169 -0.047575 0.097185 0.001435 -0.213183 0.157305 0.015944 -0.050325 0.243538 0.017690 -0.004134 -0.068430 -0.141844 0.115676 0.105787 0.021270 0.056804 0.141276 -0.100062 -0.113363 -0.034932 -0.065352 -0.100319 -0.026363 -0.080116 0.235462 0.030796 0.163142 -0.074915 -0.059463 0.138668 0.010344 0.105697 -0.093266 -0.078111 -0.161783
by -0.104452 0.074006 0.057811 0.113775 -0.035488 -0.008299 -0.034905 -0.041866 -0.153013 -0.096182 -0.056537 -0.006831 0.049056 0.010791 0.007758 -0.019548 0.093115 0.123157 0.149606 -0.151330 0.013813 0.038157 -0.088584 0.015036 0.165237 -0.088998 -0.136814 -0.019040 0.016961 0.023154 -0.122563 -0.033456 0.131061 -0.049741 0.063786 0.044324 -0.046199 0.145958 -0.054330 0.044145 0.074621 -0.025079 -0.284523 0.179734 0.029527 0.094798 0.087677 -0.076913 -0.039980 0.141382 -0.041259 0.107886 -0.038595 -0.023448 0.062107 0.036542 -0.037172 0.093646 0.100771 -0.069153 -0.014754 0.136484 -0.012586 -0.113526 -0.156142 0.091917 -0.020063 -0.044738 0.038998 0.083009 0.081195 0.024733 0.170936 0.251741 0.085066 0.070778 0.211082 -0.120810 0.073294 0.001059 -0.022483 0.059535 0.101334 -0.099122 -0.045006 -0.020622 -0.058895 0.237288 -0.026708 0.050383 -0.010088 -0.048562 0.068005 0.210097 -0.002693 -0.141208 0.039193 0.038926 0.248273 0.059422
good -0.081404 -0.036110 0.050706 0.142437 -0.048446 0.008892 -0.075075 0.021426 0.027399 -0.026081 -0.019690 -0.067733 0.008757 0.233193 0.086924 -0.062956 -0.079238 -0.042987 -0.041882 0.039255 -0.077834 0.121770 -0.079328 -0.085521 -0.144562 -0.005531 -0.054391 -0.135768 -0.063854 -0.035220 -0.003247 -0.051479 0.037589 0.049629 -0.047382 0.006129 0.092032 -0.037092 0.082267 0.044467 -0.078365 -0.079722 0.074201 0.222467 0.088658 -0.181061 0.076567 0.013867 -0.084356 0.026163 0.116618 0.089415 -0.146512 -0.055634 0.107194 -0.046807 0.097171 -0.145807 0.235971 -0.108978 0.006346 0.115849 -0.027201 0.003723 -0.072607 0.094640 -0.123738 0.044425 0.116213 0.126494 0.035414 0.012001 0.136884 -0.171878 -0.083707 0.200088 0.209730 -0.020786 0.041387 0.060419 -0.025102 -0.010664 -0.031749 -0.102055 0.170982 0.055347 -0.018062 -0.030049 0.011149 0.038467 -0.019644 0.013342 0.014385 -0.126298 0.157142 -0.235415 0.075745 0.083306 0.004979 0.118374
bad -0.080335 0.027211 -0.168005 0.110271 0.040499 0.099378 0.018367 0.107211 -0.021718 0.231981 0.331501 -0.091459 -0.202326 0.103372 -0.047000 -0.047469 0.098274 -0.068015 -0.148615 0.054315 0.034660 -0.033004 0.045815 0.098382 -0.070645 0.077877 -0.015196 -0.005236 -0.057500 0.097277 0.210094 -0.136018 0.011401 -0.042971 -0.110122 -0.126450 -0.027219 -0.062358 -0.006716 -0.070843 0.218063 0.053804 0.076528 0.026406 0.028343 -0.041680 0.011957 0.147574 -0.018752 -0.049799 0.114855 -0.037776 -0.035345 0.101252 -0.104164 -0.248731 -0.154072 0.010075 0.058449 0.099022 0.081946 -0.156602 0.083492 -0.089170 0.050008 0.015419 0.102237 -0.115732 -0.194970 0.058537 -0.164880 0.040879 -0.095092 0.116975 0.018732 0.073189 0.184571 -0.084524 0.047000 -0.195240 -0.012557 -0.120838 -0.043409 0.039586 0.063332 -0.075168 -0.116189 -0.138859 -0.018495 -0.026296 0.019289 0.002004 -0.027334 0.106333 0.011588 -0.142207 -0.148276 -0.030830 0.181978 0.177525
great -0.024074 0.134524 0.179088 0.044127 0.153023 0.091293 0.104944 0.012361 0.094398 0.193422 -0.163313 -0.016704 -0.107793 0.037429 -0.145480 -0.162898 -0.063486 -0.009957 -0.023537 0.186794 -0.086703 0.041133 -0.063964 -0.058035 0.022154 -0.294930 0.133618 -0.002952 -0.124334 0.010500 -0.079638 0.163410 0.105160 0.013696 -0.053956 -0.055450 -0.027921 -0.158889 -0.042293 -0.012455 -0.145217 -0.078135 -0.101939 -0.025055 -0.008873 -0.114811 -0.030988 -0.050688 0.057205 0.232573 0.100305 -0.068240 -0.017210 0.027333 -0.062286 -0.094497 0.049297 -0.112920 0.190065 0.029349 -0.049415 0.050573 -0.149249 -0.086261 -0.193133 -0.016572 0.055580 -0.092514 -0.068253 -0.056981 -0.046788 0.028132 0.007713 0.097699 -0.088671 -0.046756 0.065075 0.065597 -0.065098 -0.154190 -0.032929 -0.091878 -0.105370 -0.066330 0.081719 -0.148442 -0.128319 -0.115675 -0.077629 -0.035601 -0.019101 0.123363 0.009162 0.083895 0.109423 -0.028372 0.018149 0.056288 -0.013455 0.115555
terrible 0.141423 0.198758 0.105012 0.087305 -0.247732 -0.056683 0.099830 -0.039591 0.159718 -0.033521 -0.072501 -0.149906 0.053302 -0.040586 -0.104551 -0.055705 0.143821 0.019349 0.078798 -0.028165 0.025961 -0.026229 0.048216 0.033413 -0.041949 -0.076280 0.087929 -0.161512 0.078744 0.043963 0.023418 0.044020 -0.076935 0.001604 0.030221 -0.102622 0.075378 -0.018833 -0.041874 0.080858 -0.029875 -0.116188 0.150339 0.057185 0.020803 -0.085598 -0.236355 -0.089267 0.035776 -0.142444 -0.119646 0.056047 0.112415 -0.034802 -0.003190 -0.104510 -0.200655 -0.125797 -0.008865 -0.114171 -0.156485 0.108499 0.137869 -0.010557 0.097652 -0.031171 -0.058605 0.133662 0.048907 -0.112305 -0.002635 0.105975 -0.111343 -0.153468 0.148825 0.004282 0.087008 -0.141112 0.004456 0.142948 -0.071404 0.032306 -0.062088 -0.121774 0.039336 0.059375 -0.009921 -0.063462 0.050069 0.010234 0.061520 -0.096837 -0.165798 0.057069 -0.008559 -0.011681 -0.120053 0.000092 -0.048349 -0.040186
amazing 0.152137 0.050708 0.154981 0.092044 0.022002 -0.026731 -0.039372 0.079410 0.196309 -0.014122 0.094316 -0.132790 -0.174450 -0.045994 0.031051 0.096295 -0.120720 -0.102945 -0.061206 0.110787 0.106568 0.197702 -0.064672 -0.097493 -0.053954 -0.086599 0.090500 -0.053733 -0.105544 0.004788 0.155184 -0.001245 0.052658 -0.033500 -0.060607 -0.164909 -0.000626 0.194999 0.260898 -0.151183 0.044561 0.050940 0.085627 0.008296 0.021591 0.050719 -0.163260 0.079584 0.321631 0.013680 0.004340 -0.006308 0.048455 0.013173 -0.016065 -0.036613 -0.130135 -0.223609 0.021110 0.002655 0.101701 0.138526 0.056427 0.105177 0.130491 -0.046678 0.049787 0.092082 0.037043 -0.075119 -0.117800 0.039834 0.004892 -0.041815 -0.032614 -0.014716 0.089138 -0.173919 -0.122638 0.232991 -0.098072 0.060061 0.035058 0.064016 -0.005372 -0.078652 -0.101175 0.165440 -0.092131 0.100264 0.000319 -0.062480 0.015234 0.120616 0.067715 -0.123292 -0.043269 0.128635 0.065770 0.030392
awful 0.016840 0.032810 -0.115660 0.110872 0.088284 0.125615 -0.188556 0.005283 -0.136224 -0.185303 -0.042386 -0.037544 0.063311 0.002726 -0.044590 -0.018810 -0.143154 0.143906 0.172301 -0.047882 -0.128766 -0.072899 -0.047785 -0.210878 -0.039201 0.068875 0.032400 -0.130660 0.003567 0.033171 -0.013551 -0.009010 -0.089548 0.015136 -0.089574 0.237973 0.028788 -0.014469 -0.163524 -0.108441 -0.217590 0.122441 -0.108654 -0.042794 0.159552 -0.113884 0.022820 0.071847 0.111793 0.099734 -0.108840 -0.144633 0.089937 -0.021731 0.085399 0.068630 0.011963 0.089480 -0.205315 -0.038594 -0.063869 -0.006225 -0.025623 -0.012789 -0.004155 0.016856 0.055095 0.072171 0.027039 0.050432 -0.128968 -0.051063 0.156610 0.160360 -0.048503 -0.115374 0.077742 -0.000450 0.022785 0.142905 0.209539 -0.224303 0.003965 0.054240 -0.062350 -0.064383 0.088252 -0.107211 -0.030187 -0.047387 0.059911 0.078190 -0.009355 -0.115073 -0.015834 0.178285 0.230256 -0.045037 0.016239 -0.037714
love 0.138814 -0.003629 0.026912 -0.042705 0.001743 0.033090 0.006717 0.078615 0.201400 -0.011966 -0.088625 0.108676 0.029522 0.103683 0.108009 -0.003855 0.178218 -0.000389 -0.085789 -0.191727 -0.062972 -0.072121 -0.004596 0.007762 0.038870 -0.072663 -0.086570 -0.065288 -0.185083 0.056454 -0.157162 0.116930 0.080523 0.072513 -0.121243 0.129713 -0.069314 0.076235 -0.085402 0.146873 0.058832 0.203391 -0.069697 -0.270441 0.091795 0.010954 0.052193 -0.161806 -0.076221 0.093184 -0.073196 0.016939 -0.049745 -0.045179 -0.080772 0.112086 0.067471 -0.146016 0.021510 0.011800 -0.091817 0.141302 0.008687 0.280681 0.113481 0.072680 -0.029948 -0.057969 0.069563 -0.150963 -0.084199 0.024901 0.134617 -0.075743 -0.115214 0.082977 -0.023413 -0.081216 -0.028527 0.059291 0.074019 -0.078844 0.063924 -0.030535 0.108457 0.025546 0.021453 -0.012549 -0.023255 -0.039000 -0.018362 -0.077921 0.062313 0.139451 -0.010113 -0.106411 0.040913 -0.046864 -0.251731 -0.046410
hate 0.016410 -0.091996 -0.141171 0.114679 -0.053498 -0.100443 0.025759 -0.146614 0.197943 0.096956 -0.057364 -0.081860 0.031078 -0.036558 0.141123 -0.053759 -0.000932 -0.001066 0.038008 0.085083 -0.147194 -0.048914 0.109626 0.001342 0.012111 0.109239 -0.029296 0.102276 -0.139609 0.022760 -0.028438 -0.047414 -0.025775 0.055214 0.065050 0.019237 -0.097568 -0.014300 -0.021662 0.165066 -0.023580 -0.069137 0.023147 0.127299 0.053346 0.116483 -0.069453 0.132312 -0.107217 -0.023880 -0.014366 -0.039828 -0.010203 0.088215 -0.024505 0.018237 -0.085947 -0.099327 -0.104921 -0.068332 0.051480 0.062833 0.023645 -0.039782 0.177621 0.137975 -0.132902 -0.004365 -0.089735 -0.007229 -0.101394 0.065841 -0.035825 -0.172863 -0.027486 0.060418 -0.000031 -0.139719 -0.079357 -0.000568 0.160845 -0.157738 -0.139312 0.084890 0.117053 -0.024449 0.184500 0.077110 0.007124 0.046685 -0.110613 -0.085882 0.065899 0.220788 -0.054723 0.058430 0.121286 0.019656 -0.080511 -0.035366
like 0.083366 0.007565 -0.121869 -0.058149 0.032488 -0.052095 -0.120481 0.108331 0.108782 -0.121145 -0.125163 -0.063959 0.127019 0.109138 0.088253 0.018525 -0.002098 0.017190 0.100030 0.031295 0.012364 -0.093408 0.088746 0.048497 -0.076504 0.002103 0.120196 -0.071174 -0.001061 -0.008967 0.026335 -0.134378 -0.091136 -0.027987 0.052483 -0.067303 -0.137680 -0.016188 0.191269 -0.029071 -0.011166 -0.066296 0.111460 0.003190 0.151460 -0.002034 -0.020528 -0.109954 -0.028515 0.072361 -0.000723 -0.028822 -0.058647 0.135561 0.056632 0.110519 0.030441 -0.054580 -0.083853 0.055868 -0.002714 0.004774 0.009430 0.203536 -0.103678 0.043978 0.195966 0.036230 0.003295 -0.127462 -0.025087 0.017656 0.074248 0.032989 -0.010076 0.094158 0.165148 -0.010837 -0.168777 -0.126308 0.124950 -0.059587 0.049879 -0.086345 0.013161 -0.043562 0.003213 -0.009297 0.094358 0.056473 0.128833 -0.082666 -0.028289 0.154034 -0.084549 -0.033329 -0.049014 -0.101808 -0.133745 0.079896
dislike -0.241317 -0.045445 0.002416 -0.091489 -0.039765 0.086832 -0.119197 0.176935 -0.111606 -0.011980 -0.108272 -0.049139 0.115574 -0.030780 0.020363 0.000178 -0.219810 0.010316 0.016130 -0.030351 0.037928 0.016746 -0.075340 -0.034264 -0.193061 -0.048957 -0.036065 0.052164 0.061318 0.013969 0.052084 -0.070646 0.100400 -0.011641 0.061310 0.096675 0.001384 0.108304 0.093676 -0.033041 -0.091485 -0.082066 0.051258 -0.017763 0.114286 -0.035068 -0.022163 -0.105265 0.178240 -0.102306 0.060285 -0.028530 0.006477 0.115694 0.128625 -0.096590 0.016358 0.025499 -0.063719 0.003212 -0.030558 -0.112970 -0.011080 0.046976 -0.050170 -0.125279 -0.103363 0.178861 0.101770 0.007950 -0.139711 -0.044223 -0.055746 0.132011 0.082493 0.061134 0.001057 -0.034852 -0.049891 -0.072590 0.126541 -0.180597 0.001443 -0.003347 -0.113233 -0.141226 -0.004170 0.078261 0.108899 -0.055064 0.025067 0.065308 0.107832 0.011829 0.057880 -0.056719 0.108394 0.022654 -0.030100 -0.071415
happy -0.164359 0.040497 -0.063546 0.047016 0.037268 -0.038212 0.054921 -0.247957 0.142398 0.059685 0.035665 0.040465 0.143369 -0.120087 -0.095120 0.068847 -0.036152 -0.018664 -0.083839 -0.077274 0.012099 -0.050110 0.001841 0.058199 0.107120 0.004549 0.021798 0.046998 0.138336 0.033029 -0.371797 0.218059 -0.051839 -0.069620 0.291270 0.044134 -0.254377 -0.037878 0.089356 -0.127656 -0.066666 0.069129 -0.121852 -0.047798 -0.051042 -0.035482 0.045544 -0.208551 -0.043784 -0.131497 -0.155313 0.007636 -0.069775 0.006025 -0.011828 0.108378 0.034570 -0.065731 0.109610 -0.114452 0.111194 0.054126 0.033384 -0.025053 -0.160125 0.192432 -0.005670 -0.139281 0.087748 0.041318 0.058335 0.070440 0.074916 -0.146500 -0.033587 0.096349 -0.080981 0.070563 -0.197571 -0.044814 -0.043966 0.115919 0.051943 -0.121192 0.145602 -0.039081 0.044019 0.065301 -0.035055 -0.009835 -0.032871 0.024671 0.105324 0.101015 0.192886 -0.029638 0.052382 -0.034954 -0.039333 0.051163
sad -0.117036 0.067403 0.085056 -0.071086 0.022198 -0.021739 -0.097125 -0.154202 0.071931 -0.107163 0.006742 0.301332 -0.012505 -0.056729 0.037004 0.052554 -0.060580 0.080738 -0.038980 0.017546 -0.058256 -0.072134 0.180075 -0.100570 0.077792 -0.139132 0.081152 0.020496 0.001287 -0.007890 -0.179779 0.076640 0.184883 0.035050 0.140692 -0.078035 -0.105680 0.236909 -0.206255 0.020143 0.015145 -0.044630 0.118324 0.025825 -0.040578 0.043489 0.147068 0.027342 -0.026872 -0.022677 -0.160810 0.068472 -0.036956 0.000426 0.221943 -0.149165 -0.138030 0.010676 0.036988 0.021320 0.141852 0.091969 0.008946 0.251263 -0.017573 -0.062253 -0.032614 -0.000387 0.193000 0.114616 0.046991 -0.108176 0.009637 -0.215461 0.024860 0.016429 -0.000775 0.081592 -0.105031 -0.010152 0.081790 -0.053852 -0.054655 0.060025 0.023776 0.009220 0.057270 -0.206971 0.042250 -0.046307 0.027321 0.035159 0.019315 -0.036824 -0.097892 0.003044 -0.094744 -0.089714 -0.022775 -0.074177
angry -0.020451 -0.072660 -0.123805 0.094145 -0.191813 -0.007528 -0.031072 0.002638 0.002710 0.096689 -0.052798 0.083804 0.013285 -0.000742 0.093456 -0.029787 0.131379 -0.015203 -0.270200 0.039727 -0.045521 -0.008125 0.020957 0.139901 -0.004830 -0.194166 0.021585 -0.051894 -0.126846 0.035747 0.052511 0.061000 0.317718 -0.000327 0.138948 0.097643 0.025016 0.043033 0.144486 -0.133338 -0.037668 -0.094262 0.102479 -0.117303 0.025831 0.036949 0.104933 0.082225 -0.008963 -0.064138 0.078169 0.104865 0.103002 -0.111341 0.184680 -0.035205 -0.177467 0.262716 0.183569 0.105744 0.030871 -0.077543 0.064796 0.067165 0.034742 0.018721 -0.057385 -0.206110 -0.014948 -0.131720 -0.009845 -0.257371 -0.165771 -0.133408 0.051762 0.037507 0.017822 -0.054867 -0.137134 -0.021136 0.026192 -0.084476 -0.074021 0.143512 -0.050533 -0.076432 0.021731 0.132618 0.086585 -0.034788 0.200805 0.002908 0.070630 0.119783 0.298471 -0.007270 -0.073453 -0.104202 -0.043284 -0.056449
excited -0.036441 -0.082289 -0.126599 0.094979 0.003134 -0.048694 -0.059157 -0.021472 -0.223479 -0.054782 -0.010636 -0.133460 0.107231 -0.040471 0.099127 -0.096351 0.100491 -0.137081 0.132801 0.091097 -0.037470 -0.030504 0.112264 0.183018 0.095152 0.014492 0.169405 -0.191949 0.231189 -0.062735 0.014925 0.086918 0.153255 -0.005666 0.016525 0.080069 0.059319 0.127780 -0.162796 0.058604 -0.019827 0.052879 0.058192 0.110927 0.072237 -0.059997 0.108545 0.159413 0.090673 0.090245 -0.079730 -0.130760 0.095755 0.091115 -0.034339 -0.051948 -0.062919 0.108569 0.215160 -0.012580 0.029714 0.028185 -0.015878 -0.005041 -0.057348 0.090771 0.009718 0.085479 -0.122355 -0.035850 0.042935 0.116422 0.197568 -0.229940 0.050649 -0.044015 0.044558 0.014167 -0.110697 -0.010648 0.017171 0.110309 -0.059788 -0.069251 -0.085935 -0.188390 0.037422 0.023394 -0.011518 0.119998 -0.302824 0.186997 -0.091330 0.023454 0.092372 0.030205 -0.081300 -0.069611 -0.007649 -0.152553
disappointed 0.055915 -0.190018 -0.107663 0.029323 0.032407 0.256848 -0.087682 0.022537 0.033961 0.029949 -0.018142 0.135564 -0.144815 0.164634 0.128671 -0.057831 0.101634 0.025701 -0.107807 0.008861 0.004775 0.094164 -0.024677 -0.116196 0.199426 0.068920 0.119119 -0.026270 0.150098 -0.058672 -0.019848 -0.066671 0.027823 0.063828 0.005851 0.056623 0.003426 -0.082918 0.072218 0.071181 -0.038501 0.073346 0.050178 0.129674 0.001046 -0.062309 0.036128 -0.007675 -0.075595 -0.091768 0.169139 -0.004745 -0.080325 -0.117090 0.056116 -0.205089 -0.109001 -0.005530 0.038972 -0.031983 -0.122588 -0.032174 0.094475 -0.076823 0.142836 -0.083235 0.005029 -0.048891 -0.084555 0.062608 -0.309563 0.031284 -0.007180 0.045541 0.127132 0.000030 -0.140560 0.158735 0.023995 -0.048096 0.062935 -0.047847 -0.013722 0.078324 0.015210 0.102610 0.026406 -0.060380 0.167667 0.029184 0.063045 -0.031438 0.060933 -0.111248 -0.045941 -0.057355 -0.131114 -0.100394 -0.143087 -0.095693
satisfied 0.016907 0.190312 0.005641 -0.150686 0.174119 0.091856 0.046468 -0.097348 0.002067 0.086516 -0.007394 0.124029 -0.189825 0.010031 -0.030041 0.178362 -0.073847 -0.012775 -0.088803 0.041010 0.069164 0.130443 -0.194600 0.045008 -0.067358 -0.070576 0.083117 0.193384 -0.008270 0.224489 0.056799 0.024173 0.163369 -0.088832 0.170185 0.068469 0.129398 0.053411 0.031145 -0.062474 -0.171362 -0.028877 -0.091924 0.082955 -0.140287 -0.219556 0.006307 0.021045 -0.146315 0.009718 0.145272 -0.170590 -0.039249 0.083905 0.069579 -0.031912 0.025670 -0.100030 0.169586 -0.002226 -0.143535 0.185713 0.059815 0.214370 0.154535 -0.002460 -0.101516 0.056678 -0.008993 0.063141 0.016742 -0.083658 -0.065085 0.160257 -0.097751 -0.097038 -0.112446 -0.034619 -0.116451 -0.038056 -0.128204 -0.034319 -0.001998 -0.125003 -0.016915 -0.054254 -0.025010 -0.150489 0.154293 -0.238405 -0.008943 0.083803 0.166152 -0.114856 0.119374 0.063077 -0.057288 0.073434 0.154138 0.120884
pleased -0.024199 -0.074489 -0.229683 -0.001490 0.052158 0.170001 0.197334 0.014579 0.117567 0.103732 -0.038091 -0.080766 0.127273 0.099118 0.066820 0.027929 -0.181741 -0.095815 -0.005994 0.196156 0.068845 -0.034095 0.059350 0.172640 0.045778 -0.089086 0.095455 -0.100812 -0.110285 0.087822 0.038889 0.128134 -0.189946 -0.025862 -0.021645 -0.075083 0.011834 0.026588 -0.109264 0.037129 -0.010037 0.011698 -0.090931 0.182268 -0.182028 0.020673 0.121149 0.151865 0.041082 -0.026692 -0.001287 -0.076113 0.034704 0.155112 -0.052163 0.048074 0.175733 0.135641 -0.032995 -0.013682 -0.121811 -0.144670 -0.083621 0.048640 0.118830 0.157801 -0.066013 -0.076094 -0.021023 0.052790 -0.122823 0.183339 -0.103452 -0.072733 -0.180733 -0.099034 0.053070 0.040276 -0.054585 0.001637 -0.022928 0.052986 -0.014373 0.068370 0.020832 -0.165153 -0.033389 -0.084020 0.156514 -0.005933 -0.212327 0.084290 -0.069770 -0.008420 0.087777 -0.029288 0.071738 -0.054508 0.095068 0.265896
upset -0.182880 0.190597 0.139321 0.057315 0.039470 -0.079394 0.093110 0.075427 0.133891 0.008123 -0.178819 0.134499 -0.074372 -0.111729 0.093793 0.007416 0.043726 0.002406 -0.034468 0.160513 0.027632 -0.038819 -0.109354 -0.115102 -0.013199 0.253065 -0.058175 -0.186869 -0.025290 0.075003 0.129447 -0.143328 0.002317 -0.045277 0.041862 0.015968 -0.002301 -0.125957 -0.058387 0.104706 -0.079490 -0.058731 0.083054 -0.188542 -0.061056 0.030639 0.004865 -0.104215 0.046971 -0.051702 -0.035704 0.088673 -0.005785 -0.141570 0.162915 -0.088192 -0.001895 -0.057783 0.056772 -0.005442 0.098528 -0.077373 0.090867 -0.094374 -0.067919 -0.095930 0.056174 -0.098887 0.055005 -0.081898 0.137432 0.187865 -0.006821 0.062675 -0.003799 0.002038 0.097465 -0.031958 -0.061443 0.110812 0.077389 0.058864 0.107510 0.060426 0.098984 -0.086305 -0.007523 -0.131299 -0.210184 -0.046314 0.055696 -0.002880 -0.100795 -0.037138 -0.236292 0.054352 -0.101503 0.119306 0.155417 0.004170
excellent -0.007612 0.065557 0.066533 0.061854 0.050671 -0.016912 -0.008733 0.152567 -0.059862 0.081530 0.006260 -0.045423 0.001975 0.085346 0.140707 0.079871 -0.027894 0.065850 -0.078841 0.041949 0.013586 0.015787 -0.163010 0.056092 0.028271 0.177854 -0.069248 -0.025495 0.103924 -0.063689 -0.010165 0.033579 -0.109191 0.230189 -0.003082 -0.023864 0.098074 0.010468 -0.072614 0.067141 -0.100223 0.001787 -0.085104 0.041258 0.068624 -0.094477 0.054686 0.138308 -0.123283 0.151774 0.016810 -0.097562 0.118170 0.206020 0.117034 0.131340 0.114098 -0.104059 0.045963 -0.064181 0.021828 0.049225 -0.007598 -0.188326 -0.013001 0.002210 -0.062818 -0.053530 -0.010586 0.096101 0.050349 0.005955 -0.026359 0.192257 -0.146401 -0.025331 -0.040979 0.139147 -0.071567 -0.024450 -0.008721 0.028896 0.015551 -0.022889 0.166772 -0.081967 -0.041922 -0.008000 0.081946 -0.033744 0.048498 -0.057831 -0.024490 -0.045802 0.096806 -0.068147 0.003176 -0.156593 0.101225 -0.037603
poor 0.031597 -0.272505 -0.066426 -0.175180 -0.050239 0.028372 -0.035473 -0.064009 0.077046 0.152018 0.088699 -0.031145 0.059162 -0.095765 0.133983 0.002210 0.056815 0.050611 -0.013769 0.015337 0.017310 -0.087745 0.039767 0.175988 -0.036106 0.026622 -0.067594 0.155530 0.155478 0.052953 -0.038200 0.071959 -0.181155 0.085055 0.017253 0.116711 0.207965 -0.125326 -0.065197 -0.079398 -0.054471 0.082140 0.069288 -0.000984 -0.168858 0.009710 0.083961 0.061623 -0.192131 -0.133597 -0.006803 0.014561 -0.071706 -0.088021 -0.021096 0.078356 -0.080331 -0.018703 0.122047 0.026163 0.023593 -0.020205 -0.075082 0.037468 -0.019612 -0.163830 0.057823 0.144029 -0.096788 -0.011956 -0.053479 0.137225 -0.120891 0.111253 -0.039500 0.040446 0.060175 0.000202 0.017074 0.142755 -0.204929 -0.047653 0.040267 -0.109382 -0.079396 -0.051098 0.006697 0.012021 0.088024 -0.061022 0.098617 0.032075 -0.039297 0.072532 0.015806 0.102657 0.108235 0.158133 0.221635 -0.199319
fantastic -0.015706 0.012399 -0.029183 -0.000323 -0.197601 0.246824 -0.057936 0.116641 -0.001155 0.003964 -0.074116 -0.024589 0.106235 0.085678 0.047778 0.137569 0.220304 -0.134393 -0.065202 -0.096746 -0.043018 -0.084858 0.083682 -0.008889 -0.096311 -0.161593 0.059016 0.081241 0.071131 -0.014723 -0.073454 0.064795 0.076858 -0.148918 0.023138 -0.012819 0.102846 0.160755 0.083507 0.154551 0.021460 0.066216 -0.022938 -0.109584 0.015431 -0.085134 -0.107809 0.017331 -0.143160 0.091228 -0.037511 -0.045864 -0.064281 0.082671 -0.031538 0.118260 0.156299 -0.105702 -0.117779 0.001887 -0.173990 0.008561 0.007802 0.094775 0.056382 -0.044953 0.035552 0.127260 0.031995 -0.064154 0.181792 0.003584 0.027886 0.138719 0.106628 0.018755 0.126268 0.008256 -0.037494 0.201504 0.014989 0.139618 0.013098 0.146269 0.039626 -0.107726 -0.150792 0.028159 0.100536 -0.075022 0.061511 0.001984 -0.081743 -0.124309 -0.043592 -0.139688 -0.167155 -0.003755 -0.198262 0.073656
horrible -0.003675 0.137150 -0.087541 0.223771 0.083226 -0.125566 -0.000005 -0.014816 -0.133090 0.196112 -0.077888 -0.051380 -0.001105 -0.004586 0.025952 0.093360 0.070526 0.120275 -0.180416 0.063611 -0.116734 0.139720 0.076685 -0.070964 -0.038047 -0.110753 -0.030311 0.118760 0.064088 0.045288 -0.237768 -0.269968 -0.107119 0.217311 -0.038176 0.000829 -0.142270 -0.093321 0.054971 0.061709 -0.031736 0.040077 0.034034 0.072237 -0.065171 0.077284 0.001376 0.160182 0.041183 0.070190 0.128989 0.021210 -0.118638 -0.042655 0.043090 0.096821 -0.143442 0.054218 0.101601 -0.090830 0.055274 -0.040177 0.055706 -0.169076 -0.185004 0.048843 0.093153 -0.054831 -0.099637 0.159036 -0.029003 0.025294 0.101894 0.050872 0.016103 0.100168 0.174145 -0.151354 0.051087 -0.086306 -0.139610 0.010292 0.034832 0.006668 0.086249 0.150023 -0.094384 0.071310 0.031742 0.108050 -0.024386 -0.042623 0.016929 0.066537 -0.004038 -0.095704 -0.111610 -0.084186 0.055528 -0.034206
wonderful -0.018837 -0.087039 -0.002049 0.103738 -0.174543 -0.028687 -0.101323 0.010625 -0.017108 0.179539 -0.166834 0.109792 -0.006101 0.170541 -0.103315 0.115572 -0.131911 0.050445 -0.081149 -0.043646 -0.000764 0.005559 -0.003203 0.009211 -0.026662 0.083932 -0.139381 0.030647 -0.056584 0.203149 0.111817 -0.015434 -0.118480 -0.043264 -0.014736 0.083856 -0.029571 0.018486 0.054664 -0.172561 -0.046749 -0.142761 -0.065767 -0.052645 -0.053920 -0.075850 -0.016994 0.143436 -0.029626 0.030715 -0.118356 0.270464 0.046034 -0.221573 0.260131 -0.093010 -0.124243 -0.042365 0.125414 -0.115582 0.063684 0.035248 -0.022411 0.019347 -0.079608 -0.124252 0.065812 0.047476 0.128133 -0.170230 0.056263 0.153861 -0.040609 0.154811 0.044178 0.054262 -0.193013 0.068211 -0.165260 -0.226785 0.074863 0.002918 0.050897 -0.026811 0.124358 -0.005709 -0.132187 -0.111711 0.069849 -0.034631 0.049872 0.188126 -0.020028 0.083721 -0.014663 0.033475 0.080108 0.129210 0.091758 0.006417
worst -0.218420 0.124690 -0.068506 0.015565 -0.015808 0.063159 0.019382 -0.020514 0.054113 -0.090344 -0.056621 -0.115681 0.049490 -0.169637 0.084107 0.101032 -0.038807 -0.036387 -0.149572 0.098355 0.032467 -0.090170 -0.037691 0.015765 -0.166587 -0.211322 0.018944 0.017666 0.025194 0.109734 -0.079455 0.063272 -0.016616 0.042048 0.084145 -0.041287 0.051295 -0.031361 0.075238 0.014996 -0.352904 0.025132 0.027869 -0.025000 -0.057804 0.165606 -0.074780 -0.139121 -0.026369 0.017505 -0.048591 -0.218235 0.119655 0.083697 -0.133895 -0.025980 -0.016779 0.015930 0.102476 0.029034 0.054855 -0.111480 0.038231 -0.029520 -0.129853 0.191858 0.092249 -0.275445 -0.061025 0.209582 -0.023559 -0.015996 0.226278 -0.156499 0.029130 0.022190 -0.051900 0.018761 -0.268290 -0.002770 -0.193318 0.143343 -0.267158 0.028861 0.078004 -0.143600 -0.081020 0.114252 -0.026484 0.109482 0.018635 0.033342 -0.008506 -0.031973 -0.147243 -0.135060 -0.133922 -0.165698 -0.117721 -0.094839
best -0.009039 0.008286 -0.157908 0.012491 -0.035864 0.104080 -0.182075 -0.008341 -0.045894 0.176291 0.202787 0.089064 -0.048120 0.046451 0.100047 0.112571 0.056074 0.081629 -0.174440 -0.118934 -0.013268 0.304767 -0.223154 -0.021790 -0.005143 0.101203 -0.052634 0.102136 -0.047240 -0.071940 -0.059905 0.111055 -0.091225 -0.123833 0.055747 -0.071810 -0.078512 -0.113050 -0.143456 0.058337 -0.029804 0.031718 0.020598 -0.079117 0.055905 -0.126174 0.084715 -0.104525 -0.153510 0.065044 0.114749 -0.067859 0.212924 0.023874 0.132922 -0.037402 -0.081478 0.012897 -0.028018 0.066423 -0.078301 -0.092780 0.035610 -0.075893 -0.098705 0.056689 0.112521 0.010635 0.143818 0.056246 0.169859 0.008879 0.002583 -0.137296 0.132851 -0.043850 0.235371 -0.062691 -0.045213 -0.150576 -0.014343 -0.220858 -0.034598 0.020151 0.033831 -0.056898 -0.037554 -0.086822 0.128370 0.056330 0.045378 -0.014181 -0.097871 -0.090935 -0.059677 -0.044732 0.042861 0.077658 0.091514 0.000997
nice 0.074426 0.157388 0.066234 0.058590 0.105536 0.203682 0.024692 -0.042128 0.006596 0.056751 -0.164355 0.019708 -0.058545 0.019208 -0.045603 0.138525 -0.060762 -0.043206 -0.160546 -0.040214 0.018006 -0.127140 0.130079 -0.070686 0.090533 0.034365 -0.045395 -0.026248 -0.100301 -0.011637 -0.043983 0.203181 -0.114930 0.023062 -0.103603 0.072153 -0.117811 0.034960 -0.039021 0.062528 0.074628 0.192223 0.008838 0.158910 -0.046933 0.152465 0.044002 -0.083202 0.107727 0.036415 -0.098963 -0.109492 0.266788 -0.077885 0.030991 0.159316 -0.127563 -0.038483 -0.059389 -0.000457 0.011246 -0.126838 -0.034955 0.145207 -0.094633 -0.032234 -0.126038 0.014824 0.018017 0.138174 0.003631 -0.044841 -0.018962 -0.074843 -0.166127 0.110360 -0.027100 0.080957 0.013461 0.033726 0.155796 0.029231 -0.228293 0.018629 -0.127199 0.019958 0.096191 -0.213347 -0.020937 -0.076646 0.065257 0.004923 -0.236871 -0.181430 -0.017679 0.023826 0.115710 -0.196673 0.077638 -0.077108
not 0.041159 0.037843 -0.060238 -0.018442 -0.153455 0.055123 -0.080755 -0.108596 0.038323 0.022030 -0.058602 0.097801 -0.083085 0.028432 0.056816 0.063282 -0.155675 0.086674 0.066414 -0.004172 -0.045131 0.051299 0.142317 0.119911 0.100151 -0.072239 -0.005622 0.033182 -0.148196 -0.095440 -0.058601 -0.107294 0.097470 0.064028 0.059974 -0.034548 0.103273 -0.061757 0.114602 0.026249 -0.028350 0.074231 0.020207 -0.077522 -0.087900 -0.034734 -0.089966 0.001096 0.053319 -0.081453 0.097633 0.160710 0.006192 -0.058278 0.089426 -0.177877 -0.134045 -0.068101 0.142603 0.076967 -0.034735 0.001637 -0.033500 -0.106385 -0.137200 -0.016190 0.030485 -0.082648 -0.085259 -0.089770 -0.154657 0.059243 0.109083 -0.013807 0.056166 -0.042302 0.116092 0.065769 -0.038349 0.051142 -0.097516 0.036966 -0.040485 -0.089544 0.095518 0.069456 -0.101284 0.064800 0.073130 0.039050 -0.038327 -0.165330 -0.177392 0.054581 -0.079446 0.077774 -0.076803 0.069508 -0.161541 -0.051676
very -0.029190 -0.166236 0.150765 -0.032275 -0.036261 -0.082373 -0.041051 0.085528 -0.039519 0.110703 0.002589 0.088114 0.133204 0.080793 0.079856 -0.162927 0.050094 0.012742 0.059263 -0.121081 -0.059696 0.015490 0.016178 -0.041271 -0.029463 -0.039543 -0.020238 0.145633 0.073983 -0.045589 -0.050274 0.147546 0.053538 0.151016 0.055858 -0.142938 -0.125467 0.068821 0.014103 -0.049413 0.037497 0.041560 0.067572 0.050705 -0.143316 -0.010124 0.075580 -0.070280 -0.124562 0.006189 0.099313 0.070271 -0.020393 -0.145380 0.002056 0.065375 0.024884 0.068224 0.122780 -0.015767 -0.193253 0.118999 -0.111320 0.032775 0.077902 0.000256 0.026691 -0.011977 0.021539 -0.067244 0.032824 -0.032567 -0.073404 -0.089785 0.008951 0.151372 0.110934 -0.001950 -0.191806 0.050685 -0.033031 -0.102731 0.048142 -0.128646 -0.024816 -0.229114 0.039723 -0.001670 0.091283 0.035870 -0.123030 -0.029653 -0.071491 0.046797 -0.057277 0.071620 0.011470 -0.056733 -0.144778 -0.054350
really 0.088947 0.013454 0.093179 0.041853 -0.071743 0.059366 -0.053526 0.113061 -0.133913 0.134132 -0.005414 -0.014045 0.014178 -0.144323 0.034671 -0.123007 0.024007 -0.053175 0.045783 0.085340 -0.131972 -0.135574 0.006282 0.032816 0.168895 -0.094188 -0.197155 -0.086095 -0.062734 -0.159149 -0.221568 -0.026283 0.087460 -0.003176 -0.069752 0.166826 -0.016456 -0.078450 0.039137 0.093821 -0.138355 -0.088393 -0.008231 -0.108357 -0.113695 0.001966 0.085223 0.022583 0.113309 0.088092 0.103546 -0.111169 -0.029700 -0.005848 0.082972 -0.073452 0.005031 -0.004776 -0.018120 -0.019986 -0.038183 0.079422 0.136696 0.023444 0.092543 -0.071572 -0.037357 -0.151579 0.098839 -0.139787 -0.030778 -0.037810 0.177838 0.204844 -0.010255 -0.109223 0.117787 0.083238 0.040653 -0.189000 -0.110798 -0.050828 -0.035447 -0.051773 -0.023877 -0.053762 -0.053552 -0.054569 0.037276 -0.122956 -0.028216 0.110556 -0.021052 -0.000233 -0.048259 0.175927 -0.096032 0.107542 0.087078 -0.260746
quite 0.125951 -0.040453 0.060971 -0.047839 0.030226 -0.007834 -0.087004 0.056414 -0.031552 -0.155113 -0.067773 0.013199 0.065598 0.060302 0.113617 0.105058 0.037070 -0.023724 0.006162 0.067037 0.185427 0.125758 -0.003678 0.091027 -0.094012 0.131554 0.001877 0.046760 0.006554 0.221441 0.020259 -0.007113 -0.048394 -0.001118 -0.042380 -0.007872 -0.120578 -0.035587 0.013759 -0.056057 0.064043 0.012040 0.087728 -0.049250 -0.058987 -0.040683 -0.101688 0.147270 -0.004594 0.110091 -0.131507 0.119717 0.062566 -0.077328 -0.021056 -0.225455 0.094836 -0.067139 0.037304 0.116988 -0.223611 -0.177222 -0.048962 0.209313 0.093835 -0.028290 0.166488 -0.078347 -0.056331 0.002936 0.010100 -0.103591 0.128103 0.137118 -0.099942 -0.062769 -0.091736 -0.046018 -0.103541 0.156947 -0.080242 -0.020363 0.023143 0.105819 0.063049 0.085835 0.060109 -0.017869 0.187507 -0.008346 0.009480 0.094925 -0.074521 0.100498 -0.179215 0.232492 -0.007358 0.040102 -0.097274 -0.085130
extremely 0.026200 -0.053497 -0.264478 -0.241577 0.038884 0.081817 -0.084932 -0.135545 0.120734 0.021109 -0.002062 0.166722 0.023889 -0.136022 -0.082047 -0.102195 -0.161076 0.022090 0.044611 0.143393 -0.105170 -0.015007 0.209991 -0.072708 0.118230 0.051146 0.032322 0.040298 -0.116612 0.004380 -0.137046 -0.104983 0.066956 0.016013 -0.001187 0.150350 -0.023072 0.023896 0.079502 0.010896 -0.084462 -0.012160 -0.038778 -0.066681 0.051649 0.095687 0.017136 0.136563 -0.121034 -0.040726 -0.041218 -0.107482 0.104507 -0.102680 -0.015198 0.142778 -0.035770 0.061023 -0.155282 -0.015942 -0.063465 -0.197599 0.148938 -0.107119 -0.024116 -0.010310 -0.059000 0.003243 -0.058428 0.072170 -0.118626 0.038250 -0.101716 0.044224 -0.029299 0.036829 0.079790 -0.036623 0.186399 0.161554 -0.205340 0.180635 -0.013447 0.183408 0.126890 0.063759 -0.045512 -0.148039 -0.029354 0.099905 -0.032911 -0.003354 0.007091 0.097494 0.070744 -0.131947 0.063530 0.030421 -0.162836 -0.002997
totally 0.090771 -0.194100 -0.062460 0.028772 -0.065443 0.062408 -0.014718 -0.146257 -0.027711 0.016602 0.117493 0.064496 -0.117795 -0.154681 0.127872 -0.004193 0.036300 -0.067422 0.036543 -0.036420 -0.150229 0.011504 -0.160616 0.036953 -0.030411 -0.034412 -0.096987 -0.047089 0.080685 -0.016199 -0.007764 -0.153738 0.004241 0.111402 0.023689 -0.075114 0.037120 -0.065632 0.035271 0.127732 -0.055668 -0.064212 0.055391 0.090085 -0.036276 -0.046725 0.037405 -0.000857 -0.053651 -0.064297 -0.105934 0.110406 0.063820 -0.030194 -0.027506 -0.025756 -0.034688 0.124702 -0.002978 0.026342 0.140357 -0.033930 -0.042362 0.083366 0.010286 0.031802 0.191364 0.064739 0.072959 0.115556 0.023982 -0.023841 -0.041396 0.198761 -0.134686 -0.091489 -0.047038 0.024290 0.104471 0.008747 -0.033030 0.052148 -0.061169 0.118314 -0.132052 -0.032871 0.004915 -0.083866 -0.170712 -0.111509 0.147104 0.035537 0.131647 0.001181 -0.045715 0.122031 -0.029091 0.074031 -0.170215 -0.007235
absolutely 0.196918 0.004008 -0.123750 0.004275 0.151415 -0.055646 0.170660 -0.137487 0.014051 0.009008 0.029606 0.041617 -0.129761 -0.103999 0.103872 -0.127441 0.186796 -0.106022 0.050393 -0.100889 -0.232233 0.032944 0.026510 -0.162516 -0.069341 -0.047065 -0.120083 -0.036054 0.026710 -0.112379 -0.024492 -0.058506 0.257557 -0.089239 -0.195536 -0.007812 -0.027496 -0.101781 0.041255 -0.187524 -0.080051 -0.155290 -0.136119 -0.086521 -0.097587 -0.004139 -0.163775 -0.011958 -0.018661 0.091981 -0.160100 -0.225327 0.041410 -0.298516 -0.044200 -0.027566 0.055596 0.110231 0.042137 -0.087423 -0.056118 0.199882 -0.039175 -0.081529 -0.095615 -0.029971 -0.077748 -0.059133 -0.170431 0.086964 0.037778 0.093735 0.192101 -0.019158 0.046954 -0.068714 0.100777 -0.172513 0.088542 0.137107 0.131676 0.047716 -0.113637 -0.011738 -0.033295 0.090189 0.030288 0.002712 -0.109371 0.000011 -0.030143 -0.006036 -0.116219 0.001341 0.077787 -0.122316 0.042036 0.063948 -0.076067 -0.157624
never 0.029782 -0.054874 0.041064 0.015473 0.157095 0.091080 -0.006454 0.149138 -0.011751 -0.266991 0.067580 -0.002440 -0.014981 -0.100490 0.097334 0.051005 0.113730 0.017102 -0.105364 -0.185528 -0.032364 0.002629 -0.028714 -0.122628 0.202220 0.119529 0.053229 0.214444 -0.047461 -0.111364 0.167528 -0.062691 0.200371 0.052477 -0.195305 -0.119986 0.057627 -0.085075 0.009674 0.012372 -0.002860 0.017313 -0.059934 -0.021300 -0.072862 0.230696 -0.208147 -0.131040 -0.106568 0.099371 -0.057161 -0.057266 0.048613 0.128171 0.044015 -0.038381 -0.096097 -0.007508 0.152522 0.093516 0.064875 0.141871 -0.077978 -0.093586 0.088516 -0.056243 -0.043475 0.047954 0.040935 0.174960 -0.092935 0.057409 0.009580 0.042341 -0.038831 0.034553 0.019813 -0.127614 -0.039160 -0.003288 0.023207 0.114042 -0.065132 0.033029 0.122370 -0.090417 0.031676 0.063290 -0.105949 -0.099738 0.156947 -0.068835 -0.094189 0.178267 0.016068 0.183876 -0.023328 0.081774 -0.169171 -0.058956
always 0.030876 -0.127180 -0.194735 -0.079608 0.145796 -0.035818 -0.106547 -0.126584 -0.146844 -0.088823 -0.027813 -0.043445 0.024132 0.148025 0.036827 0.093435 0.014488 -0.064812 0.143740 0.051515 -0.042519 0.006649 0.160290 0.069923 0.152994 -0.035181 0.016748 0.146283 0.078486 -0.087276 -0.080169 -0.180059 0.124650 0.043891 0.090421 0.026932 -0.015729 0.013713 0.111973 -0.046151 -0.005890 0.122365 0.028055 0.078663 0.145054 0.088885 -0.010143 -0.242612 -0.018298 -0.065505 0.001579 0.095373 0.049631 0.145252 0.138422 -0.256255 -0.021410 0.171478 -0.055079 -0.099968 -0.049695 -0.136020 -0.072090 -0.003519 -0.163490 0.003346 -0.157901 -0.071881 0.010889 0.028595 0.024189 -0.003784 -0.132179 -0.128776 -0.161395 -0.012842 -0.039517 0.122641 -0.065386 -0.036247 0.022866 0.072879 0.044820 -0.095785 -0.017799 -0.085742 -0.050946 0.112169 -0.024849 0.038634 -0.002407 -0.033404 0.060338 -0.091002 0.030309 -0.050779 -0.059568 0.148347 0.120964 0.033718
sometimes 0.000308 -0.002818 0.044488 0.024692 -0.035791 -0.063481 0.103598 -0.050808 0.002124 -0.024843 -0.058037 0.059862 -0.092714 0.058168 -0.035528 -0.154905 0.143067 0.169022 0.120124 -0.084663 0.041032 -0.058917 0.081704 -0.181692 -0.021579 0.003543 -0.026263 -0.012685 -0.091887 -0.061424 0.121571 -0.013482 0.089593 -0.351708 0.027625 -0.101049 0.086709 -0.030117 0.029898 0.047995 0.024325 -0.023663 -0.274593 0.030357 0.141603 -0.092267 -0.025478 -0.033807 0.015256 -0.016761 0.004943 -0.031751 -0.081717 -0.029079 -0.011610 0.098674 -0.208036 0.097308 0.049747 0.151051 0.110523 -0.088120 -0.050872 -0.059636 0.009251 -0.054629 0.108382 0.053036 0.077757 -0.026284 -0.018327 0.055061 0.148495 0.148837 -0.063219 -0.080451 -0.037240 0.054625 -0.004474 0.212996 0.001014 0.031131 -0.025227 -0.005223 -0.093547 0.080760 -0.082806 -0.184943 0.105999 -0.052331 0.114857 0.013564 0.141020 0.145879 0.136893 0.026207 -0.075229 0.101106 -0.092723 -0.077545
often -0.090352 0.117641 -0.059213 0.095085 0.037403 0.087011 0.050770 0.062099 0.116334 -0.006969 0.098414 -0.030071 0.019401 0.028767 -0.039198 -0.125880 -0.126924 -0.129016 -0.011610 0.119127 0.108263 0.051961 0.072656 -0.108960 0.037586 0.037485 0.050786 0.110909 0.005214 -0.001811 -0.025690 -0.007937 0.041336 0.056661 -0.058684 -0.034144 -0.053121 -0.082969 -0.090968 -0.016504 0.069052 -0.014218 0.040998 0.017593 0.088532 -0.067761 -0.007275 0.098936 -0.165368 0.302735 0.159080 -0.025116 0.026967 0.091144 0.124086 -0.085081 0.042597 -0.107550 0.073029 -0.149376 0.028642 -0.143845 -0.005167 0.078737 0.089944 -0.181686 0.107178 0.022025 -0.086641 0.156393 0.070638 -0.000961 -0.115704 -0.126417 -0.081000 -0.061088 -0.175808 -0.082186 -0.048329 -0.058452 0.053289 -0.073104 0.016907 0.014599 -0.048313 0.070864 0.076531 -0.044041 -0.164903 0.018356 -0.015583 0.021662 0.181431 0.079397 -0.075774 -0.085895 -0.053277 0.061964 0.026156 0.067434
rarely 0.001761 -0.045981 -0.002985 -0.019213 -0.186748 0.066666 -0.008549 0.150607 -0.187326 0.179706 0.026600 -0.138096 -0.017406 0.027807 0.036874 0.108438 0.085203 -0.169648 0.006704 0.055165 0.022575 -0.097268 0.131398 -0.017620 -0.110569 -0.090808 -0.086399 0.024021 -0.003439 -0.209439 -0.137753 0.185985 -0.061463 -0.002033 -0.041531 0.044848 -0.064150 0.109597 0.011829 0.045661 -0.055150 -0.101746 -0.105363 0.191531 0.045369 -0.143517 -0.078326 0.060775 0.019453 -0.027822 -0.060919 -0.091015 0.089182 -0.097703 0.039797 0.010239 -0.062716 0.021198 0.038308 0.199983 -0.084991 0.011534 0.075412 -0.007700 0.222931 0.061299 0.029062 -0.047040 0.051970 0.047398 -0.004234 0.008552 0.137734 -0.012809 0.017287 0.036447 -0.173428 0.075412 -0.068935 0.068751 -0.092481 0.056241 -0.076389 0.054667 -0.214896 0.088237 0.048691 0.042492 0.117816 0.136847 0.012021 0.054415 -0.018013 0.114216 -0.080144 -0.194680 0.052742 -0.229763 -0.019064 0.112771
definitely 0.045947 -0.022036 0.160596 -0.070443 -0.122470 0.069163 0.017332 0.045583 -0.001518 -0.071087 0.092296 0.101293 0.079154 -0.086940 0.044421 0.079888 0.116291 -0.118226 -0.099655 0.055588 0.054324 0.087217 -0.002389 0.055240 0.039594 -0.167760 0.080951 -0.173125 -0.059924 0.164265 -0.070927 -0.092404 0.044367 0.062203 0.025754 -0.075389 -0.080471 -0.060394 0.025084 0.119860 0.056270 -0.109479 -0.036089 -0.006965 0.011656 -0.153732 -0.048647 -0.211713 0.083759 -0.029161 0.005725 0.015347 -0.065180 -0.154458 0.118463 -0.071706 -0.001645 -0.012225 -0.129180 -0.060320 0.181738 0.146228 0.031963 0.011026 -0.044368 0.144674 -0.137732 -0.013034 -0.057758 -0.080951 0.033190 -0.008075 -0.162555 -0.107602 -0.180132 -0.157197 -0.082721 0.041555 -0.187374 0.023248 0.022675 -0.102137 0.150454 0.056473 -0.103063 0.026392 -0.048744 -0.088388 -0.096034 -0.181708 -0.102726 -0.176217 -0.147686 0.174456 0.143800 0.007962 0.077651 -0.127162 -0.066256 -0.261082
probably -0.020501 -0.195779 0.021094 0.026051 -0.050453 -0.094550 0.150772 -0.035961 0.062886 0.041948 0.031602 0.205195 -0.116451 -0.054486 0.043218 0.013144 0.029279 -0.188451 0.181081 0.023465 -0.012306 -0.067716 -0.118366 0.009150 -0.122419 0.060223 -0.045256 -0.098973 -0.148613 0.023545 0.041277 0.009076 -0.079291 -0.101439 0.138323 0.073034 0.027213 -0.130658 -0.053043 -0.028154 -0.225417 0.070554 -0.024069 0.080926 -0.018828 -0.096241 -0.008548 0.082694 -0.003594 -0.037055 0.027152 -0.100228 -0.045306 0.114461 -0.037184 -0.102004 -0.032408 0.169658 0.110151 -0.073799 0.015915 0.006373 -0.029373 0.060365 -0.069095 0.113513 0.064201 0.156343 0.001393 -0.000089 -0.060541 -0.014695 0.036311 -0.016519 -0.052465 -0.034282 0.057687 -0.042732 -0.018105 -0.017748 -0.138241 0.068499 -0.143568 -0.032387 0.127080 0.201352 0.072532 -0.020846 0.025594 -0.050437 0.058233 -0.041263 0.102169 0.060085 -0.072515 -0.084044 0.141731 0.262705 -0.168800 0.123422
maybe -0.059528 0.164187 0.077183 0.066190 0.030878 0.170923 -0.007134 0.198076 0.088546 -0.109108 -0.047495 -0.135818 0.034874 -0.151432 0.290428 -0.005531 0.106612 0.102775 -0.177022 0.047248 0.013822 0.033850 0.017976 -0.189920 -0.106490 -0.105035 0.058002 0.042372 -0.002597 0.106178 -0.279638 0.059317 -0.272184 -0.015518 0.037932 -0.015161 -0.002320 0.146313 -0.287712 -0.088859 0.003671 0.055121 0.158105 0.031468 -0.000381 0.125416 0.027002 -0.028823 -0.140751 0.057349 -0.019092 0.089992 0.160492 0.043735 0.133023 -0.159560 -0.254914 0.123155 -0.138330 0.129253 -0.003443 -0.084795 -0.009927 0.062561 -0.095014 0.059383 -0.131348 -0.043504 -0.172179 0.029642 -0.112263 -0.012846 -0.019881 0.054585 -0.104703 0.007773 0.037281 -0.117722 -0.102973 0.181453 0.082977 -0.157498 0.076481 -0.037494 -0.100212 -0.107350 0.078437 -0.155768 -0.140583 0.084403 0.049712 -0.029396 0.029852 -0.022233 -0.070368 0.016867 0.196727 -0.024720 -0.169482 0.130429
